{"learner":{"attributes":{"best_iteration":"51","best_score":"0.9102989762886652","scikit_learn":"{\"_estimator_type\": \"ranker\"}"},"feature_names":["Driver_enc","TeamName_enc","CircuitShortName_enc","Year","RoundNumber","YearsSinceLastRegChange","CareerRaceCount","RollingQualiGap","RollingQualiPos","RollingQualiStdGap","ConRollingQualiGap","CircuitAvgQualiGap","CircuitAvgQualiPos","CircuitVisits","H2H_QualiWinRate","S1Gap_s","S2Gap_s","S3Gap_s","RollingS1Gap","RollingS2Gap","RollingS3Gap","SpeedTrap_kph","RollingSpeedTrap","FP3_BestLap_s","FP3_GapToFastest_s","FP3_PaceRank","FP2_LongRunPace_s","FP2_LongRunRank","FP2_LongRunDelta_s","RollingAvgFinish","RollingAvgGrid","RollingPoints","RollingPodiumRate","RollingDNFRate","DNFStreak","ConRollingAvgFinish","ConRollingPoints","ConChampDelta","ConChampPos","CumPointsBefore","ChampionshipPos_norm","CircuitSCRate","AirTemp_mean","TrackTemp_mean","Humidity_mean","Rainfall_any","IsStreetCircuit","IsHighDownforce","IsLowDownforce"],"feature_types":["int","int","int","int","int","int","int","float","float","float","float","float","float","float","float","float","float","float","float","float","float","float","float","float","float","float","float","float","float","float","float","float","float","float","float","float","float","float","int","float","float","float","float","float","float","i","int","int","int"],"gradient_booster":{"model":{"cats":{"enc":[],"feature_segments":[],"sorted_idx":[]},"gbtree_model_param":{"num_parallel_tree":"1","num_trees":"92"},"iteration_indptr":[0,1,2,3,4,5,6,7,8,9,10,11,12,13,14,15,16,17,18,19,20,21,22,23,24,25,26,27,28,29,30,31,32,33,34,35,36,37,38,39,40,41,42,43,44,45,46,47,48,49,50,51,52,53,54,55,56,57,58,59,60,61,62,63,64,65,66,67,68,69,70,71,72,73,74,75,76,77,78,79,80,81,82,83,84,85,86,87,88,89,90,91,92],"tree_info":[0,0,0,0,0,0,0,0,0,0,0,0,0,0,0,0,0,0,0,0,0,0,0,0,0,0,0,0,0,0,0,0,0,0,0,0,0,0,0,0,0,0,0,0,0,0,0,0,0,0,0,0,0,0,0,0,0,0,0,0,0,0,0,0,0,0,0,0,0,0,0,0,0,0,0,0,0,0,0,0,0,0,0,0,0,0,0,0,0,0,0,0],"trees":[{"base_weights":[-2.785952E-3,5.040774E-1,-3.334998E-1,1.4405589E-1,6.761805E-1,-5.6172196E-2,-5.17272E-1,2.8834867E-1,-7.485967E-2,7.76544E-1,4.7519627E-1,-2.2497056E-1,1.5511566E-1,-6.459508E-1,-3.2980126E-1,3.6706182E-1,-1.8912157E-2,4.0244237E-2,-3.8216636E-1,3.475574E-2,6.581806E-1,5.147633E-1,1.8245086E-1,-1.3782346E-1,-4.8869655E-1,2.8938606E-1,-0E0,-4.88975E-1,-7.694768E-1,-1.9011411E-1,-4.4287172E-1,4.8122644E-1,2.3216881E-1,1.2836921E-1,-2.1767452E-1,1.4894564E-1,-1.7185684E-1,-0E0,-1.7756904E-2,3.030473E-2,5.626064E-1,5.255099E-1,-0E0,2.9905057E-1,-0E0,-3.543187E-2,-3.1394106E-1,-2.6099566E-1,-5.589011E-1,-2.9943832E-3,3.4546342E-1,8.564831E-2,-1.9923837E-1,-1.8029033E-1,-5.3253996E-1,-8.35891E-1,-2.6724827E-2,1.3439405E-1,-2.5610083E-1,-5.631676E-1,-3.5213128E-1,2.048483E-2,3.8219956E-3,-3.828157E-4,1.0046082E-2,8.869764E-3,-0E0,-5.070627E-4,-1.921026E-2,8.755685E-3,-7.185307E-4,-1.0746084E-2,-0E0,3.3068855E-3,2.3201147E-2,-0E0,2.1339172E-2,4.13921E-4,1.4143684E-2,3.2126042E-3,-1.716656E-3,5.941583E-3,-4.5087514E-3,-4.45901E-3,-1.587249E-2,-1.2728031E-2,-0E0,-2.299333E-2,-4.4371784E-3,3.4471212E-3,-6.896697E-3,1.6773134E-2,6.567249E-3,9.231249E-3,-1.2124802E-3,-1.2046303E-2,4.3404247E-3,3.0549086E-4,-1.1942442E-2,-1.3586685E-2,-2.3962595E-2,-9.700968E-3,-3.3882447E-2,-7.932495E-3,8.358426E-3,1.1892667E-3,-1.2100158E-2,-8.111478E-3,-2.3503127E-2,-3.886987E-3,-1.5767831E-2],"categories":[],"categories_nodes":[],"categories_segments":[],"categories_sizes":[],"default_left":[0,0,0,0,0,0,0,0,0,0,0,0,0,0,0,0,0,0,0,0,0,0,0,0,0,0,0,0,0,0,0,0,0,0,0,0,0,0,0,0,0,0,0,0,0,0,0,0,0,0,0,0,0,0,0,0,0,0,0,0,0,0,0,0,0,0,0,0,0,0,0,0,0,0,0,0,0,0,0,0,0,0,0,0,0,0,0,0,0,0,0,0,0,0,0,0,0,0,0,0,0,0,0,0,0,0,0,0,0,0,0],"id":0,"left_children":[1,3,5,7,9,11,13,15,17,19,21,23,25,27,29,31,33,35,37,-1,39,41,43,45,47,49,51,53,55,57,59,61,63,65,67,69,71,-1,-1,-1,73,75,-1,77,79,81,83,85,87,89,91,93,95,97,99,101,-1,103,105,107,109,-1,-1,-1,-1,-1,-1,-1,-1,-1,-1,-1,-1,-1,-1,-1,-1,-1,-1,-1,-1,-1,-1,-1,-1,-1,-1,-1,-1,-1,-1,-1,-1,-1,-1,-1,-1,-1,-1,-1,-1,-1,-1,-1,-1,-1,-1,-1,-1,-1,-1],"loss_changes":[1.5079477E2,2.1824165E1,2.7667397E1,3.7170594E0,4.3430786E0,7.830271E0,7.582329E0,1.74894E0,1.7024096E0,1.0028E0,7.951622E-1,2.6754136E0,2.0144923E0,3.2336426E0,1.9931555E0,6.870365E-1,4.785306E-1,8.224676E-1,3.2359433E-1,0E0,1.4366722E-1,4.1183853E-1,2.3209196E-1,1.6386759E0,2.4595118E-1,8.8809824E-1,8.022874E-1,1.0153236E0,2.746582E-3,1.3908565E0,5.1523876E-1,2.3902893E-1,1.5612066E-1,1.0927951E-1,3.2579124E-1,3.0146968E-1,2.081762E-1,0E0,0E0,0E0,2.3745537E-1,3.0542374E-1,0E0,6.9420636E-2,2.5395503E-2,8.7430423E-1,4.7307253E-1,1.5617365E-1,2.0700455E-2,1.6058703E-1,4.6116304E-1,5.8622414E-1,4.9328172E-1,3.1302366E-1,6.81242E-1,7.857132E-2,0E0,3.1560016E-1,7.3617935E-1,6.1940193E-2,3.971386E-1,0E0,0E0,0E0,0E0,0E0,0E0,0E0,0E0,0E0,0E0,0E0,0E0,0E0,0E0,0E0,0E0,0E0,0E0,0E0,0E0,0E0,0E0,0E0,0E0,0E0,0E0,0E0,0E0,0E0,0E0,0E0,0E0,0E0,0E0,0E0,0E0,0E0,0E0,0E0,0E0,0E0,0E0,0E0,0E0,0E0,0E0,0E0,0E0,0E0,0E0],"parents":[2147483647,0,0,1,1,2,2,3,3,4,4,5,5,6,6,7,7,8,8,9,9,10,10,11,11,12,12,13,13,14,14,15,15,16,16,17,17,18,18,20,20,21,21,22,22,23,23,24,24,25,25,26,26,27,27,28,28,29,29,30,30,31,31,32,32,33,33,34,34,35,35,36,36,40,40,41,41,43,43,44,44,45,45,46,46,47,47,48,48,49,49,50,50,51,51,52,52,53,53,54,54,55,55,57,57,58,58,59,59,60,60],"right_children":[2,4,6,8,10,12,14,16,18,20,22,24,26,28,30,32,34,36,38,-1,40,42,44,46,48,50,52,54,56,58,60,62,64,66,68,70,72,-1,-1,-1,74,76,-1,78,80,82,84,86,88,90,92,94,96,98,100,102,-1,104,106,108,110,-1,-1,-1,-1,-1,-1,-1,-1,-1,-1,-1,-1,-1,-1,-1,-1,-1,-1,-1,-1,-1,-1,-1,-1,-1,-1,-1,-1,-1,-1,-1,-1,-1,-1,-1,-1,-1,-1,-1,-1,-1,-1,-1,-1,-1,-1,-1,-1,-1,-1],"split_conditions":[4.06E-1,1.0866667E1,4.8E-1,3.87E-1,2.05E-1,4.733333E0,2.3017902E-2,1.1E2,1.4E1,1.15E-1,4.15E-1,6.65E-1,3.65E-1,8.98E-1,5.78E-1,2.85E-1,1.474E0,1.32E1,3.1553333E2,3.475574E-2,7.6E-2,2.4E1,3.45E-1,1.3933333E1,6.73E-1,7.7768E1,7.4E1,1.13E1,2.610966E-3,8E0,6.0341175E1,2.9433332E1,2.6666668E-1,2.76E-1,6.654872E1,7.6E1,2E-1,-0E0,-1.7756904E-2,3.030473E-2,3.8E0,5.4857E1,-0E0,1.1E1,6.5E1,1E1,2.87E-1,6.654872E1,1.186235E2,1.1133333E1,3.4E-1,9E0,6.835526E1,6.33E-1,5.64E-1,4.2573333E-1,-2.6724827E-2,1.856E-1,4E0,5.96E-1,7.28E-1,2.048483E-2,3.8219956E-3,-3.828157E-4,1.0046082E-2,8.869764E-3,-0E0,-5.070627E-4,-1.921026E-2,8.755685E-3,-7.185307E-4,-1.0746084E-2,-0E0,3.3068855E-3,2.3201147E-2,-0E0,2.1339172E-2,4.13921E-4,1.4143684E-2,3.2126042E-3,-1.716656E-3,5.941583E-3,-4.5087514E-3,-4.45901E-3,-1.587249E-2,-1.2728031E-2,-0E0,-2.299333E-2,-4.4371784E-3,3.4471212E-3,-6.896697E-3,1.6773134E-2,6.567249E-3,9.231249E-3,-1.2124802E-3,-1.2046303E-2,4.3404247E-3,3.0549086E-4,-1.1942442E-2,-1.3586685E-2,-2.3962595E-2,-9.700968E-3,-3.3882447E-2,-7.932495E-3,8.358426E-3,1.1892667E-3,-1.2100158E-2,-8.111478E-3,-2.3503127E-2,-3.886987E-3,-1.5767831E-2],"split_indices":[16,36,17,17,16,36,40,6,25,15,15,15,15,16,15,16,11,30,22,0,16,4,17,30,16,23,6,35,40,25,44,42,36,16,44,6,31,0,0,0,31,23,0,2,6,25,17,44,26,30,17,25,44,16,16,20,0,19,38,15,16,0,0,0,0,0,0,0,0,0,0,0,0,0,0,0,0,0,0,0,0,0,0,0,0,0,0,0,0,0,0,0,0,0,0,0,0,0,0,0,0,0,0,0,0,0,0,0,0,0,0],"split_type":[0,0,0,0,0,0,0,0,0,0,0,0,0,0,0,0,0,0,0,0,0,0,0,0,0,0,0,0,0,0,0,0,0,0,0,0,0,0,0,0,0,0,0,0,0,0,0,0,0,0,0,0,0,0,0,0,0,0,0,0,0,0,0,0,0,0,0,0,0,0,0,0,0,0,0,0,0,0,0,0,0,0,0,0,0,0,0,0,0,0,0,0,0,0,0,0,0,0,0,0,0,0,0,0,0,0,0,0,0,0,0],"sum_hessian":[8.9768567E2,3.5412106E2,5.4356464E2,1.15314156E2,2.388069E2,2.1737596E2,3.2618866E2,6.9587135E1,4.572702E1,1.5703075E2,8.177616E1,1.2106521E2,9.631075E1,1.9165724E2,1.3453142E2,5.550012E1,1.4087021E1,3.3662228E1,1.2064793E1,8.417216E1,7.285859E1,7.1070404E1,1.0705758E1,9.2425415E1,2.8639791E1,5.101397E1,4.5296783E1,8.694116E1,1.0471608E2,6.1777428E1,7.275399E1,2.8267536E1,2.7232582E1,8.005817E0,6.081204E0,2.2764631E1,1.0897596E1,1.7401235E0,1.0324669E1,3.1799883E1,4.1058704E1,6.964419E1,1.4262145E0,5.9523463E0,4.7534113E0,5.9564613E1,3.2860806E1,8.196707E0,2.0443085E1,8.075043E0,4.2938927E1,3.2225975E1,1.3070808E1,1.1671958E1,7.52692E1,5.828847E1,4.6427605E1,1.0008024E1,5.17694E1,2.8569979E1,4.4184013E1,2.562753E1,2.6400056E0,1.6353593E0,2.5597223E1,4.240611E0,3.7652063E0,4.217617E0,1.8635869E0,1.6244665E1,6.519966E0,6.75306E0,4.1445365E0,1.8405929E0,3.921811E1,1.0217301E0,6.862246E1,1.4262145E0,4.5261316E0,1.8114123E0,2.941999E0,1.6965246E1,4.2599365E1,1.0575424E1,2.2285381E1,6.729663E0,1.467044E0,1.9251966E1,1.191118E0,5.225704E0,2.8493388E0,2.9183224E1,1.3755704E1,1.4255878E1,1.7970095E1,1.0079181E1,2.9916277E0,4.5430827E0,7.1288757E0,2.1254896E1,5.4014305E1,1.6620723E0,5.66264E1,1.2829694E0,8.725055E0,6.979789E0,4.4789616E1,2.662764E0,2.5907215E1,7.0628595E0,3.7121155E1],"tree_param":{"num_deleted":"0","num_feature":"49","num_nodes":"111","size_leaf_vector":"1"}},{"base_weights":[1.3516728E-2,4.024476E-1,-1.7198071E-1,6.61507E-1,2.5864813E-1,-1.3077567E-2,-3.6702505E-1,7.644031E-1,5.54732E-1,4.5668137E-1,1.7653868E-1,4.5639463E-2,-2.652756E-1,-2.8564847E-1,-6.407873E-1,8.2000345E-1,5.924992E-1,5.820066E-1,1.6511966E-1,6.044002E-2,4.8290902E-1,1.9446684E-1,-4.8917738E-1,1.3707444E-1,-7.685159E-2,-3.447499E-1,-6.389079E-3,-1.8988936E-1,-4.3681228E-1,-7.5270355E-1,-5.215842E-1,8.396099E-1,2.1907207E-1,2.291235E-1,6.82315E-1,5.927336E-1,1.8486105E-1,2.2132006E-2,-3.8652163E-2,9.621692E-3,-4.852931E-3,5.171648E-1,2.5092933E-1,3.7331945E-1,1.37395E-1,2.0778981E-4,-2.5633745E-2,2.563832E-1,6.483877E-2,-1.09747745E-1,1.9959506E-1,-1.0050825E-1,-4.072571E-1,2.1725257E-1,-1.7313293E-1,-1.2710823E-1,-3.0848536E-1,-5.167813E-1,-1.8047723E-1,-2.200294E-1,-3.130727E-2,-5.387966E-1,-0E0,5.9304223E-3,3.3920657E-2,-0E0,1.2215989E-2,-2.4971548E-3,1.8603446E-2,2.8327486E-2,3.4019065E-3,2.0708723E-2,2.6798503E-2,-1.4485388E-4,1.2534659E-2,2.4758289E-3,-4.3864595E-3,8.4794415E-3,2.135392E-2,1.5173915E-2,-2.0711597E-3,-1.0332878E-3,1.5983481E-2,1.019434E-2,2.5871568E-3,8.666866E-3,1.864496E-2,-5.3494773E-3,5.654303E-3,-2.1329797E-3,-1.0595093E-2,1.2203933E-2,-6.7898055E-4,-7.879135E-3,4.39894E-3,-2.0093083E-2,-1.0258204E-2,-3.48505E-4,1.2774429E-2,-1.1747006E-2,4.3929326E-3,-1.672138E-3,-9.7053405E-3,-0E0,-1.3103332E-2,-9.778097E-3,-2.189244E-2,9.405345E-3,-1.06163E-2,-1.8335653E-2,1.5066426E-3,-1.2925827E-2,-2.3602724E-2],"categories":[],"categories_nodes":[],"categories_segments":[],"categories_sizes":[],"default_left":[0,0,0,0,0,0,0,0,0,0,0,0,0,0,0,0,0,0,0,0,0,0,0,0,0,0,0,0,0,0,0,0,0,0,0,0,0,0,0,0,0,0,0,0,0,0,0,0,0,0,0,0,0,0,0,0,0,0,0,0,0,0,0,0,0,0,0,0,0,0,0,0,0,0,0,0,0,0,0,0,0,0,0,0,0,0,0,0,0,0,0,0,0,0,0,0,0,0,0,0,0,0,0,0,0,0,0,0,0,0,0,0,0],"id":1,"left_children":[1,3,5,7,9,11,13,15,17,19,21,23,25,27,29,31,33,35,37,39,41,43,45,47,49,51,53,55,57,59,61,63,65,67,69,71,73,-1,75,-1,-1,77,79,81,83,-1,-1,85,87,89,91,93,95,97,99,101,103,105,107,109,-1,111,-1,-1,-1,-1,-1,-1,-1,-1,-1,-1,-1,-1,-1,-1,-1,-1,-1,-1,-1,-1,-1,-1,-1,-1,-1,-1,-1,-1,-1,-1,-1,-1,-1,-1,-1,-1,-1,-1,-1,-1,-1,-1,-1,-1,-1,-1,-1,-1,-1,-1,-1],"loss_changes":[1.1063758E2,1.8187218E1,3.2127323E1,1.3765945E0,5.065546E0,8.523685E0,1.0098537E1,1.9921112E-1,7.9029465E-1,8.8210106E-1,2.7923846E0,5.2308455E0,2.1999388E0,5.080784E0,8.890114E-1,4.439926E-1,5.7407093E-1,1.7006111E-1,6.7031145E-1,2.751064E-1,4.8292732E-1,2.1773052E0,5.2648115E-1,2.2558131E0,1.8241001E0,1.1736517E0,1.034638E0,1.5791521E0,2.6832104E0,5.544491E-1,5.022974E-1,1.2218857E-1,3.789258E-2,5.312642E-1,1.611147E-1,3.56102E-3,1.2668626E-1,0E0,5.239606E-2,0E0,0E0,1.904602E-1,5.764988E-1,6.035981E-1,1.4148378E0,0E0,0E0,6.634922E-1,2.5787554E0,1.5203953E0,5.1863116E-1,4.068812E-1,7.320566E-1,3.0282384E-1,6.0308903E-1,1.4219084E0,4.790454E-1,6.599903E-1,1.2955711E0,3.2517862E-1,0E0,3.0529594E-1,0E0,0E0,0E0,0E0,0E0,0E0,0E0,0E0,0E0,0E0,0E0,0E0,0E0,0E0,0E0,0E0,0E0,0E0,0E0,0E0,0E0,0E0,0E0,0E0,0E0,0E0,0E0,0E0,0E0,0E0,0E0,0E0,0E0,0E0,0E0,0E0,0E0,0E0,0E0,0E0,0E0,0E0,0E0,0E0,0E0,0E0,0E0,0E0,0E0,0E0,0E0],"parents":[2147483647,0,0,1,1,2,2,3,3,4,4,5,5,6,6,7,7,8,8,9,9,10,10,11,11,12,12,13,13,14,14,15,15,16,16,17,17,18,18,19,19,20,20,21,21,22,22,23,23,24,24,25,25,26,26,27,27,28,28,29,29,30,30,31,31,32,32,33,33,34,34,35,35,36,36,38,38,41,41,42,42,43,43,44,44,47,47,48,48,49,49,50,50,51,51,52,52,53,53,54,54,55,55,56,56,57,57,58,58,59,59,61,61],"right_children":[2,4,6,8,10,12,14,16,18,20,22,24,26,28,30,32,34,36,38,40,42,44,46,48,50,52,54,56,58,60,62,64,66,68,70,72,74,-1,76,-1,-1,78,80,82,84,-1,-1,86,88,90,92,94,96,98,100,102,104,106,108,110,-1,112,-1,-1,-1,-1,-1,-1,-1,-1,-1,-1,-1,-1,-1,-1,-1,-1,-1,-1,-1,-1,-1,-1,-1,-1,-1,-1,-1,-1,-1,-1,-1,-1,-1,-1,-1,-1,-1,-1,-1,-1,-1,-1,-1,-1,-1,-1,-1,-1,-1,-1,-1],"split_conditions":[2.5E-1,1.45E-1,7.49E-1,4.8E-2,6.3333335E0,6.49E-1,1.8E1,7.125E0,1.38E2,5E0,1.6866667E1,1.16E1,1.6E1,7.97E-1,2.7210885E-3,2.29E-1,1.1313333E-1,1.407E0,4E-3,1.725E0,1.9E-1,1.01E-1,1.44E1,2.021E3,1.0222217E2,2.02E3,2.967284E1,1.26E1,3.5E1,1.6466291E1,6E0,2E0,1.7E1,5.383667E-1,1.03452E2,6.666667E-1,3E1,2.2132006E-2,6E0,9.621692E-3,-4.852931E-3,2.6755102E1,1E1,6.4666667E0,2.3169231E1,2.0778981E-4,-2.5633745E-2,2.622549E-1,7.9007E1,1.4166667E1,8E0,2.4014286E1,1.3E1,1.3562334E0,9.1924E1,1.3E1,6E0,7.75E0,4.2E1,1E0,-3.130727E-2,9.06E-1,-0E0,5.9304223E-3,3.3920657E-2,-0E0,1.2215989E-2,-2.4971548E-3,1.8603446E-2,2.8327486E-2,3.4019065E-3,2.0708723E-2,2.6798503E-2,-1.4485388E-4,1.2534659E-2,2.4758289E-3,-4.3864595E-3,8.4794415E-3,2.135392E-2,1.5173915E-2,-2.0711597E-3,-1.0332878E-3,1.5983481E-2,1.019434E-2,2.5871568E-3,8.666866E-3,1.864496E-2,-5.3494773E-3,5.654303E-3,-2.1329797E-3,-1.0595093E-2,1.2203933E-2,-6.7898055E-4,-7.879135E-3,4.39894E-3,-2.0093083E-2,-1.0258204E-2,-3.48505E-4,1.2774429E-2,-1.1747006E-2,4.3929326E-3,-1.672138E-3,-9.7053405E-3,-0E0,-1.3103332E-2,-9.778097E-3,-2.189244E-2,9.405345E-3,-1.06163E-2,-1.8335653E-2,1.5066426E-3,-1.2925827E-2,-2.3602724E-2],"split_indices":[15,16,16,16,8,15,25,12,6,1,8,8,2,15,40,15,19,24,15,11,15,15,30,3,26,3,43,12,39,42,13,27,0,10,23,14,0,0,25,0,0,44,25,8,42,0,0,40,23,12,38,42,4,10,23,25,0,12,39,13,0,16,0,0,0,0,0,0,0,0,0,0,0,0,0,0,0,0,0,0,0,0,0,0,0,0,0,0,0,0,0,0,0,0,0,0,0,0,0,0,0,0,0,0,0,0,0,0,0,0,0,0,0],"split_type":[0,0,0,0,0,0,0,0,0,0,0,0,0,0,0,0,0,0,0,0,0,0,0,0,0,0,0,0,0,0,0,0,0,0,0,0,0,0,0,0,0,0,0,0,0,0,0,0,0,0,0,0,0,0,0,0,0,0,0,0,0,0,0,0,0,0,0,0,0,0,0,0,0,0,0,0,0,0,0,0,0,0,0,0,0,0,0,0,0,0,0,0,0,0,0,0,0,0,0,0,0,0,0,0,0,0,0,0,0,0,0,0,0],"sum_hessian":[1.5312515E3,4.9427625E2,1.0369752E3,1.7489738E2,3.1937888E2,5.7230035E2,4.6467487E2,8.5453094E1,8.944428E1,9.191548E1,2.2746338E2,4.6456284E2,1.0773753E2,3.6005597E2,1.0461893E2,6.128069E1,2.4172407E1,8.2891075E1,6.553205E0,6.1481323E0,8.576735E1,2.2233388E2,5.1295004E0,2.6640146E2,1.9816138E2,8.18828E1,2.5854734E1,2.2220898E2,1.3784697E2,5.078503E1,5.3833893E1,5.8798687E1,2.4820013E0,5.715029E0,1.8457376E1,7.998633E1,2.9047465E0,1.8343204E0,4.7188845E0,3.2020888E0,2.9460433E0,7.328512E1,1.2482232E1,5.2019863E1,1.7031401E2,1.2761527E0,3.8533475E0,9.898247E1,1.6741899E2,1.7795064E2,2.0210741E1,1.7542952E1,6.433984E1,1.0657694E1,1.5197041E1,1.4720049E2,7.50085E1,1.0399686E2,3.3850113E1,3.3279006E0,4.745713E1,5.2116653E1,1.7172375E0,1.0731738E0,5.7725513E1,1.2840271E0,1.1979741E0,2.695785E0,3.0192437E0,1.7352564E1,1.1048127E0,4.5139305E1,3.4847027E1,1.256073E0,1.6486735E0,1.4234226E0,3.2954621E0,4.819771E0,6.846535E1,8.81837E0,3.663863E0,2.9779382E0,4.9041924E1,6.3636826E1,1.0667719E2,8.5335236E1,1.3647231E1,4.5996857E1,1.2142214E2,1.3194748E2,4.6003162E1,1.3625809E1,6.584933E0,1.2399255E1,5.1436963E0,3.762548E1,2.6714363E1,3.2969246E0,7.3607697E0,1.0878303E1,4.318738E0,8.595678E1,6.1243706E1,4.1400914E0,7.086841E1,1.1721573E1,9.227528E1,5.2437177E0,2.8606394E1,1.5258094E0,1.8020911E0,1.1788126E1,4.032853E1],"tree_param":{"num_deleted":"0","num_feature":"49","num_nodes":"113","size_leaf_vector":"1"}},{"base_weights":[1.529295E-3,2.3469178E-1,-2.7898175E-1,4.5614776E-1,6.728216E-2,-1.2708817E-1,-4.035719E-1,7.810925E-1,3.725421E-1,1.218978E-1,-1.19808875E-1,-2.8923258E-2,-2.7390957E-1,-3.4771934E-1,-5.828338E-1,3.1542998E-2,7.572705E-3,4.6544898E-1,1.9557892E-1,1.8824336E-1,2.740619E-2,9.119659E-2,-1.9372413E-1,2.0889369E-1,-6.529398E-2,-1.0064189E-1,-3.761011E-1,-2.9323676E-1,-5.0512296E-1,1.39063E-3,-6.020009E-1,6.3324265E-2,4.791318E-1,2.6579058E-1,6.267757E-2,2.0969E-1,-1.4844857E-1,6.719159E-2,-1.8028384E-1,1.4353031E-1,-1.18308306E-1,-1.1628095E-1,-4.0016964E-1,3.4408417E-1,2.6166324E-2,-1.6230723E-1,-7.573277E-3,-3.49776E-2,-1.907508E-2,-4.0297538E-2,-4.2429245E-1,-3.6564502E-1,-5.6561507E-2,1.9320982E-4,-5.2347374E-1,-3.0268645E-1,-6.49272E-1,-4.717026E-3,7.964368E-3,2.2695184E-2,1.6368741E-2,1.2411923E-2,1.4462456E-3,7.095638E-3,-3.0970157E-3,1.2074187E-2,5.801665E-3,-9.200782E-3,8.48921E-4,-1.3632394E-3,4.6574087E-3,-0E0,-1.0744082E-2,9.870706E-3,1.623718E-3,1.6274154E-3,-7.45294E-3,-6.45763E-3,1.239053E-2,-2.3210017E-2,-0E0,4.48983E-3,1.8548705E-2,5.175802E-3,-9.46961E-3,-4.110519E-3,-1.4389889E-2,-2.722547E-3,5.437902E-3,6.411302E-4,-1.1625615E-2,2.2347094E-3,-1.0368429E-2,-3.3240935E-3,-1.8300842E-2,-2.0562403E-2,-1.0487611E-2,8.657223E-3,-6.534997E-3,-1.681133E-2,-2.6897144E-2,-1.6615909E-2,-5.4708105E-3,-1.0426174E-2,-2.7092127E-2],"categories":[],"categories_nodes":[],"categories_segments":[],"categories_sizes":[],"default_left":[0,0,0,0,0,0,0,0,0,0,0,0,0,0,0,0,0,0,0,0,0,0,0,0,0,0,0,0,0,0,0,0,0,0,0,0,0,0,0,0,0,0,0,0,0,0,0,0,0,0,0,0,0,0,0,0,0,0,0,0,0,0,0,0,0,0,0,0,0,0,0,0,0,0,0,0,0,0,0,0,0,0,0,0,0,0,0,0,0,0,0,0,0,0,0,0,0,0,0,0,0,0,0,0,0],"id":2,"left_children":[1,3,5,7,9,11,13,15,17,19,21,23,25,27,29,-1,-1,31,33,35,37,39,41,43,45,47,49,51,53,-1,55,57,59,61,63,65,67,69,71,73,75,77,79,81,83,85,87,89,-1,91,93,95,97,-1,99,101,103,-1,-1,-1,-1,-1,-1,-1,-1,-1,-1,-1,-1,-1,-1,-1,-1,-1,-1,-1,-1,-1,-1,-1,-1,-1,-1,-1,-1,-1,-1,-1,-1,-1,-1,-1,-1,-1,-1,-1,-1,-1,-1,-1,-1,-1,-1,-1,-1],"loss_changes":[9.706035E1,2.9969845E1,1.2640171E1,9.0627365E0,4.746538E0,4.3618608E0,3.4003181E0,6.362915E-2,4.4361534E0,2.226059E0,1.6612779E0,1.5950251E0,2.071167E0,2.2106667E0,1.0931911E0,0E0,0E0,9.173813E-1,8.6752486E-1,1.5559821E0,1.2404522E0,3.209884E-1,1.1525238E0,5.553812E-1,8.841291E-1,1.0911887E0,1.1645088E0,3.6061783E0,7.212734E-1,0E0,8.8856506E-1,2.133551E-1,7.542839E-1,6.031647E-1,5.986569E-1,1.0937891E0,2.0431805E-1,6.457427E-1,3.9701176E-1,2.0391595E-1,8.3374806E-2,1.1636076E0,1.4848235E0,2.6744986E-1,3.387745E-1,6.153015E-1,8.9429873E-1,5.7002425E-1,0E0,2.6405305E-1,6.561527E-1,2.297041E0,1.5365124E0,0E0,6.68478E-1,1.4116526E-1,5.0178146E-1,0E0,0E0,0E0,0E0,0E0,0E0,0E0,0E0,0E0,0E0,0E0,0E0,0E0,0E0,0E0,0E0,0E0,0E0,0E0,0E0,0E0,0E0,0E0,0E0,0E0,0E0,0E0,0E0,0E0,0E0,0E0,0E0,0E0,0E0,0E0,0E0,0E0,0E0,0E0,0E0,0E0,0E0,0E0,0E0,0E0,0E0,0E0,0E0],"parents":[2147483647,0,0,1,1,2,2,3,3,4,4,5,5,6,6,7,7,8,8,9,9,10,10,11,11,12,12,13,13,14,14,17,17,18,18,19,19,20,20,21,21,22,22,23,23,24,24,25,25,26,26,27,27,28,28,30,30,31,31,32,32,33,33,34,34,35,35,36,36,37,37,38,38,39,39,40,40,41,41,42,42,43,43,44,44,45,45,46,46,47,47,49,49,50,50,51,51,52,52,54,54,55,55,56,56],"right_children":[2,4,6,8,10,12,14,16,18,20,22,24,26,28,30,-1,-1,32,34,36,38,40,42,44,46,48,50,52,54,-1,56,58,60,62,64,66,68,70,72,74,76,78,80,82,84,86,88,90,-1,92,94,96,98,-1,100,102,104,-1,-1,-1,-1,-1,-1,-1,-1,-1,-1,-1,-1,-1,-1,-1,-1,-1,-1,-1,-1,-1,-1,-1,-1,-1,-1,-1,-1,-1,-1,-1,-1,-1,-1,-1,-1,-1,-1,-1,-1,-1,-1,-1,-1,-1,-1,-1,-1],"split_conditions":[5.73E-1,2.39E-1,5.91E-1,2.8E-2,5.7E-1,5.53E-1,1.8E1,1.2066667E1,2.82E-1,3.39E-1,2.02E3,1.78E-1,2.021E3,1.197E0,9.2E0,3.1542998E-2,7.572705E-3,2.84E2,3.26E2,1.6E1,1.4E1,6.9946665E-1,9.02E-1,3.15E2,1.4705882E-2,9.285333E-1,2.47E-1,7.4258224E1,1.0713334E-1,1.39063E-3,1.4615E0,5.744E-1,4.4666667E0,5E0,4.13E-1,1.32E2,6.266667E0,8.6E0,5.694E-1,3.415273E1,3.5E-1,7.374667E-1,2.9411765E-2,1.8486667E-1,2.3032856E0,1.7767369E0,2.4245315E0,9.64E-1,-1.907508E-2,2.4869698E1,3.651282E1,1.301E0,2.86E2,1.9320982E-4,3.254E0,7.352941E-3,4.85E-1,-4.717026E-3,7.964368E-3,2.2695184E-2,1.6368741E-2,1.2411923E-2,1.4462456E-3,7.095638E-3,-3.0970157E-3,1.2074187E-2,5.801665E-3,-9.200782E-3,8.48921E-4,-1.3632394E-3,4.6574087E-3,-0E0,-1.0744082E-2,9.870706E-3,1.623718E-3,1.6274154E-3,-7.45294E-3,-6.45763E-3,1.239053E-2,-2.3210017E-2,-0E0,4.48983E-3,1.8548705E-2,5.175802E-3,-9.46961E-3,-4.110519E-3,-1.4389889E-2,-2.722547E-3,5.437902E-3,6.411302E-4,-1.1625615E-2,2.2347094E-3,-1.0368429E-2,-3.3240935E-3,-1.8300842E-2,-2.0562403E-2,-1.0487611E-2,8.657223E-3,-6.534997E-3,-1.681133E-2,-2.6897144E-2,-1.6615909E-2,-5.4708105E-3,-1.0426174E-2,-2.7092127E-2],"split_indices":[16,17,17,17,17,15,25,30,16,15,3,17,3,17,30,0,0,21,21,25,30,20,17,21,40,20,17,44,18,0,11,10,8,13,16,37,31,8,20,43,16,20,40,18,28,9,28,15,0,42,44,24,21,0,16,40,15,0,0,0,0,0,0,0,0,0,0,0,0,0,0,0,0,0,0,0,0,0,0,0,0,0,0,0,0,0,0,0,0,0,0,0,0,0,0,0,0,0,0,0,0,0,0,0,0],"split_type":[0,0,0,0,0,0,0,0,0,0,0,0,0,0,0,0,0,0,0,0,0,0,0,0,0,0,0,0,0,0,0,0,0,0,0,0,0,0,0,0,0,0,0,0,0,0,0,0,0,0,0,0,0,0,0,0,0,0,0,0,0,0,0,0,0,0,0,0,0,0,0,0,0,0,0,0,0,0,0,0,0,0,0,0,0,0,0,0,0,0,0,0,0,0,0,0,0,0,0,0,0,0,0,0,0],"sum_hessian":[1.4820643E3,8.0962164E2,6.724427E2,3.4754868E2,4.62073E2,3.0429068E2,3.68152E2,6.917027E1,2.7837842E2,3.5834717E2,1.0372581E2,1.8348831E2,1.2080236E2,2.8336246E2,8.478954E1,6.781132E1,1.358957E0,1.811029E2,9.7275505E1,2.0932382E2,1.4902335E2,2.6497328E1,7.722848E1,2.3345615E1,1.601427E2,4.591537E1,7.488699E1,2.1309985E2,7.0262596E1,2.3706758E0,8.241887E1,6.385178E0,1.7471773E2,6.250292E1,3.4772587E1,1.9742259E2,1.1901236E1,1.2603741E2,2.2985943E1,2.1835184E1,4.662143E0,5.765006E1,1.957842E1,1.2596103E1,1.0749512E1,5.841616E1,1.0172654E2,4.0249405E1,5.665967E0,9.889174E0,6.499782E1,1.6243666E2,5.0663197E1,2.2768996E0,6.7985695E1,1.2539446E1,6.9879425E1,2.4756591E0,3.9095187E0,7.345434E1,1.0126338E2,5.1696426E1,1.0806494E1,1.9364748E1,1.5407839E1,7.9239845E1,1.1818275E2,8.195083E0,3.7061527E0,4.0671375E1,8.5366035E1,7.6774564E0,1.5308486E1,9.719067E0,1.21161175E1,1.0767262E0,3.585417E0,5.2898693E1,4.751364E0,1.3197497E1,6.3809223E0,5.2316976E0,7.3644056E0,8.356553E0,2.3929594E0,4.6438213E1,1.1977945E1,7.2424126E1,2.9302414E1,3.4010353E1,6.2390494E0,7.0709887E0,2.818186E0,6.346152E0,5.8651665E1,6.46931E1,9.774356E1,1.36962E1,3.6966995E1,4.2816727E1,2.5168966E1,6.2126536E0,6.3267922E0,5.6342187E0,6.424521E1],"tree_param":{"num_deleted":"0","num_feature":"49","num_nodes":"105","size_leaf_vector":"1"}},{"base_weights":[4.933661E-4,2.809506E-1,-1.9372314E-1,5.4296416E-1,1.7774959E-1,-8.728092E-2,-3.8844714E-1,6.538761E-1,3.6731276E-1,2.2676332E-1,-7.76722E-2,6.000637E-2,-1.605524E-1,-5.3345656E-1,-3.2804915E-1,7.315162E-1,4.9646568E-1,4.701291E-1,1.2828071E-1,3.2250786E-1,1.3766043E-1,-1.6386867E-1,1.7121933E-1,2.9504475E-1,-1.1427804E-2,-2.0210314E-1,1.350969E-1,-5.511727E-1,-3.6755797E-2,-3.6691073E-2,-3.5914254E-1,2.9927692E-1,7.469195E-1,5.3117543E-1,1.6794202E-1,4.882425E-1,-0E0,2.1817613E-1,-1.0223854E-2,4.9482694E-1,2.557233E-1,2.8415474E-1,7.105077E-2,8.737478E-2,-2.1019843E-1,3.1533426E-1,-1.858479E-1,3.814089E-1,4.1025802E-2,5.6212753E-2,-1.8468429E-1,-6.735095E-2,-2.8522205E-1,2.4456237E-1,-1.4060684E-1,-3.2237563E-1,-6.10985E-1,6.86044E-3,-1.5338601E-2,-2.4381787E-1,1.5086532E-1,1.565163E-1,-3.7289628E-1,1.907749E-2,-1.7836493E-3,3.2181364E-2,2.3150861E-2,2.1849276E-2,1.8735209E-3,1.0940085E-2,-0E0,2.2022894E-2,1.2780223E-2,-1.3472439E-3,1.2227077E-2,-1.2489418E-3,2.0497479E-2,1.1723912E-2,1.3576339E-3,1.3153315E-2,-1.4581159E-3,4.302458E-3,-2.3440623E-3,7.903493E-3,-0E0,-1.21470485E-2,-2.3956562E-3,1.4220223E-2,-0E0,-1.108878E-2,-0E0,4.828524E-3,1.8984824E-2,8.55737E-3,-6.344875E-3,3.8994276E-3,-8.899857E-3,3.946576E-3,-1.226458E-2,-1.456843E-3,-1.2466045E-2,-8.630629E-3,-1.645899E-2,1.2161167E-2,-1.0474606E-2,-1.06169125E-2,1.4613448E-4,-1.5993638E-2,4.64939E-3,-2.5467535E-2,-1.193294E-3,-1.6595567E-2,-2.610456E-3,9.4584245E-3,-6.076567E-3,-1.8815736E-3,1.2697201E-2,-9.355056E-3,-1.6741542E-2],"categories":[],"categories_nodes":[],"categories_segments":[],"categories_sizes":[],"default_left":[0,0,0,0,0,0,0,0,0,0,0,0,0,0,0,0,0,0,0,0,0,0,0,0,0,0,0,0,0,0,0,0,0,0,0,0,0,0,0,0,0,0,0,0,0,0,0,0,0,0,0,0,0,0,0,0,0,0,0,0,0,0,0,0,0,0,0,0,0,0,0,0,0,0,0,0,0,0,0,0,0,0,0,0,0,0,0,0,0,0,0,0,0,0,0,0,0,0,0,0,0,0,0,0,0,0,0,0,0,0,0,0,0,0,0,0,0,0,0],"id":3,"left_children":[1,3,5,7,9,11,13,15,17,19,21,23,25,27,29,31,33,35,37,39,41,43,45,47,49,51,53,55,57,59,61,63,65,67,69,71,-1,73,-1,75,77,79,81,83,85,87,89,91,93,95,97,99,101,103,105,107,109,-1,-1,111,113,115,117,-1,-1,-1,-1,-1,-1,-1,-1,-1,-1,-1,-1,-1,-1,-1,-1,-1,-1,-1,-1,-1,-1,-1,-1,-1,-1,-1,-1,-1,-1,-1,-1,-1,-1,-1,-1,-1,-1,-1,-1,-1,-1,-1,-1,-1,-1,-1,-1,-1,-1,-1,-1,-1,-1,-1,-1],"loss_changes":[8.001612E1,1.6087936E1,1.790216E1,2.952568E0,5.454281E0,6.091402E0,2.4191856E0,7.6104736E-1,1.553235E0,3.0143642E0,1.5321009E0,3.1744409E0,4.6582994E0,6.944523E-1,1.9324188E0,1.0990143E-1,2.6554203E-1,3.6071682E-1,8.162772E-1,1.8024979E0,1.8060226E0,6.464975E-1,1.0098195E0,9.0722036E-1,1.7129855E0,3.6500463E0,1.4538337E0,8.6756706E-1,3.9696258E-1,9.222707E-1,1.4812717E0,3.1839517E-1,2.8572083E-3,1.553564E-1,9.426536E-2,2.1075249E-1,0E0,4.494909E-1,0E0,5.0093365E-1,1.0182676E0,8.8395643E-1,6.405854E-1,1.01263784E-1,5.819392E-1,1.9381487E-1,1.0801503E-1,6.708803E-1,4.7361118E-1,1.206128E0,1.472186E0,9.206523E-1,1.6355991E0,1.1090884E0,2.7282286E-1,7.543161E-1,8.9442635E-1,0E0,0E0,2.7171534E-1,3.6057743E-1,2.2698306E-1,1.0610409E0,0E0,0E0,0E0,0E0,0E0,0E0,0E0,0E0,0E0,0E0,0E0,0E0,0E0,0E0,0E0,0E0,0E0,0E0,0E0,0E0,0E0,0E0,0E0,0E0,0E0,0E0,0E0,0E0,0E0,0E0,0E0,0E0,0E0,0E0,0E0,0E0,0E0,0E0,0E0,0E0,0E0,0E0,0E0,0E0,0E0,0E0,0E0,0E0,0E0,0E0,0E0,0E0,0E0,0E0,0E0,0E0],"parents":[2147483647,0,0,1,1,2,2,3,3,4,4,5,5,6,6,7,7,8,8,9,9,10,10,11,11,12,12,13,13,14,14,15,15,16,16,17,17,18,18,19,19,20,20,21,21,22,22,23,23,24,24,25,25,26,26,27,27,28,28,29,29,30,30,31,31,32,32,33,33,34,34,35,35,37,37,39,39,40,40,41,41,42,42,43,43,44,44,45,45,46,46,47,47,48,48,49,49,50,50,51,51,52,52,53,53,54,54,55,55,56,56,59,59,60,60,61,61,62,62],"right_children":[2,4,6,8,10,12,14,16,18,20,22,24,26,28,30,32,34,36,38,40,42,44,46,48,50,52,54,56,58,60,62,64,66,68,70,72,-1,74,-1,76,78,80,82,84,86,88,90,92,94,96,98,100,102,104,106,108,110,-1,-1,112,114,116,118,-1,-1,-1,-1,-1,-1,-1,-1,-1,-1,-1,-1,-1,-1,-1,-1,-1,-1,-1,-1,-1,-1,-1,-1,-1,-1,-1,-1,-1,-1,-1,-1,-1,-1,-1,-1,-1,-1,-1,-1,-1,-1,-1,-1,-1,-1,-1,-1,-1,-1,-1,-1,-1,-1,-1,-1],"split_conditions":[3.41E-1,1.53E-1,8.92E-1,1.38E-1,6.94E-1,3.36E-1,2.610966E-3,1.22E-1,9E0,2.023E3,1.1764706E-1,7E0,9.5E1,6.3856E0,4.37E-1,7E-3,4.394E-1,4.46E-1,2.94E1,1.47E-1,7.543333E-1,1.71E-1,1.048E0,4.1493332E-1,1.4E1,2.021E3,9.26E-1,5.78E-1,6.411967E0,9.2136E1,1.8820414E-1,1.5E1,8.8E-2,4.873038E1,8E0,8.8E-2,-0E0,1.9E1,-1.0223854E-2,2E0,4E0,2.8644827E1,2.8651281E1,4.4541407E-1,1.2533334E1,2.1408668E0,3.1786665E-1,5.301333E-1,1.2E1,6.79E-1,9E0,8.76E-1,6.48E-1,9.9E1,5.711035E-1,1E0,5E0,6.86044E-3,-1.5338601E-2,3.3942467E1,4.7296934E0,1E1,1.04E0,1.907749E-2,-1.7836493E-3,3.2181364E-2,2.3150861E-2,2.1849276E-2,1.8735209E-3,1.0940085E-2,-0E0,2.2022894E-2,1.2780223E-2,-1.3472439E-3,1.2227077E-2,-1.2489418E-3,2.0497479E-2,1.1723912E-2,1.3576339E-3,1.3153315E-2,-1.4581159E-3,4.302458E-3,-2.3440623E-3,7.903493E-3,-0E0,-1.21470485E-2,-2.3956562E-3,1.4220223E-2,-0E0,-1.108878E-2,-0E0,4.828524E-3,1.8984824E-2,8.55737E-3,-6.344875E-3,3.8994276E-3,-8.899857E-3,3.946576E-3,-1.226458E-2,-1.456843E-3,-1.2466045E-2,-8.630629E-3,-1.645899E-2,1.2161167E-2,-1.0474606E-2,-1.06169125E-2,1.4613448E-4,-1.5993638E-2,4.64939E-3,-2.5467535E-2,-1.193294E-3,-1.6595567E-2,-2.610456E-3,9.4584245E-3,-6.076567E-3,-1.8815736E-3,1.2697201E-2,-9.355056E-3,-1.6741542E-2],"split_indices":[17,16,16,15,16,15,40,17,25,3,40,25,23,7,15,20,18,15,36,15,10,15,16,18,25,3,17,15,10,26,9,4,16,43,25,16,0,0,0,0,13,42,42,9,29,10,20,7,4,16,4,15,17,6,9,45,13,0,0,43,28,4,16,0,0,0,0,0,0,0,0,0,0,0,0,0,0,0,0,0,0,0,0,0,0,0,0,0,0,0,0,0,0,0,0,0,0,0,0,0,0,0,0,0,0,0,0,0,0,0,0,0,0,0,0,0,0,0,0],"split_type":[0,0,0,0,0,0,0,0,0,0,0,0,0,0,0,0,0,0,0,0,0,0,0,0,0,0,0,0,0,0,0,0,0,0,0,0,0,0,0,0,0,0,0,0,0,0,0,0,0,0,0,0,0,0,0,0,0,0,0,0,0,0,0,0,0,0,0,0,0,0,0,0,0,0,0,0,0,0,0,0,0,0,0,0,0,0,0,0,0,0,0,0,0,0,0,0,0,0,0,0,0,0,0,0,0,0,0,0,0,0,0,0,0,0,0,0,0,0,0],"sum_hessian":[1.4668506E3,6.002014E2,8.666492E2,1.681248E2,4.3207663E2,5.6161475E2,3.050344E2,1.0103571E2,6.708909E1,3.629355E2,6.914116E1,1.8617989E2,3.7543488E2,8.69024E1,2.1813199E2,6.4794464E1,3.624125E1,4.594243E1,2.1146656E1,1.7314383E2,1.8979166E2,5.1907776E1,1.7233385E1,4.2992416E1,1.4318747E2,3.297467E2,4.5688168E1,8.360926E1,3.2931345E0,2.1554386E1,1.965776E2,3.155936E0,6.1638527E1,3.1944904E1,4.2963457E0,4.4037178E1,1.9052501E0,1.7695028E1,3.4516282E0,4.6152756E1,1.26991066E2,5.783287E1,1.3195879E2,7.6076407E0,4.4300133E1,1.2560723E1,4.6726627E0,3.1416065E1,1.1576351E1,1.03053154E2,4.0134308E1,1.2694966E2,2.0279704E2,3.3044018E1,1.2644147E1,1.8998167E1,6.461109E1,2.1928124E0,1.1003221E0,1.0353624E1,1.1200763E1,4.6483846E0,1.9192921E2,2.0174487E0,1.1384875E0,4.2646603E1,1.8991924E1,3.0657598E1,1.2873043E0,2.2571542E0,2.0391917E0,3.007297E1,1.3964209E1,4.4264436E0,1.3268584E1,1.2859836E0,4.486677E1,1.0801591E2,1.897516E1,5.1010567E1,6.8223042E0,1.036985E2,2.8260283E1,3.2770061E0,4.3306346E0,2.6274204E1,1.802593E1,1.1202748E1,1.3579752E0,2.9550161E0,1.7176464E0,9.161349E0,2.2254717E1,6.433675E0,5.142676E0,9.06397E1,1.2413452E1,1.1885273E1,2.8249037E1,1.1406657E2,1.2883098E1,1.3308377E2,6.971329E1,3.0105972E1,2.9380476E0,6.7002754E0,5.9438715E0,1.6415346E1,2.58282E0,6.1618187E1,2.992909E0,4.3256683E0,6.027956E0,9.16043E0,2.0403323E0,2.0903358E0,2.558049E0,4.9493664E1,1.4243556E2],"tree_param":{"num_deleted":"0","num_feature":"49","num_nodes":"119","size_leaf_vector":"1"}},{"base_weights":[-1.4064747E-3,3.1931254E-1,-1.6623053E-1,5.6908965E-1,2.2496654E-1,-5.2890584E-2,-3.417019E-1,6.8291944E-1,4.5468855E-1,3.1257322E-1,9.366983E-2,4.466815E-3,-2.4378045E-1,-2.54101E-1,-4.5958364E-1,6.9393855E-1,-0E0,5.068685E-1,2.5571918E-1,4.4137755E-1,2.7046996E-1,4.339836E-2,2.7297342E-1,1.0473142E-1,-4.9885433E-2,-1.658935E-1,-4.7507596E-1,-1.9567026E-1,-4.724069E-1,-5.8492744E-1,-3.116417E-1,2.8616637E-2,3.0522162E-1,1.4786305E-1,5.446002E-1,3.344387E-1,-0E0,4.746229E-1,1.3069895E-1,2.864197E-1,-1.4681719E-2,9.356346E-2,-1.14103355E-1,3.241831E-1,-7.263177E-2,2.4859796E-1,6.0731456E-2,3.363884E-3,-1.4983338E-1,-1.0660027E-1,-4.0939134E-1,4.6444745E-3,-5.150704E-1,-2.401314E-2,-2.4030964E-1,-5.295029E-1,-3.5993785E-2,-5.150969E-1,-2.8509917E-2,-2.4747214E-1,-2.6557535E-2,1.6521256E-2,-0E0,-8.804164E-3,1.36196455E-2,-0E0,2.2409867E-2,1.4972374E-2,6.0173268E-5,5.953229E-3,-3.998598E-3,2.0394694E-2,2.189915E-3,-4.059603E-3,9.76188E-3,1.2367216E-2,4.2017377E-3,-1.086955E-2,1.3664592E-2,9.639603E-3,1.2355694E-3,-0E0,-1.2747727E-2,-2.5980403E-3,1.407384E-2,4.043231E-3,-8.529441E-3,1.2542104E-2,-1.962566E-3,6.2357835E-3,-1.4235193E-3,9.5354056E-4,-1.3884897E-2,-4.8697866E-3,-1.9050099E-2,-5.7131997E-3,7.854866E-3,-1.8994587E-2,7.788508E-3,-0E0,-2.1480238E-2,-6.7645395E-3,4.2702556E-3,-1.5604237E-2,-6.5087257E-3,-2.2831507E-2,-4.6220128E-4,2.1527212E-3,-8.061289E-3,-1.0611681E-2,-2.2287738E-2,-1.1567682E-2,5.969687E-3],"categories":[],"categories_nodes":[],"categories_segments":[],"categories_sizes":[],"default_left":[0,0,0,0,0,0,0,0,0,0,0,0,0,0,0,0,0,0,0,0,0,0,0,0,0,0,0,0,0,0,0,0,0,0,0,0,0,0,0,0,0,0,0,0,0,0,0,0,0,0,0,0,0,0,0,0,0,0,0,0,0,0,0,0,0,0,0,0,0,0,0,0,0,0,0,0,0,0,0,0,0,0,0,0,0,0,0,0,0,0,0,0,0,0,0,0,0,0,0,0,0,0,0,0,0,0,0,0,0,0,0,0,0],"id":4,"left_children":[1,3,5,7,9,11,13,15,17,19,21,23,25,27,29,31,-1,33,35,37,39,41,43,45,47,49,51,53,55,57,59,-1,61,63,65,67,69,71,73,75,77,79,81,83,85,87,89,91,93,95,97,-1,99,101,103,105,107,109,-1,111,-1,-1,-1,-1,-1,-1,-1,-1,-1,-1,-1,-1,-1,-1,-1,-1,-1,-1,-1,-1,-1,-1,-1,-1,-1,-1,-1,-1,-1,-1,-1,-1,-1,-1,-1,-1,-1,-1,-1,-1,-1,-1,-1,-1,-1,-1,-1,-1,-1,-1,-1,-1,-1],"loss_changes":[7.669356E1,1.1396057E1,1.9009243E1,1.3213882E0,4.0634174E0,6.419293E0,3.6915703E0,4.341221E-1,5.2387524E-1,9.734802E-1,1.2697979E0,2.461138E0,2.2955065E0,2.6248035E0,2.6662102E0,2.107563E-1,0E0,5.853481E-1,3.425231E-1,4.0120506E-1,7.815199E-1,9.2053866E-1,6.02293E-1,9.6068096E-1,1.5671852E0,1.3935509E0,8.8558245E-1,1.3029613E0,1.0460501E0,2.6223755E-1,1.4440851E0,0E0,1.4486635E-1,5.679792E-1,4.09791E-1,1.3459373E-1,8.93826E-2,5.835886E-1,2.1200594E-1,5.725002E-1,9.4274133E-1,7.837132E-1,6.4170915E-1,3.4948087E-1,1.4516266E-1,7.4545264E-1,1.1509001E0,1.343566E0,8.1776476E-1,9.513941E-1,8.921685E-1,0E0,3.5512066E-1,7.3647964E-1,1.481822E0,7.8048515E-1,1.2201006E-1,3.8624573E-1,0E0,1.1400623E0,0E0,0E0,0E0,0E0,0E0,0E0,0E0,0E0,0E0,0E0,0E0,0E0,0E0,0E0,0E0,0E0,0E0,0E0,0E0,0E0,0E0,0E0,0E0,0E0,0E0,0E0,0E0,0E0,0E0,0E0,0E0,0E0,0E0,0E0,0E0,0E0,0E0,0E0,0E0,0E0,0E0,0E0,0E0,0E0,0E0,0E0,0E0,0E0,0E0,0E0,0E0,0E0,0E0],"parents":[2147483647,0,0,1,1,2,2,3,3,4,4,5,5,6,6,7,7,8,8,9,9,10,10,11,11,12,12,13,13,14,14,15,15,17,17,18,18,19,19,20,20,21,21,22,22,23,23,24,24,25,25,26,26,27,27,28,28,29,29,30,30,32,32,33,33,34,34,35,35,36,36,37,37,38,38,39,39,40,40,41,41,42,42,43,43,44,44,45,45,46,46,47,47,48,48,49,49,50,50,52,52,53,53,54,54,55,55,56,56,57,57,59,59],"right_children":[2,4,6,8,10,12,14,16,18,20,22,24,26,28,30,32,-1,34,36,38,40,42,44,46,48,50,52,54,56,58,60,-1,62,64,66,68,70,72,74,76,78,80,82,84,86,88,90,92,94,96,98,-1,100,102,104,106,108,110,-1,112,-1,-1,-1,-1,-1,-1,-1,-1,-1,-1,-1,-1,-1,-1,-1,-1,-1,-1,-1,-1,-1,-1,-1,-1,-1,-1,-1,-1,-1,-1,-1,-1,-1,-1,-1,-1,-1,-1,-1,-1,-1,-1,-1,-1,-1,-1,-1,-1,-1,-1,-1,-1,-1],"split_conditions":[3.8E-1,1.13E-1,6.2E-1,4E0,5E0,6.44E-1,8.84E-1,3.42E-1,2.17E-1,8.1E-2,3E1,3.06E-1,1.5866667E1,1.6E1,1E0,8.8E0,-0E0,3.0506668E2,9.7E-2,3.1E-1,1.39E2,2.8561333E1,5.29E-1,2.021E3,2.023E3,2.023E3,8E0,4.5E-1,3E0,1.6133333E1,3.725E0,2.8616637E-2,5.2E1,3.4E0,2.1666667E0,3E1,1.26E-1,3.69E-1,2.5E0,4.29E-1,1.3E1,2.18E-1,4.41E2,6.0333333E0,6E0,6.695333E-1,5.51E-1,1.218E0,4.795E0,4.0433636E0,1.6666666E1,4.6444745E-3,1.3E1,5.024E-1,5.1209473E1,7.614706E1,1.38E1,2.6666668E-1,-2.8509917E-2,3.2E1,-2.6557535E-2,1.6521256E-2,-0E0,-8.804164E-3,1.36196455E-2,-0E0,2.2409867E-2,1.4972374E-2,6.0173268E-5,5.953229E-3,-3.998598E-3,2.0394694E-2,2.189915E-3,-4.059603E-3,9.76188E-3,1.2367216E-2,4.2017377E-3,-1.086955E-2,1.3664592E-2,9.639603E-3,1.2355694E-3,-0E0,-1.2747727E-2,-2.5980403E-3,1.407384E-2,4.043231E-3,-8.529441E-3,1.2542104E-2,-1.962566E-3,6.2357835E-3,-1.4235193E-3,9.5354056E-4,-1.3884897E-2,-4.8697866E-3,-1.9050099E-2,-5.7131997E-3,7.854866E-3,-1.8994587E-2,7.788508E-3,-0E0,-2.1480238E-2,-6.7645395E-3,4.2702556E-3,-1.5604237E-2,-6.5087257E-3,-2.2831507E-2,-4.6220128E-4,2.1527212E-3,-8.061289E-3,-1.0611681E-2,-2.2287738E-2,-1.1567682E-2,5.969687E-3],"split_indices":[16,17,15,25,38,17,15,15,16,15,39,17,8,8,45,8,0,22,17,16,6,42,17,3,3,3,25,17,13,8,17,0,6,35,35,2,15,17,12,15,27,15,37,35,27,18,16,16,11,28,29,0,0,18,44,44,12,31,0,2,0,0,0,0,0,0,0,0,0,0,0,0,0,0,0,0,0,0,0,0,0,0,0,0,0,0,0,0,0,0,0,0,0,0,0,0,0,0,0,0,0,0,0,0,0,0,0,0,0,0,0,0,0],"split_type":[0,0,0,0,0,0,0,0,0,0,0,0,0,0,0,0,0,0,0,0,0,0,0,0,0,0,0,0,0,0,0,0,0,0,0,0,0,0,0,0,0,0,0,0,0,0,0,0,0,0,0,0,0,0,0,0,0,0,0,0,0,0,0,0,0,0,0,0,0,0,0,0,0,0,0,0,0,0,0,0,0,0,0,0,0,0,0,0,0,0,0,0,0,0,0,0,0,0,0,0,0,0,0,0,0,0,0,0,0,0,0,0,0],"sum_hessian":[1.4491057E3,4.9139407E2,9.577116E2,1.3305215E2,3.5834195E2,5.83008E2,3.7470355E2,6.376346E1,6.928869E1,2.1364603E2,1.446959E2,4.4865247E2,1.3435556E2,2.1725777E2,1.5744579E2,6.262453E1,1.1389263E0,5.3268833E1,1.601986E1,4.9710632E1,1.639354E2,1.14416595E2,3.0279308E1,1.5803511E2,2.9061737E2,1.0211778E2,3.223778E1,1.7324278E2,4.4014988E1,8.326762E1,7.417817E1,5.830533E1,4.3192024E0,5.785998E0,4.7482834E1,1.2012967E1,4.0068913E0,4.4137917E1,5.5727167E0,1.5557944E2,8.355965E0,8.756695E1,2.6849651E1,2.6677698E1,3.6016097E0,3.5391838E1,1.22643265E2,1.8958037E2,1.01036995E2,8.3607346E1,1.8510437E1,1.7636958E0,3.0474085E1,3.6533657E1,1.3670912E2,3.8531464E1,5.483525E0,5.7607708E1,2.5659906E1,6.442898E1,9.749195E0,2.753947E0,1.5652554E0,1.7607529E0,4.025245E0,1.364649E0,4.6118183E1,1.0348988E1,1.6639795E0,1.4146042E0,2.5922873E0,4.0302418E1,3.8354979E0,1.5729561E0,3.9997606E0,1.3711679E2,1.8462637E1,5.154872E0,3.2010925E0,2.479702E1,6.2769928E1,1.7961441E1,8.88821E0,1.441215E0,2.5236483E1,1.4187126E0,2.182897E0,2.9284136E1,6.1077013E0,6.1903053E1,6.0740215E1,1.8026688E2,9.313487E0,9.45778E1,6.4591956E0,7.544427E1,8.163079E0,1.7042793E1,1.4676433E0,1.2873406E0,2.9186743E1,1.7541405E1,1.8992252E1,4.4835087E1,9.187404E1,3.5413616E1,3.1178486E0,3.6007586E0,1.8827664E0,9.703533E0,4.7904175E1,5.8771458E1,5.6575193E0],"tree_param":{"num_deleted":"0","num_feature":"49","num_nodes":"113","size_leaf_vector":"1"}},{"base_weights":[-4.7300393E-3,2.4196558E-1,-1.9580558E-1,4.7369066E-1,1.4736383E-1,-6.8069E-2,-2.9800785E-1,5.4769856E-1,2.5206164E-1,2.639425E-1,5.656187E-2,-1.4969426E-2,-2.2890626E-1,-2.2350694E-1,-4.164828E-1,6.741255E-1,4.732234E-1,4.0062663E-1,1.434072E-1,3.21245E-1,1.2026653E-1,1.0628547E-1,-1.5087877E-1,9.2385024E-2,-7.138802E-2,-2.553934E-1,1.3188222E-1,-2.7989876E-1,-7.0637465E-2,-5.233644E-1,-2.6330975E-1,4.2018015E-3,6.9437075E-1,-0E0,4.8043662E-1,-0E0,4.6981654E-1,-8.278764E-3,1.9120573E-1,2.4132295E-1,4.065975E-1,1.8146342E-1,-2.2538283E-1,8.10321E-2,3.4758264E-1,-3.5191968E-2,-3.4966788E-1,3.1391752E-1,4.2817187E-2,1.8099438E-2,-8.022118E-2,-2.1440956E-1,-4.6519285E-1,-5.8316044E-3,9.220304E-3,-1.7377368E-1,-3.5876223E-1,1.7439691E-2,-3.010959E-1,-4.0521115E-1,-6.083919E-1,-8.891384E-2,-4.5509523E-1,8.095021E-3,2.8628737E-2,2.2770789E-2,1.6442347E-2,-3.3514325E-3,2.4766624E-3,1.216323E-2,2.4557376E-2,9.89669E-3,2.0230934E-3,1.1206798E-2,-3.1168552E-4,1.7001342E-2,-0E0,-0E0,1.0362793E-2,-1.9957885E-2,4.502832E-3,5.3954264E-3,-1.544288E-3,1.7772919E-2,-1.2157625E-2,-5.91798E-3,5.1869107E-3,2.1627783E-3,-1.6916603E-2,4.284009E-3,1.9511823E-2,4.9689133E-3,-3.2683308E-3,-6.425258E-3,-6.115992E-4,-1.0318148E-2,-4.976075E-4,-0E0,-2.253329E-2,-2.0210572E-2,-4.28344E-3,-9.371051E-3,-1.7801136E-2,1.6894066E-3,-1.6327102E-2,-5.1478175E-3,-1.7696565E-2,-1.6931465E-2,-2.9293702E-3,-2.632509E-2,-1.38011165E-2,2.9109413E-4,-1.2632933E-2,-2.2281237E-2,-1.0818523E-2],"categories":[],"categories_nodes":[],"categories_segments":[],"categories_sizes":[],"default_left":[0,0,0,0,0,0,0,0,0,0,0,0,0,0,0,0,0,0,0,0,0,0,0,0,0,0,0,0,0,0,0,0,0,0,0,0,0,0,0,0,0,0,0,0,0,0,0,0,0,0,0,0,0,0,0,0,0,0,0,0,0,0,0,0,0,0,0,0,0,0,0,0,0,0,0,0,0,0,0,0,0,0,0,0,0,0,0,0,0,0,0,0,0,0,0,0,0,0,0,0,0,0,0,0,0,0,0,0,0,0,0,0,0,0,0],"id":5,"left_children":[1,3,5,7,9,11,13,15,17,19,21,23,25,27,29,31,33,35,37,39,41,43,45,47,49,51,53,55,57,59,61,-1,63,-1,65,67,69,-1,71,73,75,77,79,81,83,85,87,89,91,-1,93,95,97,-1,-1,99,101,103,105,107,109,111,113,-1,-1,-1,-1,-1,-1,-1,-1,-1,-1,-1,-1,-1,-1,-1,-1,-1,-1,-1,-1,-1,-1,-1,-1,-1,-1,-1,-1,-1,-1,-1,-1,-1,-1,-1,-1,-1,-1,-1,-1,-1,-1,-1,-1,-1,-1,-1,-1,-1,-1,-1,-1],"loss_changes":[6.722842E1,1.3510555E1,1.043907E1,2.7287216E0,4.649577E0,3.0388837E0,3.7786522E0,8.2315063E-1,6.494844E-1,1.5103722E0,2.6022806E0,1.6488783E0,8.9259624E-1,2.3281736E0,2.5743484E0,3.8437462E-1,3.084507E-1,5.699284E-1,5.268157E-1,7.732763E-1,1.2478946E0,1.1694891E0,1.0666072E0,9.759846E-1,8.2804203E-1,5.4705906E-1,2.189894E-1,1.5676775E0,1.5825298E0,6.4679337E-1,2.3286576E0,0E0,2.3264313E-1,0E0,2.0153427E-1,2.58855E-2,1.1278248E-1,0E0,1.6680998E-1,7.4496555E-1,4.4034767E-1,6.967393E-1,9.0972066E-1,1.2130401E0,1.3219278E0,6.185602E-1,5.756273E-1,4.8312724E-1,8.0317974E-1,0E0,9.051782E-1,6.011684E-1,5.797162E-1,0E0,0E0,1.834918E0,1.0509872E0,5.6994385E-1,4.0899384E-1,1.8890047E-1,3.942032E-1,8.945683E-1,4.063692E-1,0E0,0E0,0E0,0E0,0E0,0E0,0E0,0E0,0E0,0E0,0E0,0E0,0E0,0E0,0E0,0E0,0E0,0E0,0E0,0E0,0E0,0E0,0E0,0E0,0E0,0E0,0E0,0E0,0E0,0E0,0E0,0E0,0E0,0E0,0E0,0E0,0E0,0E0,0E0,0E0,0E0,0E0,0E0,0E0,0E0,0E0,0E0,0E0,0E0,0E0,0E0,0E0],"parents":[2147483647,0,0,1,1,2,2,3,3,4,4,5,5,6,6,7,7,8,8,9,9,10,10,11,11,12,12,13,13,14,14,15,15,16,16,17,17,18,18,19,19,20,20,21,21,22,22,23,23,24,24,25,25,26,26,27,27,28,28,29,29,30,30,32,32,34,34,35,35,36,36,38,38,39,39,40,40,41,41,42,42,43,43,44,44,45,45,46,46,47,47,48,48,50,50,51,51,52,52,55,55,56,56,57,57,58,58,59,59,60,60,61,61,62,62],"right_children":[2,4,6,8,10,12,14,16,18,20,22,24,26,28,30,32,34,36,38,40,42,44,46,48,50,52,54,56,58,60,62,-1,64,-1,66,68,70,-1,72,74,76,78,80,82,84,86,88,90,92,-1,94,96,98,-1,-1,100,102,104,106,108,110,112,114,-1,-1,-1,-1,-1,-1,-1,-1,-1,-1,-1,-1,-1,-1,-1,-1,-1,-1,-1,-1,-1,-1,-1,-1,-1,-1,-1,-1,-1,-1,-1,-1,-1,-1,-1,-1,-1,-1,-1,-1,-1,-1,-1,-1,-1,-1,-1,-1,-1,-1,-1,-1],"split_conditions":[4.78E-1,1.49E-1,5.42E-1,2.32E-1,2.8E-1,6.2E-1,1.04E0,5.9E-2,6.19E-1,1.09E2,5.66E-1,1E1,5.8E1,9.3983E1,7.63E1,2.83E2,4E-1,3.0666666E0,1.8666667E0,7.4E0,1.275E0,7.903226E1,7.4E1,5.1666665E0,2.6E2,1.39E0,2.8E-2,1.8537667E0,1.063E0,8.61E-1,1.328E0,4.2018015E-3,7E-3,-0E0,5.9E-2,1.7253333E-1,5.335641E1,-8.278764E-3,2.5618181E1,6.4666667E0,7.243E0,8.3871E1,8.533334E0,4.27E-1,1.7333334E1,9.119E1,9.59E-1,7.266667E0,1.4733334E1,1.8099438E-2,5.4193336E-1,9.5345E1,6.85E-1,-5.8316044E-3,9.220304E-3,2.962E-1,5.34E-1,1.019E0,7.49E-1,5.65E2,1E0,7.15E-1,7.777649E-1,8.095021E-3,2.8628737E-2,2.2770789E-2,1.6442347E-2,-3.3514325E-3,2.4766624E-3,1.216323E-2,2.4557376E-2,9.89669E-3,2.0230934E-3,1.1206798E-2,-3.1168552E-4,1.7001342E-2,-0E0,-0E0,1.0362793E-2,-1.9957885E-2,4.502832E-3,5.3954264E-3,-1.544288E-3,1.7772919E-2,-1.2157625E-2,-5.91798E-3,5.1869107E-3,2.1627783E-3,-1.6916603E-2,4.284009E-3,1.9511823E-2,4.9689133E-3,-3.2683308E-3,-6.425258E-3,-6.115992E-4,-1.0318148E-2,-4.976075E-4,-0E0,-2.253329E-2,-2.0210572E-2,-4.28344E-3,-9.371051E-3,-1.7801136E-2,1.6894066E-3,-1.6327102E-2,-5.1478175E-3,-1.7696565E-2,-1.6931465E-2,-2.9293702E-3,-2.632509E-2,-1.38011165E-2,2.9109413E-4,-1.2632933E-2,-2.2281237E-2,-1.0818523E-2],"split_indices":[16,17,17,15,16,15,16,16,24,6,15,8,39,23,44,21,36,29,36,31,24,44,6,12,21,16,17,10,17,17,17,0,20,0,15,20,44,0,42,31,28,23,36,17,12,23,24,31,36,0,20,23,15,0,0,20,15,15,16,37,14,20,9,0,0,0,0,0,0,0,0,0,0,0,0,0,0,0,0,0,0,0,0,0,0,0,0,0,0,0,0,0,0,0,0,0,0,0,0,0,0,0,0,0,0,0,0,0,0,0,0,0,0,0,0],"split_type":[0,0,0,0,0,0,0,0,0,0,0,0,0,0,0,0,0,0,0,0,0,0,0,0,0,0,0,0,0,0,0,0,0,0,0,0,0,0,0,0,0,0,0,0,0,0,0,0,0,0,0,0,0,0,0,0,0,0,0,0,0,0,0,0,0,0,0,0,0,0,0,0,0,0,0,0,0,0,0,0,0,0,0,0,0,0,0,0,0,0,0,0,0,0,0,0,0,0,0,0,0,0,0,0,0,0,0,0,0,0,0,0,0,0,0],"sum_hessian":[1.4243123E3,6.2132996E2,8.0298224E2,1.7865468E2,4.426753E2,3.5808167E2,4.4490057E2,1.3249019E2,4.6164482E1,1.92509E2,2.5016629E2,2.7049423E2,8.758743E1,2.754311E2,1.6946948E2,4.563206E1,8.685813E1,1.7976881E1,2.8187601E1,1.362402E2,5.62688E1,2.0257797E2,4.7588314E1,9.2353035E1,1.7814119E2,8.212739E1,5.4600472E0,2.0012291E2,7.530819E1,9.801002E1,7.1459465E1,1.9498917E0,4.3682167E1,1.2820594E0,8.5576065E1,2.5958285E0,1.5381053E1,2.732858E0,2.5454744E1,7.293994E1,6.330027E1,4.8454323E1,7.814474E0,1.8496988E2,1.7608095E1,3.1143944E1,1.6444372E1,1.5541812E1,7.6811226E1,1.9333279E0,1.7620787E2,7.079615E1,1.1331235E1,1.03996E0,4.4200873E0,8.722175E1,1.1290117E2,5.4839794E1,2.0468395E1,4.392039E1,5.4089626E1,3.8466145E1,3.299332E1,2.4471705E0,4.1234997E1,3.3734676E1,5.1841393E1,1.5943531E0,1.0014753E0,8.923189E0,6.4578643E0,1.7135096E1,8.319649E0,6.3339535E1,9.600406E0,6.028066E1,3.019613E0,1.4810145E1,3.3644176E1,4.2189054E0,3.5955687E0,1.2804227E2,5.692761E1,1.5742159E1,1.8659377E0,1.8915821E1,1.2228122E1,2.3558035E0,1.4088569E1,8.099279E0,7.442532E0,4.6934414E1,2.987681E1,7.737426E1,9.883361E1,5.7604446E1,1.3191707E1,2.0954733E0,9.235762E0,1.3255466E1,7.3966286E1,4.820873E1,6.469244E1,5.289403E1,1.9457631E0,1.0399671E1,1.0068725E1,4.110598E1,2.8144114E0,4.391735E1,1.0172275E1,2.7384544E1,1.1081598E1,1.960872E1,1.33846E1],"tree_param":{"num_deleted":"0","num_feature":"49","num_nodes":"115","size_leaf_vector":"1"}},{"base_weights":[4.1378415E-3,1.7973404E-1,-2.2600259E-1,3.9425966E-1,7.769141E-2,-1.427067E-1,-3.5974798E-1,5.701847E-1,3.071224E-1,2.3715693E-1,1.7964719E-2,2.6147761E-3,-2.0100938E-1,-4.6738905E-1,-2.874529E-1,7.390252E-1,4.802795E-1,-1.6823146E-1,3.293359E-1,2.677785E-1,-6.945518E-2,1.009435E-1,-5.8300536E-2,3.2398142E-2,-3.126209E-1,-6.758732E-2,-2.5703079E-1,-3.1726116E-1,-5.904848E-1,-3.6203113E-1,-1.6999014E-1,3.475682E-3,3.0365195E-2,5.1675045E-1,1.6733518E-1,5.1871896E-2,-1.8486775E-2,3.7819037E-1,1.1972673E-1,4.5636836E-1,2.2309151E-1,1.6019205E-2,-1.1671649E-2,1.2336904E-1,-2.675689E-1,1.00975834E-1,-1.1490212E-1,6.7554876E-2,-1.9736065E-1,-0E0,-4.4410625E-1,4.5201294E-3,-3.4010467E-1,-4.5231143E-1,-2.1398817E-1,-1.1303128E-1,-4.0890467E-1,-6.1543465E-1,-2.586678E-1,-3.9812392E-1,1.7050307E-2,-2.1690805E-1,4.9513746E-2,2.5006E-3,2.1313354E-2,1.581979E-2,-1.6721252E-2,-3.1181644E-3,5.7442165E-3,1.9991614E-2,1.1465916E-2,1.3652919E-2,-5.307941E-4,1.0736273E-3,1.9768532E-2,4.871789E-3,1.1292193E-2,-3.730725E-3,7.643789E-3,7.6993173E-3,2.2003523E-3,2.8161455E-3,-1.4058715E-2,1.0397762E-2,-2.0376247E-4,-1.2580799E-2,-2.8114815E-3,7.416402E-3,-5.4494452E-5,4.7641876E-3,-1.4208945E-2,1.0671049E-3,-0E0,-2.1331942E-2,-0E0,1.3041394E-2,-2.4256473E-3,-5.2040247E-3,-2.2231089E-2,-1.2089594E-2,-2.2555683E-2,6.9867615E-3,-9.682121E-3,9.428218E-3,-8.930203E-3,-2.014139E-2,-8.546918E-3,-7.333167E-3,-2.527542E-2,-1.609029E-2,-1.4644476E-3,-6.3686506E-3,-1.876431E-2,1.0472763E-2,-1.1183735E-2,6.042606E-3,-1.0107575E-2,6.348361E-3,-7.0825154E-3],"categories":[],"categories_nodes":[],"categories_segments":[],"categories_sizes":[],"default_left":[0,0,0,0,0,0,0,0,0,0,0,0,0,0,0,0,0,0,0,0,0,0,0,0,0,0,0,0,0,0,0,0,0,0,0,0,0,0,0,0,0,0,0,0,0,0,0,0,0,0,0,0,0,0,0,0,0,0,0,0,0,0,0,0,0,0,0,0,0,0,0,0,0,0,0,0,0,0,0,0,0,0,0,0,0,0,0,0,0,0,0,0,0,0,0,0,0,0,0,0,0,0,0,0,0,0,0,0,0,0,0,0,0,0,0,0,0,0,0],"id":6,"left_children":[1,3,5,7,9,11,13,15,17,19,21,23,25,27,29,31,33,35,37,39,41,43,45,47,49,51,53,55,57,59,61,-1,-1,63,65,67,-1,69,71,73,75,77,-1,79,81,83,85,87,89,91,93,95,97,99,101,103,105,107,109,111,113,115,117,-1,-1,-1,-1,-1,-1,-1,-1,-1,-1,-1,-1,-1,-1,-1,-1,-1,-1,-1,-1,-1,-1,-1,-1,-1,-1,-1,-1,-1,-1,-1,-1,-1,-1,-1,-1,-1,-1,-1,-1,-1,-1,-1,-1,-1,-1,-1,-1,-1,-1,-1,-1,-1,-1,-1,-1],"loss_changes":[5.7416935E1,1.7570446E1,6.746544E0,3.7122498E0,5.188514E0,3.2477145E0,1.6173115E0,8.0347633E-1,1.9295444E0,1.43507E0,2.5423656E0,1.0107541E0,1.9858675E0,1.425436E0,1.1433163E0,2.0427895E-1,5.103092E-1,6.0306E-1,1.6319199E0,9.7426796E-1,2.983968E-1,1.610478E0,1.892758E0,8.186067E-1,4.123785E-1,1.6547666E0,1.4414177E0,7.261987E-1,1.6008377E-1,1.2275019E0,6.2662184E-1,0E0,0E0,2.829094E-1,1.211277E0,8.278663E-2,0E0,1.2910748E0,1.031331E0,3.3482838E-1,5.97774E-1,2.3307821E-1,0E0,8.269932E-1,3.67868E-1,9.4979274E-1,1.3177884E0,7.413648E-1,7.314095E-1,1.6474694E-3,2.1204829E-1,1.4264038E0,6.5394497E-1,2.9831648E-1,1.7807527E0,6.420554E-1,3.6923647E-1,1.2026787E-1,1.1486426E-1,1.2056398E0,6.6915715E-1,6.868179E-1,2.905988E-1,0E0,0E0,0E0,0E0,0E0,0E0,0E0,0E0,0E0,0E0,0E0,0E0,0E0,0E0,0E0,0E0,0E0,0E0,0E0,0E0,0E0,0E0,0E0,0E0,0E0,0E0,0E0,0E0,0E0,0E0,0E0,0E0,0E0,0E0,0E0,0E0,0E0,0E0,0E0,0E0,0E0,0E0,0E0,0E0,0E0,0E0,0E0,0E0,0E0,0E0,0E0,0E0,0E0,0E0,0E0,0E0],"parents":[2147483647,0,0,1,1,2,2,3,3,4,4,5,5,6,6,7,7,8,8,9,9,10,10,11,11,12,12,13,13,14,14,15,15,16,16,17,17,18,18,19,19,20,20,21,21,22,22,23,23,24,24,25,25,26,26,27,27,28,28,29,29,30,30,33,33,34,34,35,35,37,37,38,38,39,39,40,40,41,41,43,43,44,44,45,45,46,46,47,47,48,48,49,49,50,50,51,51,52,52,53,53,54,54,55,55,56,56,57,57,58,58,59,59,60,60,61,61,62,62],"right_children":[2,4,6,8,10,12,14,16,18,20,22,24,26,28,30,32,34,36,38,40,42,44,46,48,50,52,54,56,58,60,62,-1,-1,64,66,68,-1,70,72,74,76,78,-1,80,82,84,86,88,90,92,94,96,98,100,102,104,106,108,110,112,114,116,118,-1,-1,-1,-1,-1,-1,-1,-1,-1,-1,-1,-1,-1,-1,-1,-1,-1,-1,-1,-1,-1,-1,-1,-1,-1,-1,-1,-1,-1,-1,-1,-1,-1,-1,-1,-1,-1,-1,-1,-1,-1,-1,-1,-1,-1,-1,-1,-1,-1,-1,-1,-1,-1,-1,-1,-1],"split_conditions":[5.96E-1,2.34E-1,7.5E-1,8.1E-2,2.01E-1,3.81E-1,5.8105263E1,2.8E-2,1E0,1.54E1,3.69E-1,1.6266666E1,2.02E3,9.15E-1,1.6E1,1.0011111E-1,1E0,1.3E1,3.2E-1,4.7E-2,5.22E-1,7.17E-1,2.02E3,1.2E2,6.54E-1,1.6E1,8.458572E1,8.41E-1,3.3E1,1.06601E2,6.8406665E-1,3.475682E-3,3.0365195E-2,2.84E2,1.0240145E2,7.7708E1,-1.8486775E-2,6.19E-1,3.1E2,2E1,2.9853332E-1,3.25E2,-1.1671649E-2,2.6666668E-1,1E1,1.292E0,2.8968033E-1,2.97E-1,8.1201E1,2.4E1,7.14987E1,6.94E-1,2.4277334E0,1.3E1,2.92E2,1E0,1.7E1,3.25E-1,3.3333334E-1,8.92E-1,1.328E0,5E0,1.3166667E1,2.5006E-3,2.1313354E-2,1.581979E-2,-1.6721252E-2,-3.1181644E-3,5.7442165E-3,1.9991614E-2,1.1465916E-2,1.3652919E-2,-5.307941E-4,1.0736273E-3,1.9768532E-2,4.871789E-3,1.1292193E-2,-3.730725E-3,7.643789E-3,7.6993173E-3,2.2003523E-3,2.8161455E-3,-1.4058715E-2,1.0397762E-2,-2.0376247E-4,-1.2580799E-2,-2.8114815E-3,7.416402E-3,-5.4494452E-5,4.7641876E-3,-1.4208945E-2,1.0671049E-3,-0E0,-2.1331942E-2,-0E0,1.3041394E-2,-2.4256473E-3,-5.2040247E-3,-2.2231089E-2,-1.2089594E-2,-2.2555683E-2,6.9867615E-3,-9.682121E-3,9.428218E-3,-8.930203E-3,-2.014139E-2,-8.546918E-3,-7.333167E-3,-2.527542E-2,-1.609029E-2,-1.4644476E-3,-6.3686506E-3,-1.876431E-2,1.0472763E-2,-1.1183735E-2,6.042606E-3,-1.0107575E-2,6.348361E-3,-7.0825154E-3],"split_indices":[16,16,17,15,15,15,44,17,36,29,17,8,3,17,39,28,47,25,15,15,17,15,3,6,16,25,26,16,2,23,18,0,0,21,26,23,0,24,21,6,20,21,0,33,6,24,9,17,23,2,44,16,7,35,21,5,25,28,31,16,17,25,35,0,0,0,0,0,0,0,0,0,0,0,0,0,0,0,0,0,0,0,0,0,0,0,0,0,0,0,0,0,0,0,0,0,0,0,0,0,0,0,0,0,0,0,0,0,0,0,0,0,0,0,0,0,0,0,0],"split_type":[0,0,0,0,0,0,0,0,0,0,0,0,0,0,0,0,0,0,0,0,0,0,0,0,0,0,0,0,0,0,0,0,0,0,0,0,0,0,0,0,0,0,0,0,0,0,0,0,0,0,0,0,0,0,0,0,0,0,0,0,0,0,0,0,0,0,0,0,0,0,0,0,0,0,0,0,0,0,0,0,0,0,0,0,0,0,0,0,0,0,0,0,0,0,0,0,0,0,0,0,0,0,0,0,0,0,0,0,0,0,0,0,0,0,0,0,0,0,0],"sum_hessian":[1.4189062E3,8.051975E2,6.137088E2,2.583084E2,5.468891E2,3.7991473E2,2.3379407E2,8.3346176E1,1.7496223E2,1.4775365E2,3.9913544E2,1.0856144E2,2.7135327E2,9.11827E1,1.4261137E2,2.6064726E1,5.728145E1,7.316599E0,1.6764565E2,1.3474898E2,1.3004674E1,1.9162718E2,2.0750824E2,1.00299614E2,8.2618265E0,8.142376E1,1.8992952E2,4.3058357E1,4.812434E1,8.543467E1,5.71767E1,1.0874425E0,2.4977283E1,5.04331E1,6.848347E0,4.4601316E0,2.856467E0,1.3491832E2,3.272732E1,2.3619333E1,1.1112964E2,9.738867E0,3.2658076E0,1.8151765E2,1.0109533E1,5.3738327E1,1.5376991E2,8.797869E1,1.232092E1,2.5815477E0,5.6802783E0,6.4874565E1,1.6549194E1,3.2165527E1,1.5776399E2,1.43666E1,2.8691757E1,4.3683594E1,4.4407477E0,7.8202484E1,7.232185E0,4.749275E1,9.683952E0,2.1043909E0,4.832871E1,5.2839913E0,1.5643557E0,1.4574997E0,3.0026321E0,5.5561466E1,7.935685E1,1.196949E1,2.0757832E1,2.264913E0,2.135442E1,4.2747227E1,6.838241E1,5.9320145E0,3.8068519E0,8.863098E1,9.288667E1,1.8054667E0,8.304067E0,2.130314E1,3.2435184E1,2.6575249E1,1.27194664E2,3.2374992E1,5.56037E1,3.9714594E0,8.349461E0,1.314851E0,1.2666967E0,4.378208E0,1.3020704E0,1.05163965E1,5.435817E1,9.431996E0,7.117198E0,1.5680628E1,1.6484898E1,1.003311E1,1.4773088E2,2.9589891E0,1.1407611E1,1.7916258E1,1.07755E1,2.2704241E0,4.141317E1,1.9305463E0,2.5102015E0,1.8978619E1,5.9223866E1,4.211589E0,3.0205963E0,3.6756737E0,4.3817078E1,7.034611E0,2.6493409E0],"tree_param":{"num_deleted":"0","num_feature":"49","num_nodes":"119","size_leaf_vector":"1"}},{"base_weights":[-1.5325514E-4,2.7172565E-1,-1.37623E-1,4.5705208E-1,1.7781708E-1,-3.5671297E-2,-2.8259745E-1,5.7141966E-1,3.1819344E-1,2.0779844E-1,-3.1957854E-2,3.975654E-3,-1.6404378E-1,-1.949834E-1,-3.8667214E-1,5.824766E-1,9.650906E-2,4.6929795E-1,2.210694E-1,2.1882407E-1,-3.2260394E-1,9.474414E-2,-2.256187E-1,-2.9709872E-2,1.697983E-1,6.735673E-2,-2.2016017E-1,-4.444282E-2,-2.805412E-1,-4.9392682E-1,-2.8327972E-1,3.0446985E-1,6.0392725E-1,-2.325191E-3,1.0820038E-2,6.1560504E-2,5.060892E-1,3.0873147E-1,1.8878736E-2,3.7758702E-1,1.8603128E-1,-0E0,-1.6514488E-2,-8.6256815E-3,1.2807712E-1,-9.903194E-2,-2.0192608E-2,6.52591E-2,-9.235838E-2,1.9529915E-1,-1.0842926E-1,1.6297643E-1,-1.65034E-1,-1.5678486E-1,-5.449916E-1,-2.6033917E-1,3.1993847E-2,-2.4439561E-1,-5.708314E-1,-5.709465E-1,-3.3800125E-1,-2.1075359E-1,-4.11227E-1,1.7626712E-2,-0E0,2.439394E-2,4.6387804E-3,-3.1493397E-3,8.761201E-3,2.9386352E-3,2.0683862E-2,2.9161891E-3,1.5472112E-2,-9.471539E-3,5.463445E-3,1.7401105E-2,4.3096123E-3,1.0640924E-2,5.457757E-3,6.5560923E-3,-3.478238E-3,-0E0,-8.104477E-3,-1.0567878E-2,5.6241113E-3,-7.4849552E-3,-6.9969735E-4,1.0869673E-2,1.3775422E-3,-1.3713105E-2,5.5232397E-3,1.5922101E-3,1.5901815E-2,-0E0,-9.7927665E-3,-7.6733916E-3,6.72425E-3,-2.3493389E-2,-3.0151743E-3,4.182695E-3,-1.2555418E-2,5.494033E-3,-5.9644952E-3,-1.1660802E-2,-2.3241404E-3,-2.4643391E-2,-5.8432063E-3,-0E0,-2.3212723E-2,-9.655309E-3,-2.4539733E-2,-1.0535318E-2,6.942122E-3,-1.8822104E-2,5.423242E-3],"categories":[],"categories_nodes":[],"categories_segments":[],"categories_sizes":[],"default_left":[0,0,0,0,0,0,0,0,0,0,0,0,0,0,0,0,0,0,0,0,0,0,0,0,0,0,0,0,0,0,0,0,0,0,0,0,0,0,0,0,0,0,0,0,0,0,0,0,0,0,0,0,0,0,0,0,0,0,0,0,0,0,0,0,0,0,0,0,0,0,0,0,0,0,0,0,0,0,0,0,0,0,0,0,0,0,0,0,0,0,0,0,0,0,0,0,0,0,0,0,0,0,0,0,0,0,0,0,0,0,0,0,0,0,0],"id":7,"left_children":[1,3,5,7,9,11,13,15,17,19,21,23,25,27,29,31,33,35,37,39,41,43,45,47,49,51,53,55,57,59,61,63,65,-1,-1,67,69,71,73,75,77,-1,-1,-1,79,81,-1,83,85,87,89,91,93,95,97,99,101,103,105,107,109,111,113,-1,-1,-1,-1,-1,-1,-1,-1,-1,-1,-1,-1,-1,-1,-1,-1,-1,-1,-1,-1,-1,-1,-1,-1,-1,-1,-1,-1,-1,-1,-1,-1,-1,-1,-1,-1,-1,-1,-1,-1,-1,-1,-1,-1,-1,-1,-1,-1,-1,-1,-1,-1],"loss_changes":[5.2546097E1,8.07011E0,1.3766705E1,2.234394E0,2.007063E0,2.8162541E0,3.3787384E0,3.2144356E-1,9.117179E-1,1.6765852E0,1.0128578E0,2.3687232E0,1.7236028E0,2.6813412E0,1.7176304E0,2.1735382E-1,1.2669052E-1,3.2641363E-1,7.9936576E-1,1.2871475E0,1.3167065E-1,2.72301E-1,4.6845692E-1,2.090972E0,5.383904E-1,6.015939E-1,2.0171285E0,1.323592E0,1.1887007E0,7.2297287E-1,7.018604E-1,3.8418657E-1,7.413101E-2,0E0,0E0,1.1189754E-1,2.1866322E-2,5.2545714E-1,4.9504825E-1,5.9626055E-1,8.260684E-1,0E0,0E0,0E0,1.994288E-1,1.4784575E-1,0E0,3.4765143E0,1.479764E0,7.758086E-1,4.3365347E-1,4.9337482E-1,9.0830386E-2,1.0592036E0,2.1892214E-1,4.627E-1,1.1333998E0,1.015017E0,9.945822E-2,2.4831963E-1,5.809324E-1,1.2897067E0,1.1229286E0,0E0,0E0,0E0,0E0,0E0,0E0,0E0,0E0,0E0,0E0,0E0,0E0,0E0,0E0,0E0,0E0,0E0,0E0,0E0,0E0,0E0,0E0,0E0,0E0,0E0,0E0,0E0,0E0,0E0,0E0,0E0,0E0,0E0,0E0,0E0,0E0,0E0,0E0,0E0,0E0,0E0,0E0,0E0,0E0,0E0,0E0,0E0,0E0,0E0,0E0,0E0,0E0],"parents":[2147483647,0,0,1,1,2,2,3,3,4,4,5,5,6,6,7,7,8,8,9,9,10,10,11,11,12,12,13,13,14,14,15,15,16,16,17,17,18,18,19,19,20,20,21,21,22,22,23,23,24,24,25,25,26,26,27,27,28,28,29,29,30,30,31,31,32,32,35,35,36,36,37,37,38,38,39,39,40,40,44,44,45,45,47,47,48,48,49,49,50,50,51,51,52,52,53,53,54,54,55,55,56,56,57,57,58,58,59,59,60,60,61,61,62,62],"right_children":[2,4,6,8,10,12,14,16,18,20,22,24,26,28,30,32,34,36,38,40,42,44,46,48,50,52,54,56,58,60,62,64,66,-1,-1,68,70,72,74,76,78,-1,-1,-1,80,82,-1,84,86,88,90,92,94,96,98,100,102,104,106,108,110,112,114,-1,-1,-1,-1,-1,-1,-1,-1,-1,-1,-1,-1,-1,-1,-1,-1,-1,-1,-1,-1,-1,-1,-1,-1,-1,-1,-1,-1,-1,-1,-1,-1,-1,-1,-1,-1,-1,-1,-1,-1,-1,-1,-1,-1,-1,-1,-1,-1,-1,-1,-1,-1],"split_conditions":[3.87E-1,1.51E-1,8.18E-1,1.38E-1,1.4E1,1.5E1,7.62E-1,1.174032E2,2.023E3,1.8666666E1,1.3E1,7.22E1,2.02E3,3.13E2,6.823894E1,8.7E-2,1.186235E2,3.0913333E2,1.604E0,9.2E-2,8E0,2.0133333E-1,9.8160385E1,1E1,9.28E-1,3.8217335E1,7.69E-1,8.8472725E1,1.315E0,2.5839793E-2,3.254E0,3.2588443E-1,1.2333333E1,-2.325191E-3,1.0820038E-2,2.9E1,3.74E-2,3.9E1,3.1753333E2,1E0,2.022E3,-0E0,-1.6514488E-2,-8.6256815E-3,1.11E2,3.2533334E2,-2.0192608E-2,8.34502E1,1.1E1,3.22E2,1.0133333E1,7.569749E-1,1.22E1,3.46E0,4.66E2,3.0646667E2,1.256E0,9.4766E1,1.07772E2,7.87E-1,4.2E0,3.1E1,3.03E2,1.7626712E-2,-0E0,2.439394E-2,4.6387804E-3,-3.1493397E-3,8.761201E-3,2.9386352E-3,2.0683862E-2,2.9161891E-3,1.5472112E-2,-9.471539E-3,5.463445E-3,1.7401105E-2,4.3096123E-3,1.0640924E-2,5.457757E-3,6.5560923E-3,-3.478238E-3,-0E0,-8.104477E-3,-1.0567878E-2,5.6241113E-3,-7.4849552E-3,-6.9969735E-4,1.0869673E-2,1.3775422E-3,-1.3713105E-2,5.5232397E-3,1.5922101E-3,1.5901815E-2,-0E0,-9.7927665E-3,-7.6733916E-3,6.72425E-3,-2.3493389E-2,-3.0151743E-3,4.182695E-3,-1.2555418E-2,5.494033E-3,-5.9644952E-3,-1.1660802E-2,-2.3241404E-3,-2.4643391E-2,-5.8432063E-3,-0E0,-2.3212723E-2,-9.655309E-3,-2.4539733E-2,-1.0535318E-2,6.942122E-3,-1.8822104E-2,5.423242E-3],"split_indices":[16,16,16,15,25,25,15,26,3,12,8,44,3,21,44,11,26,22,11,15,1,18,26,25,15,43,15,26,16,40,16,9,35,0,0,0,18,37,22,46,3,0,0,0,6,22,0,26,25,21,8,9,29,24,37,22,16,23,26,11,31,2,21,0,0,0,0,0,0,0,0,0,0,0,0,0,0,0,0,0,0,0,0,0,0,0,0,0,0,0,0,0,0,0,0,0,0,0,0,0,0,0,0,0,0,0,0,0,0,0,0,0,0,0,0],"split_type":[0,0,0,0,0,0,0,0,0,0,0,0,0,0,0,0,0,0,0,0,0,0,0,0,0,0,0,0,0,0,0,0,0,0,0,0,0,0,0,0,0,0,0,0,0,0,0,0,0,0,0,0,0,0,0,0,0,0,0,0,0,0,0,0,0,0,0,0,0,0,0,0,0,0,0,0,0,0,0,0,0,0,0,0,0,0,0,0,0,0,0,0,0,0,0,0,0,0,0,0,0,0,0,0,0,0,0,0,0,0,0,0,0,0,0],"sum_hessian":[1.4042693E3,4.710173E2,9.332521E2,1.5674762E2,3.1426968E2,5.4906433E2,3.841877E2,8.385071E1,7.2896904E1,2.7539578E2,3.8873886E1,4.1964877E2,1.2941556E2,2.106711E2,1.735166E2,8.151578E1,2.334927E0,2.6620104E1,4.6276802E1,2.705478E2,4.847983E0,2.3496067E1,1.537782E1,3.489751E2,7.0673676E1,2.4871908E1,1.04543655E2,7.73176E1,1.333535E2,8.2838875E1,9.0677734E1,7.261412E0,7.425437E1,1.284483E0,1.0504442E0,2.6494105E0,2.3970694E1,3.1568432E1,1.470837E1,4.3993572E1,2.2655423E2,1.5049673E0,3.3430157E0,1.4572501E0,2.2038816E1,1.175914E1,3.61868E0,1.3805676E2,2.1091833E2,6.534224E1,5.3314414E0,1.8137884E1,6.734024E0,8.897497E1,1.556869E1,1.9929316E1,5.738828E1,1.2053183E2,1.2821679E1,5.3238598E1,2.9600279E1,6.0061176E1,3.0616554E1,4.9222736E0,2.3391385E0,7.2914825E1,1.3395435E0,1.3297043E0,1.3197061E0,1.0105878E0,2.2960106E1,8.651109E0,2.2917324E1,4.050095E0,1.0658275E1,3.546224E1,8.531336E0,8.425575E1,1.4229848E2,1.9493896E1,2.5449204E0,6.1094894E0,5.6496506E0,2.4982353E1,1.1307441E2,9.183641E1,1.19081924E2,4.340484E1,2.1937399E1,2.7405157E0,2.5909255E0,1.2939445E1,5.198439E0,2.704095E0,4.029929E0,8.095834E1,8.016619E0,1.3855749E1,1.7129412E0,2.1893017E0,1.7740013E1,3.678354E1,2.060474E1,9.5318436E1,2.5213394E1,1.09673195E1,1.8543602E0,1.0003067E0,5.223829E1,2.357234E1,6.02794E0,5.3332367E1,6.7288103E0,2.791073E1,2.7058244E0],"tree_param":{"num_deleted":"0","num_feature":"49","num_nodes":"115","size_leaf_vector":"1"}},{"base_weights":[-1.7224146E-3,2.5845292E-1,-1.3819294E-1,4.2403105E-1,1.2878533E-1,-1.1414773E-2,-2.6500875E-1,5.3809124E-1,3.3783957E-1,5.721167E-2,2.4105532E-1,5.691215E-2,-1.117465E-1,-2.0338143E-1,-3.9649948E-1,7.128643E-1,4.5898232E-1,3.5067853E-1,-1.4655463E-1,1.4796567E-1,-4.5497824E-2,3.703571E-1,1.8859708E-1,9.856826E-2,-1.2856953E-1,-2.0763972E-1,-2.1610856E-2,-1.7153E-1,-3.8123724E-1,-3.329554E-1,-5.758653E-1,7.396596E-1,3.8523488E-3,4.8390058E-1,9.222379E-2,4.0224975E-1,2.2121482E-1,-1.10868905E-2,-0E0,1.9750427E-1,-5.610403E-3,9.119587E-3,-2.2451021E-1,4.8160353E-1,9.262323E-2,-1.1353103E-1,2.1167167E-1,1.2235101E-1,-1.4137499E-1,-2.609954E-1,9.705522E-2,-1.3369672E-1,-3.1084684E-1,-5.0965533E-2,3.9234486E-1,-3.070019E-1,-1.3829765E-1,-1.5288286E-1,-4.718989E-1,-1.4340879E-1,-3.7827262E-1,-6.6518915E-1,-3.538159E-1,3.1310275E-2,1.2863135E-2,1.2437049E-2,2.1979393E-2,1.1133128E-2,-5.4387436E-3,2.0995488E-2,1.3577093E-2,1.1001301E-2,-4.5611355E-3,8.6093005E-3,-5.746028E-3,-5.1537E-3,6.457738E-3,1.0459735E-2,-2.1908528E-3,-1.9258135E-3,-1.2617423E-2,-1.6320749E-4,2.0634934E-2,-3.3063113E-3,8.610732E-3,-8.030967E-3,8.842115E-4,-2.1059043E-4,9.721874E-3,6.484607E-3,-1.5442888E-3,-1.293008E-2,1.6021258E-3,-0E0,-1.30766565E-2,6.9785444E-3,-1.12306755E-2,-4.8508937E-4,-8.267575E-3,5.586374E-3,-1.3228353E-2,2.2696023E-4,-7.466673E-3,1.8238084E-2,2.6888917E-3,-1.443551E-2,1.6817759E-3,1.1082743E-2,-6.104208E-3,-1.3200479E-2,2.0386076E-3,-1.9993119E-2,2.7524172E-3,-1.458591E-2,-1.8058033E-3,-1.5834216E-2,3.8113182E-3,-1.1935759E-2,-2.831211E-2,-2.0792011E-4,-1.6576411E-2],"categories":[],"categories_nodes":[],"categories_segments":[],"categories_sizes":[],"default_left":[0,0,0,0,0,0,0,0,0,0,0,0,0,0,0,0,0,0,0,0,0,0,0,0,0,0,0,0,0,0,0,0,0,0,0,0,0,0,0,0,0,0,0,0,0,0,0,0,0,0,0,0,0,0,0,0,0,0,0,0,0,0,0,0,0,0,0,0,0,0,0,0,0,0,0,0,0,0,0,0,0,0,0,0,0,0,0,0,0,0,0,0,0,0,0,0,0,0,0,0,0,0,0,0,0,0,0,0,0,0,0,0,0,0,0,0,0,0,0,0,0],"id":8,"left_children":[1,3,5,7,9,11,13,15,17,19,21,23,25,27,29,31,33,35,37,39,41,43,45,47,49,51,53,55,57,59,61,63,-1,65,67,69,71,-1,-1,73,75,77,79,81,83,85,87,89,91,93,95,97,99,101,103,105,107,109,111,113,115,117,119,-1,-1,-1,-1,-1,-1,-1,-1,-1,-1,-1,-1,-1,-1,-1,-1,-1,-1,-1,-1,-1,-1,-1,-1,-1,-1,-1,-1,-1,-1,-1,-1,-1,-1,-1,-1,-1,-1,-1,-1,-1,-1,-1,-1,-1,-1,-1,-1,-1,-1,-1,-1,-1,-1,-1,-1,-1,-1],"loss_changes":[4.913949E1,1.0110666E1,1.4571913E1,1.7783508E0,2.1158857E0,3.1354077E0,3.535286E0,7.6494026E-1,8.29463E-1,1.5640497E0,5.781317E-1,2.104467E0,1.5760972E0,1.6436052E0,1.3493958E0,2.590561E-1,4.7729778E-1,6.443691E-1,8.2619675E-2,6.96386E-1,7.872386E-1,7.7426624E-1,5.665324E-1,1.2845461E0,1.5271661E0,5.9497523E-1,1.1680061E0,1.1124859E0,8.178749E-1,8.256855E-1,3.7033558E-1,6.494999E-2,0E0,4.1116524E-1,2.867183E-1,3.7836075E-1,7.1004057E-1,0E0,0E0,4.4760537E-1,4.7361228E-1,1.0085707E0,2.4875182E-1,3.8209772E-1,2.3757058E-1,9.052407E-2,5.127003E-1,1.3195677E0,7.0587546E-1,5.7723475E-1,5.892779E-1,4.575147E-1,3.8677025E-1,7.2591144E-1,4.796326E-2,1.0076189E0,1.3156271E0,5.815588E-1,5.628581E-1,4.420121E-1,7.883396E-1,6.305027E-2,2.2398591E-1,0E0,0E0,0E0,0E0,0E0,0E0,0E0,0E0,0E0,0E0,0E0,0E0,0E0,0E0,0E0,0E0,0E0,0E0,0E0,0E0,0E0,0E0,0E0,0E0,0E0,0E0,0E0,0E0,0E0,0E0,0E0,0E0,0E0,0E0,0E0,0E0,0E0,0E0,0E0,0E0,0E0,0E0,0E0,0E0,0E0,0E0,0E0,0E0,0E0,0E0,0E0,0E0,0E0,0E0,0E0,0E0,0E0,0E0],"parents":[2147483647,0,0,1,1,2,2,3,3,4,4,5,5,6,6,7,7,8,8,9,9,10,10,11,11,12,12,13,13,14,14,15,15,16,16,17,17,18,18,19,19,20,20,21,21,22,22,23,23,24,24,25,25,26,26,27,27,28,28,29,29,30,30,31,31,33,33,34,34,35,35,36,36,39,39,40,40,41,41,42,42,43,43,44,44,45,45,46,46,47,47,48,48,49,49,50,50,51,51,52,52,53,53,54,54,55,55,56,56,57,57,58,58,59,59,60,60,61,61,62,62],"right_children":[2,4,6,8,10,12,14,16,18,20,22,24,26,28,30,32,34,36,38,40,42,44,46,48,50,52,54,56,58,60,62,64,-1,66,68,70,72,-1,-1,74,76,78,80,82,84,86,88,90,92,94,96,98,100,102,104,106,108,110,112,114,116,118,120,-1,-1,-1,-1,-1,-1,-1,-1,-1,-1,-1,-1,-1,-1,-1,-1,-1,-1,-1,-1,-1,-1,-1,-1,-1,-1,-1,-1,-1,-1,-1,-1,-1,-1,-1,-1,-1,-1,-1,-1,-1,-1,-1,-1,-1,-1,-1,-1,-1,-1,-1,-1,-1,-1,-1,-1,-1,-1],"split_conditions":[2.97E-1,2.44E-1,6.94E-1,8.5E-2,1.170068E-1,4.46E-1,9.47E-1,2.8E-2,1.34E1,3.5E-1,1.3E-1,6.37E-1,5.5270885E1,8.84E-1,1.8E1,1.33E2,3.165E2,2.29E-1,1.3E1,5.8E-1,4E0,6.9333334E0,3.466E1,6.666667E-1,9.3018425E1,5.91E-1,1.59E1,8.4677765E1,1.8E1,1.8165333E1,3E0,5.9E-2,3.8523488E-3,8.730159E-2,1E0,1.4E1,2.9E2,-1.10868905E-2,-0E0,2.901E0,1.1E1,6E0,2.908E-1,2.4666667E0,5.8E1,1.2E1,1.0713334E-1,1.01E2,1.2E1,1E1,3E0,2.4375238E1,2.68E-1,7.51E-1,1.2450712E0,1.7666666E1,2.86E2,6.753333E-1,9.8E1,3.1E1,1E0,1.023E0,5.981808E-1,3.1310275E-2,1.2863135E-2,1.2437049E-2,2.1979393E-2,1.1133128E-2,-5.4387436E-3,2.0995488E-2,1.3577093E-2,1.1001301E-2,-4.5611355E-3,8.6093005E-3,-5.746028E-3,-5.1537E-3,6.457738E-3,1.0459735E-2,-2.1908528E-3,-1.9258135E-3,-1.2617423E-2,-1.6320749E-4,2.0634934E-2,-3.3063113E-3,8.610732E-3,-8.030967E-3,8.842115E-4,-2.1059043E-4,9.721874E-3,6.484607E-3,-1.5442888E-3,-1.293008E-2,1.6021258E-3,-0E0,-1.30766565E-2,6.9785444E-3,-1.12306755E-2,-4.8508937E-4,-8.267575E-3,5.586374E-3,-1.3228353E-2,2.2696023E-4,-7.466673E-3,1.8238084E-2,2.6888917E-3,-1.443551E-2,1.6817759E-3,1.1082743E-2,-6.104208E-3,-1.3200479E-2,2.0386076E-3,-1.9993119E-2,2.7524172E-3,-1.458591E-2,-1.8058033E-3,-1.5834216E-2,3.8113182E-3,-1.1935759E-2,-2.831211E-2,-2.0792011E-4,-1.6576411E-2],"split_indices":[17,16,16,16,40,15,17,17,35,15,15,17,44,15,25,6,39,15,0,16,5,30,44,33,26,17,35,26,0,43,39,16,0,40,46,37,37,0,0,11,39,27,18,35,6,4,18,6,4,2,5,42,11,15,9,30,21,18,39,6,33,16,9,0,0,0,0,0,0,0,0,0,0,0,0,0,0,0,0,0,0,0,0,0,0,0,0,0,0,0,0,0,0,0,0,0,0,0,0,0,0,0,0,0,0,0,0,0,0,0,0,0,0,0,0,0,0,0,0,0,0],"split_type":[0,0,0,0,0,0,0,0,0,0,0,0,0,0,0,0,0,0,0,0,0,0,0,0,0,0,0,0,0,0,0,0,0,0,0,0,0,0,0,0,0,0,0,0,0,0,0,0,0,0,0,0,0,0,0,0,0,0,0,0,0,0,0,0,0,0,0,0,0,0,0,0,0,0,0,0,0,0,0,0,0,0,0,0,0,0,0,0,0,0,0,0,0,0,0,0,0,0,0,0,0,0,0,0,0,0,0,0,0,0,0,0,0,0,0,0,0,0,0,0,0],"sum_hessian":[1.3822996E3,4.7503625E2,9.0726337E2,2.0729326E2,2.6774298E2,4.5463843E2,4.526249E2,8.646625E1,1.20827E2,1.6497162E2,1.0277137E2,2.7012003E2,1.8451842E2,3.1043628E2,1.4218863E2,2.4052504E1,6.241375E1,1.18177185E2,2.649817E0,8.7866165E1,7.710546E1,2.736194E1,7.540943E1,2.2140407E2,4.871597E1,8.823459E1,9.628382E1,2.654285E2,4.5007774E1,1.0751353E2,3.4675095E1,2.270394E1,1.3485627E0,5.7888634E1,4.5251145E0,8.2452995E1,3.572419E1,1.0958349E0,1.5539823E0,6.6712135E1,2.115403E1,5.937909E1,1.7726368E1,1.8755365E1,8.606574E0,4.764983E0,7.064445E1,2.0226295E2,1.91411E1,3.0878754E1,1.7837214E1,5.3306995E1,3.4927597E1,9.095259E1,5.3312316E0,5.0070126E1,2.1535837E2,1.386772E1,3.1140057E1,2.1974192E1,8.553934E1,2.2983494E1,1.16916E1,1.9574665E1,3.1292758E0,1.791214E1,3.9976494E1,2.6127667E0,1.912348E0,2.489935E1,5.7553642E1,3.1194351E1,4.5298386E0,6.404617E1,2.6659575E0,1.2649849E1,8.50418E0,1.1686987E1,4.7692104E1,6.9244847E0,1.0801883E1,1.1018933E0,1.7653473E1,3.3415713E0,5.2650027E0,3.056212E0,1.7087712E0,8.62865E0,6.2015797E1,1.6268605E2,3.9576916E1,9.4436035E0,9.697495E0,6.159105E0,2.4719648E1,1.5470518E1,2.3666947E0,2.0950325E1,3.235667E1,1.0075817E0,3.3920013E1,6.4325455E1,2.6627136E1,3.865086E0,1.4661455E0,4.359282E1,6.4773064E0,6.3268743E0,2.090315E2,7.3514743E0,6.516246E0,2.9858343E1,1.2817136E0,5.611475E0,1.6362717E1,8.283884E1,2.700503E0,3.469436E0,1.9514057E1,2.1363912E0,9.555209E0],"tree_param":{"num_deleted":"0","num_feature":"49","num_nodes":"121","size_leaf_vector":"1"}},{"base_weights":[3.4683847E-3,2.1327952E-1,-1.408284E-1,3.9248252E-1,1.08499795E-1,-3.3297475E-2,-2.676897E-1,6.0609424E-1,3.2555914E-1,1.6233781E-1,-4.5076158E-2,5.3247776E-2,-1.24823816E-1,-1.9616596E-1,-3.6829308E-1,2.0038037E-1,6.54365E-1,3.5870934E-1,-8.449032E-2,3.1797922E-1,1.335721E-1,1.9366366E-1,-1.1168396E-1,6.984983E-2,-3.4707266E-1,-1.0045151E-1,-3.7542084E-1,-8.559277E-2,-2.612598E-1,-4.046685E-1,-1.097007E-1,-1.1400793E-3,3.0751976E-1,6.673462E-1,3.619666E-3,4.0792093E-1,1.9311915E-1,-3.1678575E-1,9.136701E-2,3.3603752E-1,-3.50941E-3,-0E0,1.5611333E-1,2.7908978E-1,-0E0,-6.748131E-2,-3.4325576E-1,-2.2550402E-2,1.1027158E-1,-5.4634666E-1,4.984304E-3,8.902873E-2,-1.3757125E-1,4.1758336E-2,-4.6099338E-1,8.975429E-2,-1.5959503E-1,5.2307483E-2,-2.94333E-1,-4.2580172E-1,-1.023538E-1,1.3872364E-1,-2.5481063E-1,1.1633376E-3,1.4346642E-2,3.1893898E-2,2.1440115E-2,1.6916867E-2,1.6882883E-4,1.3381814E-2,2.3014096E-3,-1.53781185E-2,-1.413877E-3,-3.0246808E-3,1.0913331E-2,-0E0,1.4086515E-2,-3.8231888E-3,4.5566107E-3,7.656403E-3,1.8880303E-3,1.4607838E-2,-0E0,-5.432233E-3,7.799151E-3,-4.610921E-3,6.988147E-3,3.2279831E-3,-1.8757198E-2,7.5059794E-3,-2.5625692E-3,7.620035E-3,2.2751566E-3,-4.5099957E-3,-2.777608E-2,1.3610743E-2,9.5592765E-4,-3.308602E-3,-8.5101575E-3,-5.3901685E-4,4.1574235E-3,-2.0464363E-2,-3.1099033E-3,7.986901E-3,-3.452268E-3,5.3047226E-3,-8.048979E-3,1.5726564E-2,-2.7892974E-3,-1.820467E-2,-9.488983E-3,-1.976536E-2,-1.2385811E-2,5.9520244E-3,-1.3155014E-2,-4.9604797E-3,1.2224855E-2,8.894631E-4,-1.7144697E-2],"categories":[],"categories_nodes":[],"categories_segments":[],"categories_sizes":[],"default_left":[0,0,0,0,0,0,0,0,0,0,0,0,0,0,0,0,0,0,0,0,0,0,0,0,0,0,0,0,0,0,0,0,0,0,0,0,0,0,0,0,0,0,0,0,0,0,0,0,0,0,0,0,0,0,0,0,0,0,0,0,0,0,0,0,0,0,0,0,0,0,0,0,0,0,0,0,0,0,0,0,0,0,0,0,0,0,0,0,0,0,0,0,0,0,0,0,0,0,0,0,0,0,0,0,0,0,0,0,0,0,0,0,0,0,0,0,0,0,0],"id":9,"left_children":[1,3,5,7,9,11,13,15,17,19,21,23,25,27,29,31,33,35,37,39,41,43,45,47,49,51,53,55,57,59,61,-1,63,65,-1,67,69,71,73,75,-1,77,79,81,83,85,87,89,91,93,-1,95,97,99,101,103,105,107,109,111,113,115,117,-1,-1,-1,-1,-1,-1,-1,-1,-1,-1,-1,-1,-1,-1,-1,-1,-1,-1,-1,-1,-1,-1,-1,-1,-1,-1,-1,-1,-1,-1,-1,-1,-1,-1,-1,-1,-1,-1,-1,-1,-1,-1,-1,-1,-1,-1,-1,-1,-1,-1,-1,-1,-1,-1,-1,-1],"loss_changes":[4.1593258E1,1.0422564E1,1.10597515E1,2.6528473E0,2.9552636E0,3.514317E0,2.5529613E0,7.1559906E-1,2.223009E0,1.0927353E0,1.4840195E0,1.5070517E0,1.2317452E0,1.530344E0,1.3446655E0,2.0152429E-1,1.7035294E-1,1.0654755E0,5.620516E-1,3.463397E-1,6.86419E-1,3.5940325E-1,6.857331E-1,8.3034515E-1,9.5413303E-1,1.4115176E0,7.174835E-1,1.1084363E0,1.4683046E0,7.567978E-1,7.894239E-1,0E0,2.1452606E-2,1.3259315E-1,0E0,6.371937E-1,6.361487E-1,5.591345E-2,2.7199283E-1,2.3484802E-1,0E0,3.6973292E-1,7.079768E-1,3.3966792E-1,2.0295605E-1,7.449E-1,6.700139E-1,5.8272535E-1,6.218995E-1,2.6766074E-1,0E0,4.8958933E-1,6.400044E-1,2.3659071E-2,2.0268345E-1,5.143741E-1,7.59488E-1,6.298522E-1,9.711075E-1,7.523632E-1,6.5583247E-1,4.0633124E-1,7.054421E-1,0E0,0E0,0E0,0E0,0E0,0E0,0E0,0E0,0E0,0E0,0E0,0E0,0E0,0E0,0E0,0E0,0E0,0E0,0E0,0E0,0E0,0E0,0E0,0E0,0E0,0E0,0E0,0E0,0E0,0E0,0E0,0E0,0E0,0E0,0E0,0E0,0E0,0E0,0E0,0E0,0E0,0E0,0E0,0E0,0E0,0E0,0E0,0E0,0E0,0E0,0E0,0E0,0E0,0E0,0E0,0E0],"parents":[2147483647,0,0,1,1,2,2,3,3,4,4,5,5,6,6,7,7,8,8,9,9,10,10,11,11,12,12,13,13,14,14,15,15,16,16,17,17,18,18,19,19,20,20,21,21,22,22,23,23,24,24,25,25,26,26,27,27,28,28,29,29,30,30,32,32,33,33,35,35,36,36,37,37,38,38,39,39,41,41,42,42,43,43,44,44,45,45,46,46,47,47,48,48,49,49,51,51,52,52,53,53,54,54,55,55,56,56,57,57,58,58,59,59,60,60,61,61,62,62],"right_children":[2,4,6,8,10,12,14,16,18,20,22,24,26,28,30,32,34,36,38,40,42,44,46,48,50,52,54,56,58,60,62,-1,64,66,-1,68,70,72,74,76,-1,78,80,82,84,86,88,90,92,94,-1,96,98,100,102,104,106,108,110,112,114,116,118,-1,-1,-1,-1,-1,-1,-1,-1,-1,-1,-1,-1,-1,-1,-1,-1,-1,-1,-1,-1,-1,-1,-1,-1,-1,-1,-1,-1,-1,-1,-1,-1,-1,-1,-1,-1,-1,-1,-1,-1,-1,-1,-1,-1,-1,-1,-1,-1,-1,-1,-1,-1,-1,-1,-1,-1],"split_conditions":[4.56E-1,1.85E-1,5.91E-1,2.8E-2,4.51E-1,4.51E-1,1.048E0,1.2066667E1,1.2466666E1,9E-2,2.021E3,4.3E1,1.019E0,2.02E3,1.12397E2,8.4668E1,3.5062E0,2.72E-1,1.2933333E1,3.165E2,3.0526666E2,5.276E-1,8.49E-1,7.9764E1,9.3333334E-1,2.019E3,1.02E1,6.33E-1,2.1215294E1,6.666667E-2,2.74E0,-1.1400793E-3,1.6E-1,5.9E-2,3.619666E-3,4.25E2,2.023E3,1.686E0,1.7476E0,2.96E2,-3.50941E-3,1.0166667E1,3.235E2,4.3E1,1.0166667E1,1.5266666E1,9.4E0,1.9E-1,1.03E1,2.4188E1,4.984304E-3,3.1353333E2,4.54E-1,9E0,1.07E2,3.499359E1,3E0,3.2466668E-1,1.1666667E1,2.6E1,1.082E0,3.5E1,1.3E1,1.1633376E-3,1.4346642E-2,3.1893898E-2,2.1440115E-2,1.6916867E-2,1.6882883E-4,1.3381814E-2,2.3014096E-3,-1.53781185E-2,-1.413877E-3,-3.0246808E-3,1.0913331E-2,-0E0,1.4086515E-2,-3.8231888E-3,4.5566107E-3,7.656403E-3,1.8880303E-3,1.4607838E-2,-0E0,-5.432233E-3,7.799151E-3,-4.610921E-3,6.988147E-3,3.2279831E-3,-1.8757198E-2,7.5059794E-3,-2.5625692E-3,7.620035E-3,2.2751566E-3,-4.5099957E-3,-2.777608E-2,1.3610743E-2,9.5592765E-4,-3.308602E-3,-8.5101575E-3,-5.3901685E-4,4.1574235E-3,-2.0464363E-2,-3.1099033E-3,7.986901E-3,-3.452268E-3,5.3047226E-3,-8.048979E-3,1.5726564E-2,-2.7892974E-3,-1.820467E-2,-9.488983E-3,-1.976536E-2,-1.2385811E-2,5.9520244E-3,-1.3155014E-2,-4.9604797E-3,1.2224855E-2,8.894631E-4,-1.7144697E-2],"split_indices":[16,17,17,17,15,15,16,36,8,15,3,0,15,3,23,23,11,15,29,39,22,18,17,23,36,3,29,16,43,32,16,0,41,16,0,37,3,11,10,22,0,12,37,6,12,29,30,15,35,42,0,22,17,25,6,43,27,20,8,2,15,6,25,0,0,0,0,0,0,0,0,0,0,0,0,0,0,0,0,0,0,0,0,0,0,0,0,0,0,0,0,0,0,0,0,0,0,0,0,0,0,0,0,0,0,0,0,0,0,0,0,0,0,0,0,0,0,0,0],"split_type":[0,0,0,0,0,0,0,0,0,0,0,0,0,0,0,0,0,0,0,0,0,0,0,0,0,0,0,0,0,0,0,0,0,0,0,0,0,0,0,0,0,0,0,0,0,0,0,0,0,0,0,0,0,0,0,0,0,0,0,0,0,0,0,0,0,0,0,0,0,0,0,0,0,0,0,0,0,0,0,0,0,0,0,0,0,0,0,0,0,0,0,0,0,0,0,0,0,0,0,0,0,0,0,0,0,0,0,0,0,0,0,0,0,0,0,0,0,0,0],"sum_hessian":[1.3716136E3,5.5901166E2,8.12602E2,2.048906E2,3.541211E2,4.4091864E2,3.7168335E2,4.6599506E1,1.5829109E2,2.6264252E2,9.1478584E1,2.262795E2,2.1463916E2,2.1954341E2,1.5213994E2,5.722757E0,4.0876747E1,1.4679279E2,1.1498295E1,3.8859035E1,2.2378346E2,1.9211323E1,7.2267265E1,2.1830144E2,7.9780593E0,1.9725467E2,1.7384499E1,8.277938E1,1.3676402E2,1.3254381E2,1.959614E1,1.7611065E0,3.9616506E0,3.9604156E1,1.2725935E0,1.1156852E2,3.5224274E1,4.853896E0,6.644399E0,3.7603527E1,1.2555096E0,3.2061672E1,1.9172179E2,1.33462E1,5.8651237E0,6.2130894E1,1.0136369E1,6.5817406E1,1.5248402E2,5.646326E0,2.331733E0,3.164225E1,1.6561241E2,2.8472302E0,1.4537268E1,2.4103172E1,5.8676212E1,1.2704773E1,1.2405925E2,1.231928E2,9.351004E0,6.9879074E0,1.26082325E1,1.1616315E0,2.800019E0,1.6972748E1,2.2631407E1,1.0728662E2,4.2818975E0,1.6161442E1,1.906283E1,3.3315396E0,1.5223563E0,3.4770632E0,3.167336E0,1.5606859E0,3.604284E1,1.781565E1,1.4246023E1,1.4353036E2,4.819143E1,9.925471E0,3.4207284E0,3.9071543E0,1.9579693E0,5.267348E1,9.457414E0,2.2175927E0,7.918776E0,9.877082E0,5.5940327E1,5.9155094E1,9.332893E1,2.057542E0,3.588784E0,5.328371E0,2.6313879E1,9.773296E1,6.7879456E1,1.0708942E0,1.776336E0,1.2314953E1,2.2223148E0,1.51060505E1,8.997122E0,6.7447033E0,5.1931507E1,2.9798563E0,9.724916E0,3.0229713E1,9.382954E1,7.4972916E1,4.8219887E1,4.3877544E0,4.9632497E0,2.5816236E0,4.406284E0,4.974929E0,7.633303E0],"tree_param":{"num_deleted":"0","num_feature":"49","num_nodes":"119","size_leaf_vector":"1"}},{"base_weights":[-6.3685635E-3,2.3796493E-1,-1.3743164E-1,4.4464377E-1,1.7207532E-1,-5.6343645E-2,-2.9988638E-1,5.550004E-1,3.1944466E-1,2.1112612E-1,-2.0154007E-2,8.776129E-2,-9.622862E-2,-2.5130627E-1,-5.512106E-1,5.7371706E-1,6.4811304E-2,5.287203E-1,2.1064426E-1,4.1483358E-1,1.8168576E-1,1.6343964E-2,-4.8496634E-2,3.1663156E-1,4.753991E-2,-5.374829E-2,-2.1819057E-1,-2.0531973E-1,-4.175307E-1,-5.7330686E-1,3.4277749E-3,5.8272266E-1,4.7611087E-3,-5.8560763E-3,1.3285909E-2,5.502156E-3,5.591682E-1,4.7072303E-2,3.2455447E-1,4.588164E-1,-0E0,2.5463104E-1,1.1973851E-1,-4.2369598E-1,-5.6270515E-3,4.165247E-1,3.7509203E-2,1.3872993E-1,-5.3582836E-2,4.8566908E-2,-1.08701065E-1,-2.148108E-2,-1.9713968E-1,-3.3081377E-1,-1.2917629E-1,-5.42978E-1,-2.6561344E-1,-8.7279454E-4,-5.921691E-1,2.5654985E-2,1.761155E-2,2.316978E-2,4.13553E-3,6.8013603E-3,-8.953019E-3,1.50444275E-2,-4.6986158E-4,1.19835995E-2,2.1248717E-2,5.8883647E-3,-6.5650227E-3,1.604302E-2,8.8333385E-3,9.254666E-3,1.8750698E-3,-1.3399122E-3,-2.0791462E-2,-3.2537847E-3,9.481957E-3,2.1047335E-2,6.3653206E-3,-3.6856547E-4,6.401305E-3,1.9058437E-3,1.1940975E-2,1.690152E-3,-5.521112E-3,-3.3543084E-3,4.3955366E-3,1.0578168E-2,-4.909119E-3,-6.423371E-3,-1.3834921E-2,-2.037485E-3,-1.5862787E-2,2.696027E-3,-6.3137584E-3,-2.3172813E-2,-4.178228E-3,-1.7723709E-3,-1.352635E-2,-1.6111415E-2,-2.781292E-2],"categories":[],"categories_nodes":[],"categories_segments":[],"categories_sizes":[],"default_left":[0,0,0,0,0,0,0,0,0,0,0,0,0,0,0,0,0,0,0,0,0,0,0,0,0,0,0,0,0,0,0,0,0,0,0,0,0,0,0,0,0,0,0,0,0,0,0,0,0,0,0,0,0,0,0,0,0,0,0,0,0,0,0,0,0,0,0,0,0,0,0,0,0,0,0,0,0,0,0,0,0,0,0,0,0,0,0,0,0,0,0,0,0,0,0,0,0,0,0,0,0,0,0],"id":10,"left_children":[1,3,5,7,9,11,13,15,17,19,21,23,25,27,29,31,33,35,37,39,41,-1,43,45,47,49,51,53,55,57,-1,59,-1,-1,-1,-1,61,63,65,67,69,71,73,75,77,79,81,83,85,87,89,-1,91,93,95,97,99,-1,101,-1,-1,-1,-1,-1,-1,-1,-1,-1,-1,-1,-1,-1,-1,-1,-1,-1,-1,-1,-1,-1,-1,-1,-1,-1,-1,-1,-1,-1,-1,-1,-1,-1,-1,-1,-1,-1,-1,-1,-1,-1,-1,-1,-1],"loss_changes":[4.3163464E1,6.268303E0,1.1509998E1,1.2927322E0,2.7161455E0,3.3839128E0,3.3414898E0,4.3231964E-1,1.0804734E0,1.656167E0,7.2566915E-1,1.1199933E0,2.3488708E0,1.7365417E0,7.4615574E-1,8.842468E-2,2.6267713E-1,6.825924E-2,6.6589415E-1,6.38639E-1,1.1212473E0,0E0,8.936409E-1,4.540435E-1,1.0283108E0,1.9440463E0,6.135311E-1,1.7798672E0,7.656555E-1,3.9171314E-1,0E0,6.154442E-2,0E0,0E0,0E0,0E0,1.9835472E-2,6.108229E-1,4.2570305E-1,1.3677359E-1,1.3500912E-1,4.3933678E-1,1.1401796E0,1.4222765E-1,9.8938805E-1,2.2147775E-1,5.2230082E-2,8.029846E-1,4.3833256E-1,9.876559E-1,1.1938002E0,0E0,5.064621E-1,1.2731442E0,7.1758676E-1,3.0388737E-1,3.6147153E-1,0E0,4.5222473E-1,0E0,0E0,0E0,0E0,0E0,0E0,0E0,0E0,0E0,0E0,0E0,0E0,0E0,0E0,0E0,0E0,0E0,0E0,0E0,0E0,0E0,0E0,0E0,0E0,0E0,0E0,0E0,0E0,0E0,0E0,0E0,0E0,0E0,0E0,0E0,0E0,0E0,0E0,0E0,0E0,0E0,0E0,0E0,0E0],"parents":[2147483647,0,0,1,1,2,2,3,3,4,4,5,5,6,6,7,7,8,8,9,9,10,10,11,11,12,12,13,13,14,14,15,15,16,16,17,17,18,18,19,19,20,20,22,22,23,23,24,24,25,25,26,26,27,27,28,28,29,29,31,31,36,36,37,37,38,38,39,39,40,40,41,41,42,42,43,43,44,44,45,45,46,46,47,47,48,48,49,49,50,50,52,52,53,53,54,54,55,55,56,56,58,58],"right_children":[2,4,6,8,10,12,14,16,18,20,22,24,26,28,30,32,34,36,38,40,42,-1,44,46,48,50,52,54,56,58,-1,60,-1,-1,-1,-1,62,64,66,68,70,72,74,76,78,80,82,84,86,88,90,-1,92,94,96,98,100,-1,102,-1,-1,-1,-1,-1,-1,-1,-1,-1,-1,-1,-1,-1,-1,-1,-1,-1,-1,-1,-1,-1,-1,-1,-1,-1,-1,-1,-1,-1,-1,-1,-1,-1,-1,-1,-1,-1,-1,-1,-1,-1,-1,-1,-1],"split_conditions":[3.96E-1,1.05E-1,7.09E-1,8.63E-1,4.73E-1,2.72E-1,1.7533333E1,1.1E1,2.3E-2,7.6E-2,3.5033333E-1,1.03E-1,8.83E-1,1.328E0,3.1079333E0,3.6724668E0,2.5E1,1.4E-1,3.7224147E-1,2.476E0,2.023E3,1.6343964E-2,5.52E-1,1.285E0,5.8E-1,2.021E3,7.33E-1,5.3589745E1,2.6666668E-1,6.6692E1,3.4277749E-3,1.3E-1,4.7611087E-3,-5.8560763E-3,1.3285909E-2,5.502156E-3,5.120875E1,1E0,1.5786667E0,5E-1,8E0,4E0,2.7613333E-1,1.5E1,2.1E1,1.3E1,1.2E1,6.016E-1,2E0,1.3333334E0,3.1483334E-1,-2.148108E-2,1.8E1,5.9E-1,2.86E2,1.42E1,2.5E-1,-8.7279454E-4,2.7144E0,2.5654985E-2,1.761155E-2,2.316978E-2,4.13553E-3,6.8013603E-3,-8.953019E-3,1.50444275E-2,-4.6986158E-4,1.19835995E-2,2.1248717E-2,5.8883647E-3,-6.5650227E-3,1.604302E-2,8.8333385E-3,9.254666E-3,1.8750698E-3,-1.3399122E-3,-2.0791462E-2,-3.2537847E-3,9.481957E-3,2.1047335E-2,6.3653206E-3,-3.6856547E-4,6.401305E-3,1.9058437E-3,1.1940975E-2,1.690152E-3,-5.521112E-3,-3.3543084E-3,4.3955366E-3,1.0578168E-2,-4.909119E-3,-6.423371E-3,-1.3834921E-2,-2.037485E-3,-1.5862787E-2,2.696027E-3,-6.3137584E-3,-2.3172813E-2,-4.178228E-3,-1.7723709E-3,-1.352635E-2,-1.6111415E-2,-2.781292E-2],"split_indices":[16,17,17,11,17,17,8,29,17,16,11,17,16,17,19,7,0,41,9,11,3,0,11,24,16,3,24,44,33,23,0,16,0,0,0,0,43,45,7,14,2,25,18,4,2,4,25,19,13,31,11,0,25,16,21,29,14,0,10,0,0,0,0,0,0,0,0,0,0,0,0,0,0,0,0,0,0,0,0,0,0,0,0,0,0,0,0,0,0,0,0,0,0,0,0,0,0,0,0,0,0,0,0],"split_type":[0,0,0,0,0,0,0,0,0,0,0,0,0,0,0,0,0,0,0,0,0,0,0,0,0,0,0,0,0,0,0,0,0,0,0,0,0,0,0,0,0,0,0,0,0,0,0,0,0,0,0,0,0,0,0,0,0,0,0,0,0,0,0,0,0,0,0,0,0,0,0,0,0,0,0,0,0,0,0,0,0,0,0,0,0,0,0,0,0,0,0,0,0,0,0,0,0,0,0,0,0,0,0],"sum_hessian":[1.346178E3,4.6944308E2,8.767349E2,1.1172483E2,3.5771826E2,5.861334E2,2.9060144E2,5.713318E1,5.4591652E1,2.9766953E2,6.004874E1,1.2625715E2,4.5987628E2,2.4553767E2,4.506378E1,5.4671288E1,2.4618886E0,1.7038923E1,3.7552727E1,3.550582E1,2.621637E2,2.6727057E0,5.7376034E1,1.7472956E1,1.08784195E2,3.427532E2,1.17123085E2,1.9455124E2,5.098643E1,4.380105E1,1.2627336E0,5.311772E1,1.5535672E0,1.4190524E0,1.0428362E0,1.866164E0,1.5172759E1,1.6356443E1,2.1196283E1,3.1876019E1,3.629804E0,1.18224754E2,1.4393893E2,4.733335E0,5.26427E1,1.22414255E1,5.2315307E0,5.7525818E1,5.1258377E1,1.19170006E2,2.235832E2,5.4417114E0,1.1168137E2,7.170856E1,1.2284268E2,2.6155674E1,2.4830757E1,1.6952213E0,4.2105827E1,3.4646008E1,1.8471714E1,1.4063021E1,1.109739E0,1.1760001E1,4.596442E0,1.8533936E1,2.6623466E0,1.2001418E1,1.9874601E1,2.1598756E0,1.4699283E0,1.9576067E1,9.864869E1,5.5445522E1,8.8493416E1,1.4074298E0,3.3259053E0,4.0944454E1,1.1698245E1,7.579477E0,4.661949E0,3.8659196E0,1.3656112E0,3.786596E1,1.9659859E1,2.3689068E1,2.756931E1,3.7085377E1,8.208463E1,7.1949453E0,2.1638826E2,9.1856964E1,1.982441E1,1.42693615E1,5.7439194E1,1.5018698E1,1.0782399E2,2.3646841E1,2.508832E0,6.8681736E0,1.7962584E1,1.6918581E1,2.5187246E1],"tree_param":{"num_deleted":"0","num_feature":"49","num_nodes":"103","size_leaf_vector":"1"}},{"base_weights":[-0E0,2.1726628E-1,-1.5180384E-1,4.1249692E-1,1.15679674E-1,-6.0999945E-2,-2.8314584E-1,5.661453E-1,3.3249536E-1,1.8017985E-1,-3.6281835E-2,2.1357374E-2,-1.426647E-1,-1.439496E-1,-3.2608452E-1,5.9382915E-1,1.0250908E-1,3.7169543E-1,1.2114713E-1,2.6471436E-1,1.2106393E-1,2.4262417E-2,-2.7481148E-1,1.4615944E-1,-1.1006045E-2,-2.4853494E-2,-1.270956E-1,-2.0604762E-1,3.63107E-2,-3.8038695E-1,-2.2117376E-1,1.4687295E-3,6.0853475E-1,-1.5666751E-3,9.156257E-3,4.746688E-1,3.109986E-1,2.1476667E-1,-2.2602089E-1,2.770352E-1,-1.605325E-2,2.6953426E-1,5.234378E-2,1.3311277E-1,-1.5720232E-1,1.2597002E-3,-3.1191322E-1,1.4574791E-2,1.02802314E-1,-1.8353777E-1,1.329184E-2,-9.41626E-2,-3.6522204E-1,-1.5314986E-1,-4.518903E-1,-5.7885587E-2,2.3287974E-1,7.528424E-2,-3.919593E-1,-3.0766523E-1,-1.0609958E-1,2.9669203E-2,1.9937687E-2,2.0747356E-2,5.6294766E-3,1.5468286E-2,7.7087698E-3,1.14359725E-2,-6.538049E-3,1.13002236E-4,-1.49579E-2,1.3649871E-2,7.825517E-3,2.1305121E-3,-3.8573823E-3,1.3462897E-2,6.2671197E-3,-2.6044932E-3,4.6058404E-3,3.2700514E-3,1.6325515E-2,9.2222495E-3,-9.906429E-3,-0E0,-1.444989E-2,7.5425557E-3,-8.787006E-4,-5.991691E-4,-1.4601972E-2,-7.6345816E-5,1.2007571E-2,-2.6473068E-3,-9.848215E-3,4.1960957E-3,-1.6728152E-2,8.7396754E-4,-9.539676E-3,-2.1257872E-2,-6.86455E-3,7.868985E-4,-1.0992744E-2,-0E0,1.0915351E-2,6.6713737E-3,-6.4965506E-4,-1.1585227E-2,-1.8851964E-2,-4.667018E-3,-1.5699496E-2,1.4967755E-3,-6.146013E-3],"categories":[],"categories_nodes":[],"categories_segments":[],"categories_sizes":[],"default_left":[0,0,0,0,0,0,0,0,0,0,0,0,0,0,0,0,0,0,0,0,0,0,0,0,0,0,0,0,0,0,0,0,0,0,0,0,0,0,0,0,0,0,0,0,0,0,0,0,0,0,0,0,0,0,0,0,0,0,0,0,0,0,0,0,0,0,0,0,0,0,0,0,0,0,0,0,0,0,0,0,0,0,0,0,0,0,0,0,0,0,0,0,0,0,0,0,0,0,0,0,0,0,0,0,0,0,0,0,0,0,0],"id":11,"left_children":[1,3,5,7,9,11,13,15,17,19,21,23,25,27,29,31,33,35,37,39,41,43,45,47,49,-1,51,53,55,57,59,-1,61,-1,-1,63,65,67,69,71,73,75,77,79,81,-1,83,-1,85,87,89,91,93,95,97,99,101,103,105,107,109,-1,-1,-1,-1,-1,-1,-1,-1,-1,-1,-1,-1,-1,-1,-1,-1,-1,-1,-1,-1,-1,-1,-1,-1,-1,-1,-1,-1,-1,-1,-1,-1,-1,-1,-1,-1,-1,-1,-1,-1,-1,-1,-1,-1,-1,-1,-1,-1,-1,-1],"loss_changes":[4.4665546E1,1.0943214E1,9.460674E0,2.0556068E0,3.6277776E0,3.1984076E0,1.8503265E0,6.801014E-1,9.636593E-1,1.2235165E0,1.620611E0,9.6796125E-1,1.6227617E0,9.090885E-1,1.2643757E0,3.9800644E-1,1.1695206E-1,4.4156075E-1,7.579731E-1,3.9388418E-1,1.534478E0,1.7633235E0,2.9570258E-1,3.821025E-1,8.060117E-1,0E0,1.7417023E0,6.420057E-1,4.1401508E-1,9.0971375E-1,7.953925E-1,0E0,3.483143E-1,0E0,0E0,4.0649414E-1,5.008831E-1,5.421227E-1,2.0417067E-1,4.075098E-1,3.7420142E-2,2.635181E-1,8.0631155E-1,7.100936E-1,1.2245162E0,0E0,3.1626058E-1,0E0,4.7974825E-1,6.8277085E-1,7.494684E-1,8.280734E-1,7.6046777E-1,7.8379714E-1,5.3893447E-2,2.7390614E-1,6.457251E-2,5.6372527E-2,1.0645237E0,6.9462156E-1,2.8697333E-1,0E0,0E0,0E0,0E0,0E0,0E0,0E0,0E0,0E0,0E0,0E0,0E0,0E0,0E0,0E0,0E0,0E0,0E0,0E0,0E0,0E0,0E0,0E0,0E0,0E0,0E0,0E0,0E0,0E0,0E0,0E0,0E0,0E0,0E0,0E0,0E0,0E0,0E0,0E0,0E0,0E0,0E0,0E0,0E0,0E0,0E0,0E0,0E0,0E0,0E0],"parents":[2147483647,0,0,1,1,2,2,3,3,4,4,5,5,6,6,7,7,8,8,9,9,10,10,11,11,12,12,13,13,14,14,15,15,16,16,17,17,18,18,19,19,20,20,21,21,22,22,23,23,24,24,26,26,27,27,28,28,29,29,30,30,32,32,35,35,36,36,37,37,38,38,39,39,40,40,41,41,42,42,43,43,44,44,46,46,48,48,49,49,50,50,51,51,52,52,53,53,54,54,55,55,56,56,57,57,58,58,59,59,60,60],"right_children":[2,4,6,8,10,12,14,16,18,20,22,24,26,28,30,32,34,36,38,40,42,44,46,48,50,-1,52,54,56,58,60,-1,62,-1,-1,64,66,68,70,72,74,76,78,80,82,-1,84,-1,86,88,90,92,94,96,98,100,102,104,106,108,110,-1,-1,-1,-1,-1,-1,-1,-1,-1,-1,-1,-1,-1,-1,-1,-1,-1,-1,-1,-1,-1,-1,-1,-1,-1,-1,-1,-1,-1,-1,-1,-1,-1,-1,-1,-1,-1,-1,-1,-1,-1,-1,-1,-1,-1,-1,-1,-1,-1,-1],"split_conditions":[3.36E-1,2.05E-1,6.54E-1,7.1E-2,4.27E-1,4.73E-1,6.79E-1,3.33E-1,1.27E2,1.67E-1,6.9E-1,2.3E1,5.667E-1,1.7E1,1.4E1,7E-3,4E-3,3.9E1,1.1E1,1.218E0,1.98E-1,2.6E1,7.5333333E0,8.4E0,1.7539474E1,-2.4853494E-2,1.7066668E1,8.49E-1,1.0017543E2,1.61E-1,7.816667E-1,1.4687295E-3,4.8E-2,-1.5666751E-3,9.156257E-3,1.0005561E0,3.664487E1,7.3333335E-1,7.131E-1,3.23E2,9E0,4.176E-1,3.468E-1,7.9E1,2.02E3,1.2597002E-3,2.02E3,1.4574791E-2,9E0,1.520421E1,3.9215687E-1,1.048E0,1.8123333E1,7.03E-1,1.934E0,1.2216E0,3.1E1,1.048E0,2.8085262E1,1.9911383E1,5.6486666E-1,2.9669203E-2,1.9937687E-2,2.0747356E-2,5.6294766E-3,1.5468286E-2,7.7087698E-3,1.14359725E-2,-6.538049E-3,1.13002236E-4,-1.49579E-2,1.3649871E-2,7.825517E-3,2.1305121E-3,-3.8573823E-3,1.3462897E-2,6.2671197E-3,-2.6044932E-3,4.6058404E-3,3.2700514E-3,1.6325515E-2,9.2222495E-3,-9.906429E-3,-0E0,-1.444989E-2,7.5425557E-3,-8.787006E-4,-5.991691E-4,-1.4601972E-2,-7.6345816E-5,1.2007571E-2,-2.6473068E-3,-9.848215E-3,4.1960957E-3,-1.6728152E-2,8.7396754E-4,-9.539676E-3,-2.1257872E-2,-6.86455E-3,7.868985E-4,-1.0992744E-2,-0E0,1.0915351E-2,6.6713737E-3,-6.4965506E-4,-1.1585227E-2,-1.8851964E-2,-4.667018E-3,-1.5699496E-2,1.4967755E-3,-6.146013E-3],"split_indices":[15,16,15,15,17,17,16,17,6,15,16,6,10,2,39,20,15,37,25,16,17,2,8,29,42,0,8,17,26,17,19,0,16,0,0,9,43,32,28,21,25,20,20,39,3,0,3,0,1,42,40,16,43,15,24,19,6,16,43,43,20,0,0,0,0,0,0,0,0,0,0,0,0,0,0,0,0,0,0,0,0,0,0,0,0,0,0,0,0,0,0,0,0,0,0,0,0,0,0,0,0,0,0,0,0,0,0,0,0,0,0],"split_type":[0,0,0,0,0,0,0,0,0,0,0,0,0,0,0,0,0,0,0,0,0,0,0,0,0,0,0,0,0,0,0,0,0,0,0,0,0,0,0,0,0,0,0,0,0,0,0,0,0,0,0,0,0,0,0,0,0,0,0,0,0,0,0,0,0,0,0,0,0,0,0,0,0,0,0,0,0,0,0,0,0,0,0,0,0,0,0,0,0,0,0,0,0,0,0,0,0,0,0,0,0,0,0,0,0,0,0,0,0,0,0],"sum_hessian":[1.3524332E3,5.558423E2,7.9659094E2,1.8885434E2,3.6698795E2,4.722941E2,3.2429684E2,6.2154938E1,1.26699394E2,2.579663E2,1.0902164E2,2.3490796E2,2.3738614E2,7.802877E1,2.4626807E2,5.8184246E1,3.9706943E0,1.0583726E2,2.0862135E1,1.0403252E2,1.5393379E2,8.7333466E1,2.1688171E1,4.828432E1,1.8662364E2,6.0499206E0,2.3133623E2,5.8342133E1,1.9686636E1,1.5991574E2,8.635232E1,1.7611524E0,5.642309E1,1.8245598E0,2.1461346E0,3.6109287E1,6.9727974E1,1.6958435E1,3.9036994E0,1.0001313E2,4.0193853E0,4.7320404E1,1.0661339E2,5.509977E1,3.2233692E1,2.0683346E0,1.9619837E1,6.3939795E0,4.1890343E1,2.2737026E1,1.6388661E2,2.0482431E2,2.6511915E1,4.968185E1,8.660282E0,1.3441997E1,6.2446394E0,3.6102986E0,1.5630545E2,4.7847095E1,3.8505222E1,2.2525267E1,3.3897827E1,3.1150637E1,4.9586506E0,4.0615673E1,2.9112297E1,1.470189E1,2.2565455E0,1.6523567E0,2.2513428E0,5.3437325E1,4.6575806E1,1.6713854E0,2.348E0,2.7886839E1,1.9433565E1,3.6576664E1,7.003673E1,4.782855E1,7.2712235E0,5.595182E0,2.663851E1,2.8239055E0,1.679593E1,2.4997963E1,1.6892378E1,1.2636109E1,1.0100918E1,1.5625278E2,7.6338406E0,1.747573E2,3.0067009E1,2.394785E0,2.411713E1,1.6145908E1,3.3535942E1,5.7696304E0,2.890652E0,1.0232139E1,3.2098582E0,1.1012498E0,5.143389E0,1.9405801E0,1.6697185E0,7.084453E1,8.546092E1,1.5807845E1,3.203925E1,9.112294E0,2.939293E1],"tree_param":{"num_deleted":"0","num_feature":"49","num_nodes":"111","size_leaf_vector":"1"}},{"base_weights":[9.783265E-4,1.7850055E-1,-1.6628376E-1,3.7109026E-1,1.0147428E-1,-9.5966704E-2,-3.2831374E-1,5.1756704E-1,2.7770662E-1,1.3740572E-1,-1.386089E-1,-4.3467138E-2,-2.0095986E-1,-2.9123345E-1,-5.9053683E-1,6.348569E-1,4.3953308E-1,3.147368E-1,7.979199E-3,1.6516459E-1,-1.2547702E-1,-8.0919616E-2,-3.5426098E-1,-6.7749895E-2,2.2977565E-1,-2.9004082E-1,-7.933089E-2,-2.1935482E-1,-3.820084E-1,-7.52296E-1,-3.428055E-1,6.958361E-1,1.7951901E-1,9.0794854E-2,4.610646E-1,4.9201462E-1,2.700659E-1,2.1535501E-1,-1.4814134E-2,3.2114315E-1,1.4456297E-1,-1.7190541E-1,2.1780495E-1,-1.772122E-1,3.0766444E-2,-7.282102E-2,-4.4249198E-1,-1.13852695E-1,3.3912912E-2,3.661277E-1,1.2719081E-1,8.467887E-2,-3.034008E-1,1.7324561E-1,-1.3653448E-1,-2.9447564E-1,-9.147564E-2,-4.0223387E-1,2.6764143E-2,-1.5966871E-3,-3.2136142E-2,-3.9996073E-1,1.9453255E-3,6.791278E-3,2.8707398E-2,-4.088798E-3,1.8348085E-2,9.104767E-3,-2.0070316E-3,-0E0,1.8914746E-2,3.3431693E-3,2.157464E-2,1.1507102E-2,1.2708297E-3,1.8426107E-3,1.9290552E-2,1.4585894E-2,1.3985317E-3,7.358381E-3,3.3592407E-3,-1.2319449E-2,-1.1689574E-4,-4.854909E-4,1.7311532E-2,-7.858223E-3,4.3301047E-3,5.891953E-3,-4.323402E-3,-4.7053304E-3,-0E0,-4.37343E-3,-1.9831367E-2,-6.254197E-3,8.930209E-5,-1.271851E-3,7.214345E-3,2.1020072E-3,1.9337408E-2,8.121613E-3,-7.300972E-4,-1.4915668E-3,8.0904085E-3,-2.999045E-4,-1.3011777E-2,9.06777E-3,-1.8142479E-3,8.4213205E-3,-7.757339E-3,-1.5966069E-2,-8.31339E-3,1.4697944E-2,-5.558097E-3,-1.6762527E-2,-5.118897E-4,-1.1219525E-3,3.6847272E-3,-5.665812E-3,-2.1674244E-2],"categories":[],"categories_nodes":[],"categories_segments":[],"categories_sizes":[],"default_left":[0,0,0,0,0,0,0,0,0,0,0,0,0,0,0,0,0,0,0,0,0,0,0,0,0,0,0,0,0,0,0,0,0,0,0,0,0,0,0,0,0,0,0,0,0,0,0,0,0,0,0,0,0,0,0,0,0,0,0,0,0,0,0,0,0,0,0,0,0,0,0,0,0,0,0,0,0,0,0,0,0,0,0,0,0,0,0,0,0,0,0,0,0,0,0,0,0,0,0,0,0,0,0,0,0,0,0,0,0,0,0,0,0,0,0,0,0,0,0],"id":12,"left_children":[1,3,5,7,9,11,13,15,17,19,21,23,25,27,29,31,33,35,37,39,41,43,45,47,49,51,53,55,57,59,61,63,65,67,69,71,73,75,-1,77,79,81,83,85,87,89,91,93,95,97,99,101,103,105,107,109,111,113,115,-1,-1,117,-1,-1,-1,-1,-1,-1,-1,-1,-1,-1,-1,-1,-1,-1,-1,-1,-1,-1,-1,-1,-1,-1,-1,-1,-1,-1,-1,-1,-1,-1,-1,-1,-1,-1,-1,-1,-1,-1,-1,-1,-1,-1,-1,-1,-1,-1,-1,-1,-1,-1,-1,-1,-1,-1,-1,-1,-1],"loss_changes":[3.99802E1,9.608898E0,7.8212605E0,2.3201332E0,4.0606713E0,2.6406627E0,1.7707672E0,2.6167297E-1,1.1250706E0,3.0049014E0,6.8829536E-1,2.1577287E0,1.6821909E0,1.0651245E0,6.17177E-1,4.9641132E-1,2.5051403E-1,5.9672165E-1,1.2701325E0,1.0965023E0,6.580973E-1,5.566253E-1,2.2016859E-1,1.4172558E0,2.7394533E-1,5.079527E-1,1.0288749E0,9.5637894E-1,7.0909214E-1,3.853984E-1,3.182925E-1,4.1955948E-2,4.409395E-1,1.1030905E-1,2.404337E-1,2.5645638E-1,3.111987E-1,4.0983424E-1,0E0,4.6773148E-1,7.4385786E-1,7.8139126E-1,2.8747576E-1,1.8070978E-1,3.9959157E-1,1.8278532E-2,4.241991E-2,1.0380931E0,9.2175215E-1,3.036059E-1,2.1016222E-1,7.69584E-2,5.426254E-1,1.8045059E-1,1.1909325E0,4.555421E-1,9.282561E-1,4.5250893E-1,2.501266E-2,0E0,0E0,2.4403608E-1,0E0,0E0,0E0,0E0,0E0,0E0,0E0,0E0,0E0,0E0,0E0,0E0,0E0,0E0,0E0,0E0,0E0,0E0,0E0,0E0,0E0,0E0,0E0,0E0,0E0,0E0,0E0,0E0,0E0,0E0,0E0,0E0,0E0,0E0,0E0,0E0,0E0,0E0,0E0,0E0,0E0,0E0,0E0,0E0,0E0,0E0,0E0,0E0,0E0,0E0,0E0,0E0,0E0,0E0,0E0,0E0,0E0],"parents":[2147483647,0,0,1,1,2,2,3,3,4,4,5,5,6,6,7,7,8,8,9,9,10,10,11,11,12,12,13,13,14,14,15,15,16,16,17,17,18,18,19,19,20,20,21,21,22,22,23,23,24,24,25,25,26,26,27,27,28,28,29,29,30,30,31,31,32,32,33,33,34,34,35,35,36,36,37,37,39,39,40,40,41,41,42,42,43,43,44,44,45,45,46,46,47,47,48,48,49,49,50,50,51,51,52,52,53,53,54,54,55,55,56,56,57,57,58,58,61,61],"right_children":[2,4,6,8,10,12,14,16,18,20,22,24,26,28,30,32,34,36,38,40,42,44,46,48,50,52,54,56,58,60,62,64,66,68,70,72,74,76,-1,78,80,82,84,86,88,90,92,94,96,98,100,102,104,106,108,110,112,114,116,-1,-1,118,-1,-1,-1,-1,-1,-1,-1,-1,-1,-1,-1,-1,-1,-1,-1,-1,-1,-1,-1,-1,-1,-1,-1,-1,-1,-1,-1,-1,-1,-1,-1,-1,-1,-1,-1,-1,-1,-1,-1,-1,-1,-1,-1,-1,-1,-1,-1,-1,-1,-1,-1,-1,-1,-1,-1,-1,-1],"split_conditions":[5.33E-1,1.89E-1,7.62E-1,9.6E-2,5.66E-1,8.98E-1,1.5966666E1,1.214E-1,1.24E1,6.666667E-1,1.4666667E1,8.062264E1,9.53213E1,1.5E1,6E-1,1.0265575E2,1.3889204E-1,1.2E-2,1E1,7.8E-2,4.99E-1,7.13E-1,6E0,9.1118E1,6.58E-1,1.8165333E1,9.947389E1,8E0,5.1E1,1.46E1,1.04905E2,2.5E-1,3.1066667E-2,6.7E-2,1.2546666E-1,7.554E1,6E0,1.6333334E1,-1.4814134E-2,7.7354546E1,2.023E3,6E-1,8E0,1.4933333E1,8.14E-1,6.54E-1,1.6196667E0,2.2560823E0,3.3E1,1.9911383E1,2.4579746E1,1.3309333E0,2E0,1.5066667E1,8.866667E0,9.5968575E1,3.0333334E2,7.049768E0,1.6E1,-1.5966871E-3,-3.2136142E-2,4E-1,1.9453255E-3,6.791278E-3,2.8707398E-2,-4.088798E-3,1.8348085E-2,9.104767E-3,-2.0070316E-3,-0E0,1.8914746E-2,3.3431693E-3,2.157464E-2,1.1507102E-2,1.2708297E-3,1.8426107E-3,1.9290552E-2,1.4585894E-2,1.3985317E-3,7.358381E-3,3.3592407E-3,-1.2319449E-2,-1.1689574E-4,-4.854909E-4,1.7311532E-2,-7.858223E-3,4.3301047E-3,5.891953E-3,-4.323402E-3,-4.7053304E-3,-0E0,-4.37343E-3,-1.9831367E-2,-6.254197E-3,8.930209E-5,-1.271851E-3,7.214345E-3,2.1020072E-3,1.9337408E-2,8.121613E-3,-7.300972E-4,-1.4915668E-3,8.0904085E-3,-2.999045E-4,-1.3011777E-2,9.06777E-3,-1.8142479E-3,8.4213205E-3,-7.757339E-3,-1.5966069E-2,-8.31339E-3,1.4697944E-2,-5.558097E-3,-1.6762527E-2,-5.118897E-4,-1.1219525E-3,3.6847272E-3,-5.665812E-3,-2.1674244E-2],"split_indices":[16,16,15,15,15,16,35,20,12,33,8,44,26,25,14,26,9,16,25,15,16,15,27,23,16,43,26,1,39,12,23,14,20,15,20,23,13,12,0,44,3,36,1,30,15,15,7,28,39,43,43,7,27,29,29,26,22,9,25,0,0,33,0,0,0,0,0,0,0,0,0,0,0,0,0,0,0,0,0,0,0,0,0,0,0,0,0,0,0,0,0,0,0,0,0,0,0,0,0,0,0,0,0,0,0,0,0,0,0,0,0,0,0,0,0,0,0,0,0],"split_type":[0,0,0,0,0,0,0,0,0,0,0,0,0,0,0,0,0,0,0,0,0,0,0,0,0,0,0,0,0,0,0,0,0,0,0,0,0,0,0,0,0,0,0,0,0,0,0,0,0,0,0,0,0,0,0,0,0,0,0,0,0,0,0,0,0,0,0,0,0,0,0,0,0,0,0,0,0,0,0,0,0,0,0,0,0,0,0,0,0,0,0,0,0,0,0,0,0,0,0,0,0,0,0,0,0,0,0,0,0,0,0,0,0,0,0,0,0,0,0],"sum_hessian":[1.3444232E3,6.524653E2,6.9195795E2,1.8494046E2,4.6752484E2,4.8408597E2,2.07872E2,6.9816574E1,1.15123886E2,4.0739697E2,6.0127846E1,3.2429547E2,1.5979051E2,1.8430226E2,2.3569736E1,2.4529728E1,4.528685E1,1.00754E2,1.4369881E1,3.691672E2,3.8229774E1,4.8888565E1,1.1239284E1,2.9885464E2,2.5440823E1,9.096269E1,6.882782E1,1.0537832E2,7.892394E1,1.2782708E1,1.0787029E1,2.0973186E1,3.5565407E0,3.2069085E0,4.207994E1,1.7812363E1,8.2941635E1,9.731074E0,4.6388073E0,4.0802456E1,3.2836475E2,3.43716E1,3.8581746E0,2.6419275E1,2.246929E1,3.3887033E0,7.85058E0,2.0620638E2,9.264826E1,9.401227E0,1.6039595E1,2.6900191E0,8.8272675E1,1.2012252E1,5.681557E1,6.506944E1,4.0308876E1,7.5451355E1,3.4725876E0,1.105872E0,1.1676836E1,9.616578E0,1.1704509E0,1.3686203E0,1.9604567E1,1.9073759E0,1.6491648E0,1.6754496E0,1.5314589E0,1.0486724E0,4.103127E1,2.3571773E0,1.5455185E1,7.664981E1,6.2918305E0,6.9011774E0,2.8298967E0,3.4876945E1,5.925511E0,1.9673828E2,1.3162648E2,1.8255896E1,1.6115705E1,2.0953827E0,1.7627919E0,2.53711E1,1.0481745E0,1.257498E1,9.89431E0,2.0027924E0,1.3859107E0,1.7622082E0,6.0883718E0,1.5131868E2,5.4887707E1,6.402204E1,2.8626217E1,3.185751E0,6.2154765E0,1.0733534E1,5.3060613E0,1.238109E0,1.4519101E0,6.488416E0,8.1784256E1,9.990086E0,2.0221655E0,7.4370155E0,4.9378555E1,2.7311544E1,3.7757896E1,2.9497643E0,3.735911E1,7.200676E1,3.4445932E0,1.3668715E0,2.105716E0,4.36792E0,5.2486577E0],"tree_param":{"num_deleted":"0","num_feature":"49","num_nodes":"119","size_leaf_vector":"1"}},{"base_weights":[2.5891876E-3,2.0375773E-1,-1.4822465E-1,3.68345E-1,8.2531795E-2,-1.5981572E-2,-2.3844005E-1,6.1582446E-1,3.3131677E-1,1.2718609E-1,-5.8712944E-2,3.3295933E-2,-1.3643323E-1,-2.1667883E-1,-4.9525687E-1,2.609846E-1,6.4510286E-1,3.500723E-1,8.546314E-2,1.9002557E-1,4.428433E-2,2.1953933E-2,-1.6463196E-1,-4.5703826E-3,2.0198548E-1,-2.2526303E-1,2.9590145E-2,-1.9583485E-1,-4.240001E-1,-7.2028495E-2,-5.4663587E-1,-2.1505992E-4,1.5699582E-2,6.6536266E-1,7.4651265E-3,5.322543E-1,3.2511923E-1,3.6925146E-1,-9.1341645E-2,2.2059238E-1,3.9488688E-2,1.660614E-1,-1.4921666E-2,8.632661E-2,-1.5353607E-1,1.16525896E-1,-2.936347E-1,1.0882116E-1,-6.374447E-2,2.5460434E-1,-8.8481694E-2,-1.4679177E-1,-3.9323553E-1,9.710147E-2,-1.1984913E-2,-2.2745521E-1,-5.5704214E-2,-1.06458955E-1,-5.2668554E-1,-0E0,-6.1291233E-3,-0E0,-5.650895E-1,7.3624593E-3,2.7454708E-2,2.3159428E-4,2.2317318E-2,1.52131915E-2,9.9329455E-3,-0E0,1.843021E-2,-9.163782E-3,9.480426E-4,1.1219502E-2,5.4660127E-3,-9.262608E-3,4.2715445E-3,9.932276E-5,9.7493995E-3,-7.6791546E-3,1.9107948E-3,6.0423897E-3,-8.092105E-3,-1.0536369E-2,-0E0,-0E0,7.0371833E-3,-1.3624162E-2,-0E0,6.423172E-3,-1.0391118E-2,2.055559E-3,-4.9910345E-3,1.1346806E-2,-7.373112E-3,6.0954886E-3,-1.2802428E-2,-8.984344E-3,3.3122008E-3,-5.079462E-3,-2.0833928E-2,9.09283E-3,-5.662678E-4,-7.21367E-3,-1.3675405E-2,8.217666E-3,-5.898797E-3,3.513609E-3,-1.1654415E-2,-4.0458722E-4,-2.2167785E-2,-3.3531596E-3,-2.3179892E-2],"categories":[],"categories_nodes":[],"categories_segments":[],"categories_sizes":[],"default_left":[0,0,0,0,0,0,0,0,0,0,0,0,0,0,0,0,0,0,0,0,0,0,0,0,0,0,0,0,0,0,0,0,0,0,0,0,0,0,0,0,0,0,0,0,0,0,0,0,0,0,0,0,0,0,0,0,0,0,0,0,0,0,0,0,0,0,0,0,0,0,0,0,0,0,0,0,0,0,0,0,0,0,0,0,0,0,0,0,0,0,0,0,0,0,0,0,0,0,0,0,0,0,0,0,0,0,0,0,0,0,0,0,0],"id":13,"left_children":[1,3,5,7,9,11,13,15,17,19,21,23,25,27,29,31,33,35,37,39,41,43,45,47,49,51,53,55,57,59,61,-1,-1,63,-1,65,67,69,71,73,75,77,79,81,83,85,87,89,91,93,95,97,99,101,-1,103,105,107,109,-1,-1,-1,111,-1,-1,-1,-1,-1,-1,-1,-1,-1,-1,-1,-1,-1,-1,-1,-1,-1,-1,-1,-1,-1,-1,-1,-1,-1,-1,-1,-1,-1,-1,-1,-1,-1,-1,-1,-1,-1,-1,-1,-1,-1,-1,-1,-1,-1,-1,-1,-1,-1,-1],"loss_changes":[4.0947414E1,1.1466688E1,9.168987E0,1.9438362E0,2.1257436E0,1.8797426E0,2.3800087E0,5.6178093E-2,9.197159E-1,1.2976508E0,7.061939E-1,1.4462929E0,1.3830895E0,1.688036E0,6.516762E-1,1.8975767E-1,4.218483E-2,6.477909E-1,9.1287863E-1,6.287093E-1,8.253039E-1,5.2705914E-1,1.338861E0,1.228746E0,6.7222154E-1,6.8498874E-1,7.3250115E-1,1.677021E0,1.1018829E0,3.924232E-2,2.6315594E-1,0E0,0E0,4.278183E-2,0E0,2.3742867E-1,5.993061E-1,2.6348418E-1,2.0090993E-1,5.1862764E-1,4.8845193E-1,4.484831E-1,8.6435443E-1,6.750459E-1,2.0491832E-1,9.4779775E-2,3.4794283E-1,1.2234279E0,8.661164E-1,5.1663065E-1,4.450325E-1,8.0459845E-1,4.8897743E-1,4.305781E-1,0E0,1.5867023E0,1.7808197E0,4.28327E-1,3.3316565E-1,0E0,0E0,0E0,8.87928E-2,0E0,0E0,0E0,0E0,0E0,0E0,0E0,0E0,0E0,0E0,0E0,0E0,0E0,0E0,0E0,0E0,0E0,0E0,0E0,0E0,0E0,0E0,0E0,0E0,0E0,0E0,0E0,0E0,0E0,0E0,0E0,0E0,0E0,0E0,0E0,0E0,0E0,0E0,0E0,0E0,0E0,0E0,0E0,0E0,0E0,0E0,0E0,0E0,0E0,0E0],"parents":[2147483647,0,0,1,1,2,2,3,3,4,4,5,5,6,6,7,7,8,8,9,9,10,10,11,11,12,12,13,13,14,14,15,15,16,16,17,17,18,18,19,19,20,20,21,21,22,22,23,23,24,24,25,25,26,26,27,27,28,28,29,29,30,30,33,33,35,35,36,36,37,37,38,38,39,39,40,40,41,41,42,42,43,43,44,44,45,45,46,46,47,47,48,48,49,49,50,50,51,51,52,52,53,53,55,55,56,56,57,57,58,58,62,62],"right_children":[2,4,6,8,10,12,14,16,18,20,22,24,26,28,30,32,34,36,38,40,42,44,46,48,50,52,54,56,58,60,62,-1,-1,64,-1,66,68,70,72,74,76,78,80,82,84,86,88,90,92,94,96,98,100,102,-1,104,106,108,110,-1,-1,-1,112,-1,-1,-1,-1,-1,-1,-1,-1,-1,-1,-1,-1,-1,-1,-1,-1,-1,-1,-1,-1,-1,-1,-1,-1,-1,-1,-1,-1,-1,-1,-1,-1,-1,-1,-1,-1,-1,-1,-1,-1,-1,-1,-1,-1,-1,-1,-1,-1,-1,-1],"split_conditions":[3.63E-1,2.8E-1,6.36E-1,7E-3,6.9E-1,6.44E-1,1.6366667E1,3.0506668E2,1.28E1,7.8E1,2E-1,9.1449E1,9.96191E1,1.565E0,4.94E-1,3.14E2,2.05E-1,2.9E-2,1.5E-1,8E0,3.0393332E-1,1.44E1,1.88E-1,3.5E-1,1.6E1,8.036276E-1,1.8E1,7.63E1,8.166667E0,9.14E-1,6.73E-1,-2.1505992E-4,1.5699582E-2,1.25E0,7.4651265E-3,3.0453333E2,1E2,6.714E-1,5.4433334E-1,4E0,9E0,9.3E1,3.358E-1,1.315E0,3.09E2,2E-1,9.389333E-1,3.35E2,2.021E3,3.42E2,3.1E1,5.1679585E-2,2.5575447E-3,8.61E-1,-1.1984913E-2,1.04E0,3.8606668E-1,3.254E0,9.23E-1,-0E0,-6.1291233E-3,-0E0,3.312E-1,7.3624593E-3,2.7454708E-2,2.3159428E-4,2.2317318E-2,1.52131915E-2,9.9329455E-3,-0E0,1.843021E-2,-9.163782E-3,9.480426E-4,1.1219502E-2,5.4660127E-3,-9.262608E-3,4.2715445E-3,9.932276E-5,9.7493995E-3,-7.6791546E-3,1.9107948E-3,6.0423897E-3,-8.092105E-3,-1.0536369E-2,-0E0,-0E0,7.0371833E-3,-1.3624162E-2,-0E0,6.423172E-3,-1.0391118E-2,2.055559E-3,-4.9910345E-3,1.1346806E-2,-7.373112E-3,6.0954886E-3,-1.2802428E-2,-8.984344E-3,3.3122008E-3,-5.079462E-3,-2.0833928E-2,9.09283E-3,-5.662678E-4,-7.21367E-3,-1.3675405E-2,8.217666E-3,-5.898797E-3,3.513609E-3,-1.1654415E-2,-4.0458722E-4,-2.2167785E-2,-3.3531596E-3,-2.3179892E-2],"split_indices":[17,16,16,17,16,17,35,22,8,6,41,23,26,17,17,21,16,24,41,38,18,8,17,16,25,9,25,44,12,16,16,0,0,12,0,22,6,19,18,5,25,6,20,16,21,33,20,21,3,21,6,40,40,17,0,16,20,16,24,0,0,0,18,0,0,0,0,0,0,0,0,0,0,0,0,0,0,0,0,0,0,0,0,0,0,0,0,0,0,0,0,0,0,0,0,0,0,0,0,0,0,0,0,0,0,0,0,0,0,0,0,0,0],"split_type":[0,0,0,0,0,0,0,0,0,0,0,0,0,0,0,0,0,0,0,0,0,0,0,0,0,0,0,0,0,0,0,0,0,0,0,0,0,0,0,0,0,0,0,0,0,0,0,0,0,0,0,0,0,0,0,0,0,0,0,0,0,0,0,0,0,0,0,0,0,0,0,0,0,0,0,0,0,0,0,0,0,0,0,0,0,0,0,0,0,0,0,0,0,0,0,0,0,0,0,0,0,0,0,0,0,0,0,0,0,0,0,0,0],"sum_hessian":[1.3474841E3,5.7749E2,7.6999414E2,2.4372438E2,3.3376562E2,3.131889E2,4.5680524E2,2.9334482E1,2.1438991E2,2.5420625E2,7.955937E1,2.2218501E2,9.100387E1,4.231804E2,3.3624832E1,3.2519398E0,2.6082542E1,1.9842213E2,1.596776E1,1.4317857E2,1.1102769E2,4.5077442E1,3.4481926E1,1.8176395E2,4.0421066E1,5.944415E1,3.1559721E1,3.8672607E2,3.645432E1,4.1108017E0,2.9514032E1,1.1405215E0,2.1114185E0,2.4337704E1,1.7448385E0,2.0971544E1,1.7745059E2,5.928725E0,1.0039036E1,1.18073784E2,2.5104786E1,3.6283226E1,7.474446E1,3.3768505E1,1.1308938E1,1.0631786E1,2.385014E1,6.1461075E1,1.2030288E2,3.461772E1,5.8033485E0,4.2199272E1,1.7244879E1,2.7026278E1,4.533443E0,3.1443686E2,7.2289215E1,9.643537E0,2.681078E1,2.310081E0,1.8007207E0,1.1363045E0,2.8377728E1,1.6250668E0,2.2712637E1,1.2134354E0,1.975811E1,1.00176315E2,7.7274284E1,1.2376341E0,4.6910906E0,4.5129976E0,5.526038E0,6.684507E1,5.1228718E1,4.21241E0,2.0892376E1,1.2428523E1,2.3854702E1,1.9422657E1,5.5321804E1,2.82547E1,5.5138063E0,6.1353326E0,5.173605E0,3.4666965E0,7.16509E0,