{"learner":{"attributes":{"best_iteration":"242","best_score":"0.2343701313422081","scikit_learn":"{\"_estimator_type\": \"classifier\"}"},"feature_names":["Driver_enc","TeamName_enc","CircuitShortName_enc","Year","RoundNumber","YearsSinceLastRegChange","CareerRaceCount","QualiPos","GapToPole_s","BestQualiTime_s","QualiphaseReached","GridPenaltyPlaces","GridDifficultyScore","RollingQualiGap","RollingQualiPos","ConRollingQualiGap","CircuitAvgQualiGap","CircuitAvgQualiPos","CircuitVisits","H2H_QualiWinRate","RollingS1Gap","RollingS2Gap","RollingS3Gap","RollingSpeedTrap","FP2_LongRunPace_s","FP2_LongRunRank","FP2_LongRunDelta_s","StartCompound_enc","StartTyreLife","FreshStartTyre","RollingAvgStints","RollingAvgDegRate","CircuitAvgStints","CircuitDegRate","RollingAvgFinish","RollingAvgGrid","RollingPoints","RollingPodiumRate","RollingDNFRate","DNFStreak","ConRollingAvgFinish","ConRollingPoints","ConChampDelta","ConChampPos","CircuitSCRate","CumPointsBefore","ChampionshipPos_norm","AirTemp_mean","TrackTemp_mean","Humidity_mean","Rainfall_any","IsStreetCircuit","IsHighDownforce","IsLowDownforce","IsChaosCircuit"],"feature_types":["int","int","int","int","int","int","int","float","float","float","int","int","float","float","float","float","float","float","float","float","float","float","float","float","float","float","float","int","int","int","float","float","float","float","float","float","float","float","float","float","float","float","float","int","float","float","float","float","float","float","i","int","int","int","int"],"gradient_booster":{"model":{"cats":{"enc":[],"feature_segments":[],"sorted_idx":[]},"gbtree_model_param":{"num_parallel_tree":"1","num_trees":"283"},"iteration_indptr":[0,1,2,3,4,5,6,7,8,9,10,11,12,13,14,15,16,17,18,19,20,21,22,23,24,25,26,27,28,29,30,31,32,33,34,35,36,37,38,39,40,41,42,43,44,45,46,47,48,49,50,51,52,53,54,55,56,57,58,59,60,61,62,63,64,65,66,67,68,69,70,71,72,73,74,75,76,77,78,79,80,81,82,83,84,85,86,87,88,89,90,91,92,93,94,95,96,97,98,99,100,101,102,103,104,105,106,107,108,109,110,111,112,113,114,115,116,117,118,119,120,121,122,123,124,125,126,127,128,129,130,131,132,133,134,135,136,137,138,139,140,141,142,143,144,145,146,147,148,149,150,151,152,153,154,155,156,157,158,159,160,161,162,163,164,165,166,167,168,169,170,171,172,173,174,175,176,177,178,179,180,181,182,183,184,185,186,187,188,189,190,191,192,193,194,195,196,197,198,199,200,201,202,203,204,205,206,207,208,209,210,211,212,213,214,215,216,217,218,219,220,221,222,223,224,225,226,227,228,229,230,231,232,233,234,235,236,237,238,239,240,241,242,243,244,245,246,247,248,249,250,251,252,253,254,255,256,257,258,259,260,261,262,263,264,265,266,267,268,269,270,271,272,273,274,275,276,277,278,279,280,281,282,283],"tree_info":[0,0,0,0,0,0,0,0,0,0,0,0,0,0,0,0,0,0,0,0,0,0,0,0,0,0,0,0,0,0,0,0,0,0,0,0,0,0,0,0,0,0,0,0,0,0,0,0,0,0,0,0,0,0,0,0,0,0,0,0,0,0,0,0,0,0,0,0,0,0,0,0,0,0,0,0,0,0,0,0,0,0,0,0,0,0,0,0,0,0,0,0,0,0,0,0,0,0,0,0,0,0,0,0,0,0,0,0,0,0,0,0,0,0,0,0,0,0,0,0,0,0,0,0,0,0,0,0,0,0,0,0,0,0,0,0,0,0,0,0,0,0,0,0,0,0,0,0,0,0,0,0,0,0,0,0,0,0,0,0,0,0,0,0,0,0,0,0,0,0,0,0,0,0,0,0,0,0,0,0,0,0,0,0,0,0,0,0,0,0,0,0,0,0,0,0,0,0,0,0,0,0,0,0,0,0,0,0,0,0,0,0,0,0,0,0,0,0,0,0,0,0,0,0,0,0,0,0,0,0,0,0,0,0,0,0,0,0,0,0,0,0,0,0,0,0,0,0,0,0,0,0,0,0,0,0,0,0,0,0,0,0,0,0,0,0,0,0,0,0,0,0,0,0,0,0,0,0,0,0,0,0,0],"trees":[{"base_weights":[-2.06153E-2,1.4752023E0,-1.6077327E0,1.6836541E0,9.767969E-1,-3.2430908E-1,-1.8372028E0,-4.5605686E-2,1.7021378E0,1.1390501E0,-6.4931905E-1,9.863439E-1,-8.056179E-1,6.7322963E-1,-1.8606794E0,1.7217664E0,2.2499694E-1,1.2135383E0,-2.0366599E-1,4.9168248E-2,-1.3859363E0,-4.5399427E-2,1.2682295E0,-5.5910494E-2,-1.5160918E0,3.827362E-2,7.231351E-3,-3.2692334E-1,-1.8891929E0,6.942577E-2,2.0620652E-2,5.4529496E-2,-4.874648E-2,5.1043775E-2,-1.702217E-2,5.5984285E-2,-6.0163543E-2,-6.929655E-2,1.86731E-2,5.898083E-2,-0E0,-5.2961867E-2,2.9030416E-2,-7.567203E-2,1.8143257E-2,-5.9722364E-2,3.64173E-2,-7.608798E-2,-5.2636573E-3],"categories":[],"categories_nodes":[],"categories_segments":[],"categories_sizes":[],"default_left":[0,0,0,0,0,0,0,0,0,0,0,0,0,0,0,0,0,0,0,0,0,0,0,0,0,0,0,0,0,0,0,0,0,0,0,0,0,0,0,0,0,0,0,0,0,0,0,0,0],"id":0,"left_children":[1,3,5,7,9,11,13,-1,15,17,19,21,23,25,27,29,31,33,35,-1,37,-1,39,41,43,-1,-1,45,47,-1,-1,-1,-1,-1,-1,-1,-1,-1,-1,-1,-1,-1,-1,-1,-1,-1,-1,-1,-1],"loss_changes":[1.8990875E3,4.0871338E1,1.1350055E2,1.7072021E1,3.3494255E1,3.8723038E1,2.0760986E1,0E0,7.7504883E0,1.1663162E1,1.8085522E1,1.1349524E1,2.351563E1,2.3601043E-1,1.3428711E1,3.6243286E0,9.868748E0,1.164035E1,1.6151182E1,0E0,6.715473E0,0E0,4.068472E0,2.3630512E1,1.78699E1,0E0,0E0,1.1846788E1,6.8623047E0,0E0,0E0,0E0,0E0,0E0,0E0,0E0,0E0,0E0,0E0,0E0,0E0,0E0,0E0,0E0,0E0,0E0,0E0,0E0,0E0],"parents":[2147483647,0,0,1,1,2,2,3,3,4,4,5,5,6,6,8,8,9,9,10,10,11,11,12,12,13,13,14,14,15,15,16,16,17,17,18,18,20,20,22,22,23,23,24,24,27,27,28,28],"right_children":[2,4,6,8,10,12,14,-1,16,18,20,22,24,26,28,30,32,34,36,-1,38,-1,40,42,44,-1,-1,46,48,-1,-1,-1,-1,-1,-1,-1,-1,-1,-1,-1,-1,-1,-1,-1,-1,-1,-1,-1,-1],"split_conditions":[6E0,4E0,7E0,2.2666667E0,9.2E0,3.4E0,5.4194E1,-4.5605686E-2,1E1,2E0,-1.012979E0,8E0,8E0,2E0,5.266667E0,4.2E0,2.0036666E-1,4E-1,1.35E-1,4.9168248E-2,1.9E1,-4.5399427E-2,2.6933332E1,1.8666667E0,1.3166667E1,3.827362E-2,7.231351E-3,5.172667E-1,1.0651334E1,6.942577E-2,2.0620652E-2,5.4529496E-2,-4.874648E-2,5.1043775E-2,-1.702217E-2,5.5984285E-2,-6.0163543E-2,-6.929655E-2,1.86731E-2,5.898083E-2,-0E0,-5.2961867E-2,2.9030416E-2,-7.567203E-2,1.8143257E-2,-5.9722364E-2,3.64173E-2,-7.608798E-2,-5.2636573E-3],"split_indices":[7,7,35,36,14,17,9,0,11,11,31,4,12,1,40,12,15,38,13,0,25,0,41,30,17,0,0,22,26,0,0,0,0,0,0,0,0,0,0,0,0,0,0,0,0,0,0,0,0],"split_type":[0,0,0,0,0,0,0,0,0,0,0,0,0,0,0,0,0,0,0,0,0,0,0,0,0,0,0,0,0,0,0,0,0,0,0,0,0,0,0,0,0,0,0,0,0,0,0,0,0],"sum_hessian":[7.979352E2,4.107867E2,3.8714847E2,2.8782767E2,1.2295903E2,5.9153397E1,3.279951E2,1.4419668E0,2.863857E2,1.121316E2,1.0827424E1,1.5550563E1,4.3602833E1,2.7429676E0,3.252521E2,2.823998E2,3.985887E0,1.0639968E2,5.7319202E0,2.8232028E0,8.004222E0,1.4274127E0,1.4123151E1,2.1808977E1,2.1793856E1,1.0132873E0,1.7296803E0,6.2278156E0,3.190243E2,2.786719E2,3.7279093E0,2.2985725E0,1.6873144E0,1.027603E2,3.6393821E0,2.4984484E0,3.2334716E0,6.8433976E0,1.160824E0,1.2058821E1,2.0643296E0,8.100795E0,1.3708181E1,1.8378517E1,3.4153388E0,3.1413965E0,3.0864189E0,3.1654263E2,2.4816568E0],"tree_param":{"num_deleted":"0","num_feature":"55","num_nodes":"49","size_leaf_vector":"1"}},{"base_weights":[1.5933583E-2,1.4176855E0,-1.5018556E0,1.5972103E0,9.69065E-1,3.5741135E-2,-1.7190915E0,1.6139888E0,-4.419157E-2,1.1079613E0,-4.1884768E-1,4.056573E-1,-1.2832702E0,3.6525592E-1,-1.7510195E0,1.6629645E0,1.1103157E0,1.1783701E0,-6.0372543E-1,-1.2227832E0,8.0216104E-1,-5.986775E-2,6.44686E-1,-6.964816E-2,4.5251474E-2,1.0462922E0,-4.270584E-2,-1.8103724E0,-1.2495503E0,6.719933E-2,1.7674131E-2,-4.424724E-2,5.028461E-2,2.580964E-3,5.062212E-2,4.0562768E-2,-5.6194767E-2,-6.5003075E-2,2.5744108E-2,-3.0422108E-3,5.477492E-2,-5.5880997E-2,3.4384843E-2,7.667302E-3,5.374905E-2,-7.341245E-2,-3.2729145E-2,-1.6424192E-2,-7.34835E-2],"categories":[],"categories_nodes":[],"categories_segments":[],"categories_sizes":[],"default_left":[0,0,0,0,0,0,0,0,0,0,0,0,0,0,0,0,0,0,0,0,0,0,0,0,0,0,0,0,0,0,0,0,0,0,0,0,0,0,0,0,0,0,0,0,0,0,0,0,0],"id":1,"left_children":[1,3,5,7,9,11,13,15,-1,17,19,21,23,25,27,29,31,33,35,37,39,-1,41,-1,-1,43,-1,45,47,-1,-1,-1,-1,-1,-1,-1,-1,-1,-1,-1,-1,-1,-1,-1,-1,-1,-1,-1,-1],"loss_changes":[1.7090536E3,3.1831604E1,1.2904675E2,1.527948E1,2.406395E1,2.4177118E1,2.3271118E1,5.157837E0,0E0,1.4182465E1,1.2571138E1,1.8533806E1,1.4016195E1,6.852376E0,7.3464355E0,4.5909424E0,1.0955498E1,1.0204742E1,7.9473095E0,6.804858E0,2.8363264E0,0E0,1.6610115E1,0E0,0E0,7.423043E-1,0E0,5.543274E0,1.807698E1,0E0,0E0,0E0,0E0,0E0,0E0,0E0,0E0,0E0,0E0,0E0,0E0,0E0,0E0,0E0,0E0,0E0,0E0,0E0,0E0],"parents":[2147483647,0,0,1,1,2,2,3,3,4,4,5,5,6,6,7,7,9,9,10,10,11,11,12,12,13,13,14,14,15,15,16,16,17,17,18,18,19,19,20,20,22,22,25,25,27,27,28,28],"right_children":[2,4,6,8,10,12,14,16,-1,18,20,22,24,26,28,30,32,34,36,38,40,-1,42,-1,-1,44,-1,46,48,-1,-1,-1,-1,-1,-1,-1,-1,-1,-1,-1,-1,-1,-1,-1,-1,-1,-1,-1,-1],"split_conditions":[6E0,4E0,6.6E0,1.3266666E1,9.6E0,3.2233334E2,2.8813332E-1,2E0,-4.419157E-2,3E0,2.566E1,1.392E-1,1.7E1,2.022E3,3E-1,3.3326666E2,1.52E1,7.54375E-1,1.35E-1,1.9E1,1.3043333E0,-5.986775E-2,1.80304E1,-6.964816E-2,4.5251474E-2,5.548E-1,-4.270584E-2,8.783061E1,1.1266666E1,6.719933E-2,1.7674131E-2,-4.424724E-2,5.028461E-2,2.580964E-3,5.062212E-2,4.0562768E-2,-5.6194767E-2,-6.5003075E-2,2.5744108E-2,-3.0422108E-3,5.477492E-2,-5.5880997E-2,3.4384843E-2,7.667302E-3,5.374905E-2,-7.341245E-2,-3.2729145E-2,-1.6424192E-2,-7.34835E-2],"split_indices":[7,7,40,34,14,23,13,11,0,11,47,21,25,3,44,23,41,26,13,25,16,0,47,0,0,16,0,49,14,0,0,0,0,0,0,0,0,0,0,0,0,0,0,0,0,0,0,0,0],"split_type":[0,0,0,0,0,0,0,0,0,0,0,0,0,0,0,0,0,0,0,0,0,0,0,0,0,0,0,0,0,0,0,0,0,0,0,0,0,0,0,0,0,0,0,0,0,0,0,0,0],"sum_hessian":[8.0129456E2,4.166396E2,3.84655E2,2.9557568E2,1.210639E2,4.7663998E1,3.36991E2,2.9418854E2,1.3871301E0,1.1029938E2,1.0764529E1,3.782442E1,9.839575E0,4.8793797E0,3.321116E2,2.6583893E2,2.8349625E1,1.0629693E2,4.002442E0,6.5393453E0,4.225184E0,3.5880873E0,3.4236336E1,8.540172E0,1.2994025E0,3.5376067E0,1.3417728E0,2.944514E2,3.7660213E1,2.6173343E2,4.1055007E0,1.3127143E0,2.7036911E1,7.9256835E0,9.837125E1,1.1962297E0,2.806212E0,5.5301995E0,1.0091456E0,1.9286547E0,2.2965295E0,2.6927118E0,3.1543623E1,1.4247041E0,2.1129026E0,2.863041E2,8.147284E0,1.6281246E1,2.1378965E1],"tree_param":{"num_deleted":"0","num_feature":"55","num_nodes":"49","size_leaf_vector":"1"}},{"base_weights":[1.8728832E-2,1.3753165E0,-1.4403931E0,1.5627465E0,8.8030744E-1,-1.5673295E0,7.256121E-1,1.5797626E0,-4.4153903E-2,-4.151525E-2,1.1087608E0,-1.6636353E0,-5.6047744E-1,1.0736969E0,-5.3955644E-2,1.5928066E0,3.6992037E-1,-6.45993E-2,4.2088863E-1,1.179602E0,-4.3866462E-1,-1.0366393E0,-1.7672776E0,5.8256425E-2,-6.990079E-2,1.5874532E0,5.4198887E-2,5.7809395E-3,6.403919E-2,5.1709756E-2,-4.321328E-2,-5.5990376E-2,3.1715974E-2,5.061933E-2,1.2488166E-2,4.1367076E-2,-5.2666567E-2,-2.2539074E-2,-7.0641935E-2,1.4714794E-2,-7.122486E-2,4.0691935E-2,-5.0382912E-2,6.695774E-2,2.1061718E-2,3.315601E-2,-5.0230134E-2],"categories":[],"categories_nodes":[],"categories_segments":[],"categories_sizes":[],"default_left":[0,0,0,0,0,0,0,0,0,0,0,0,0,0,0,0,0,0,0,0,0,0,0,0,0,0,0,0,0,0,0,0,0,0,0,0,0,0,0,0,0,0,0,0,0,0,0],"id":2,"left_children":[1,3,5,7,9,11,13,15,-1,17,19,21,23,25,-1,27,29,-1,31,33,35,37,39,41,-1,43,45,-1,-1,-1,-1,-1,-1,-1,-1,-1,-1,-1,-1,-1,-1,-1,-1,-1,-1,-1,-1],"loss_changes":[1.5895372E3,3.699176E1,1.07588196E2,1.5423401E1,2.4736443E1,3.43161E1,1.7347979E1,3.9326172E0,0E0,1.8305716E1,1.0860207E1,1.95448E1,2.4900103E1,9.955828E0,0E0,3.0908813E0,7.5383945E0,0E0,1.4148562E1,6.1445465E0,7.555411E0,1.5970165E1,8.900574E0,3.02703E1,0E0,7.8186035E-2,8.741013E0,0E0,0E0,0E0,0E0,0E0,0E0,0E0,0E0,0E0,0E0,0E0,0E0,0E0,0E0,0E0,0E0,0E0,0E0,0E0,0E0],"parents":[2147483647,0,0,1,1,2,2,3,3,4,4,5,5,6,6,7,7,9,9,10,10,11,11,12,12,13,13,15,15,16,16,18,18,19,19,20,20,21,21,22,22,23,23,25,25,26,26],"right_children":[2,4,6,8,10,12,14,16,-1,18,20,22,24,26,-1,28,30,-1,32,34,36,38,40,42,-1,44,46,-1,-1,-1,-1,-1,-1,-1,-1,-1,-1,-1,-1,-1,-1,-1,-1,-1,-1,-1,-1],"split_conditions":[6E0,4E0,4.1468254E-1,1.2933333E1,6.666667E-2,1.8333334E1,4.5666668E-1,1E1,-4.4153903E-2,-1.083522E-1,3E0,7.8E0,2E0,5.1666665E0,-5.3955644E-2,7.10796E1,7.4666664E-2,-6.45993E-2,9E0,7.266667E0,1.2E0,4.68E-1,5.4194E1,3.1613333E2,-6.990079E-2,2.499035E0,2E0,5.7809395E-3,6.403919E-2,5.1709756E-2,-4.321328E-2,-5.5990376E-2,3.1715974E-2,5.061933E-2,1.2488166E-2,4.1367076E-2,-5.2666567E-2,-2.2539074E-2,-7.0641935E-2,1.4714794E-2,-7.122486E-2,4.0691935E-2,-5.0382912E-2,6.695774E-2,2.1061718E-2,3.315601E-2,-5.0230134E-2],"split_indices":[7,7,46,34,37,41,21,11,0,31,11,12,5,17,0,24,22,0,25,14,14,22,9,23,0,26,5,0,0,0,0,0,0,0,0,0,0,0,0,0,0,0,0,0,0,0,0],"split_type":[0,0,0,0,0,0,0,0,0,0,0,0,0,0,0,0,0,0,0,0,0,0,0,0,0,0,0,0,0,0,0,0,0,0,0,0,0,0,0,0,0,0,0,0,0,0,0],"sum_hessian":[8.010315E2,4.1516583E2,3.8586566E2,2.9943054E2,1.1573528E2,3.64809E2,2.105668E1,2.9797418E2,1.4563588E0,2.3061464E1,9.267382E1,3.3227515E2,3.2533836E1,1.8485584E1,2.5710948E0,2.944009E2,3.573291E0,4.7208943E0,1.834057E1,8.890602E1,3.7677982E0,4.8831337E1,2.8344382E2,2.1956116E1,1.0577723E1,1.1855869E1,6.629716E0,1.8256215E0,2.925753E2,2.2922497E0,1.2810415E0,2.5973673E0,1.5743203E1,8.037395E1,8.532073E0,1.2982365E0,2.4695616E0,3.0776466E1,1.8054869E1,1.5488935E0,2.8189493E2,1.2883883E1,9.072231E0,1.0340747E1,1.5151228E0,4.444701E0,2.1850147E0],"tree_param":{"num_deleted":"0","num_feature":"55","num_nodes":"47","size_leaf_vector":"1"}},{"base_weights":[1.3320554E-3,1.2082671E0,-1.4860818E0,1.4156214E0,3.4206092E-1,-1.6298395E0,-4.4701946E-1,1.440461E0,-4.845818E-1,7.2008824E-1,-8.0965424E-1,7.1718884E-1,-1.6529847E0,-8.741023E-2,-6.695153E-2,-4.1615028E-2,1.4514581E0,-5.6579765E-2,4.713323E-2,8.967142E-1,-6.047097E-1,8.773444E-1,-1.340137E0,4.009807E-2,8.295684E-3,-1.6691691E0,4.329983E-2,7.0824945E-1,-6.984494E-1,6.2703036E-2,4.891928E-2,4.1430224E-2,-3.0312939E-2,4.3887317E-2,-6.2113933E-2,-3.739497E-2,5.902233E-2,3.5226084E-2,-7.223868E-2,-2.3176664E-2,-6.815817E-2,-6.194745E-3,6.0536545E-2,4.2344938E-4,-6.6717066E-2],"categories":[],"categories_nodes":[],"categories_segments":[],"categories_sizes":[],"default_left":[0,0,0,0,0,0,0,0,0,0,0,0,0,0,0,0,0,0,0,0,0,0,0,0,0,0,0,0,0,0,0,0,0,0,0,0,0,0,0,0,0,0,0,0,0],"id":3,"left_children":[1,3,5,7,9,11,13,15,17,19,21,23,25,27,-1,-1,29,-1,-1,31,33,35,37,-1,-1,39,-1,41,43,-1,-1,-1,-1,-1,-1,-1,-1,-1,-1,-1,-1,-1,-1,-1,-1],"loss_changes":[1.4432417E3,7.906232E1,5.2852417E1,1.7677917E1,3.8513767E1,1.8437805E1,1.963014E1,1.119281E1,9.904813E0,1.6062305E1,2.0856342E1,2.1496856E-1,1.57282715E1,1.8041563E1,0E0,0E0,7.1505737E0,0E0,0E0,1.4358799E1,1.5172428E1,7.7297564E0,1.9406008E1,0E0,0E0,1.0600647E1,0E0,1.1561474E1,1.4611651E1,0E0,0E0,0E0,0E0,0E0,0E0,0E0,0E0,0E0,0E0,0E0,0E0,0E0,0E0,0E0,0E0],"parents":[2147483647,0,0,1,1,2,2,3,3,4,4,5,5,6,6,7,7,8,8,9,9,10,10,11,11,12,12,13,13,16,16,19,19,20,20,21,21,22,22,25,25,27,27,28,28],"right_children":[2,4,6,8,10,12,14,16,18,20,22,24,26,28,-1,-1,30,-1,-1,32,34,36,38,-1,-1,40,-1,42,44,-1,-1,-1,-1,-1,-1,-1,-1,-1,-1,-1,-1,-1,-1,-1,-1],"split_conditions":[7E0,5E0,1.62E1,1.14E1,1.562E0,5.4194E1,1.36E1,7.10796E1,1.4733334E1,1.5266666E0,3.9E0,8E0,2.16E2,1E1,-6.695153E-2,-4.1615028E-2,6.1666665E0,-5.6579765E-2,4.713323E-2,1.09E0,-1E0,2.022E3,-1.012979E0,4.009807E-2,8.295684E-3,6.5E0,4.329983E-2,1.12E1,8.0476E1,6.2703036E-2,4.891928E-2,4.1430224E-2,-3.0312939E-2,4.3887317E-2,-6.2113933E-2,-3.739497E-2,5.902233E-2,3.5226084E-2,-7.223868E-2,-2.3176664E-2,-6.815817E-2,-6.194745E-3,6.0536545E-2,4.2344938E-4,-6.6717066E-2],"split_indices":[7,7,41,14,16,9,12,24,14,13,12,7,45,2,0,0,17,0,0,8,11,3,31,0,0,12,0,12,9,0,0,0,0,0,0,0,0,0,0,0,0,0,0,0,0],"split_type":[0,0,0,0,0,0,0,0,0,0,0,0,0,0,0,0,0,0,0,0,0,0,0,0,0,0,0,0,0,0,0,0,0,0,0,0,0,0,0,0,0,0,0,0,0],"sum_hessian":[8.019548E2,4.4285944E2,3.5909534E2,3.567178E2,8.614163E1,3.1486758E2,4.4227764E1,3.524057E2,4.312113E0,6.520199E1,2.0939642E1,2.7397232E0,3.1212784E2,3.5093414E1,9.13435E0,1.1020186E0,3.5130368E2,2.8999586E0,1.4121543E0,5.788341E1,7.318574E0,4.8078227E0,1.613182E1,1.0113039E0,1.7284194E0,3.1071588E2,1.4119723E0,1.5103618E1,1.9989798E1,2.2874863E2,1.22555046E2,5.379694E1,4.0864716E0,2.5244904E0,4.7940836E0,1.0120363E0,3.7957864E0,2.6054552E0,1.3526365E1,1.0246485E1,3.004694E2,7.619327E0,7.4842906E0,1.2057426E1,7.932371E0],"tree_param":{"num_deleted":"0","num_feature":"55","num_nodes":"45","size_leaf_vector":"1"}},{"base_weights":[-9.8044025E-3,1.1650271E0,-1.2164512E0,1.3127384E0,2.6605782E-1,-1.5315742E0,3.111219E-1,1.4328015E0,8.46198E-1,-6.2318657E-2,5.292041E-1,-1.592884E0,-4.5131212E-1,1.1348056E0,-2.8142646E-1,1.5241989E0,1.0836915E0,9.2519045E-1,-5.0676044E-2,1.0845923E0,8.535887E-2,-1.6204689E0,6.01141E-1,-8.634077E-1,4.1820373E-2,1.313018E0,-4.506866E-2,-1.1915112E0,2.9828987E-1,5.314176E-3,6.1410196E-2,4.610001E-2,-4.511451E-2,-4.8858408E-2,3.9617214E-2,5.0703138E-2,-6.664695E-3,1.4926816E-2,-5.738289E-2,-6.691789E-2,-3.845964E-2,5.5878934E-2,-3.6492005E-2,3.7055936E-2,-5.330709E-2,5.5943906E-2,-0E0,6.9186324E-3,-6.8341605E-2,-5.8771394E-2,3.0021412E-2],"categories":[],"categories_nodes":[],"categories_segments":[],"categories_sizes":[],"default_left":[0,0,0,0,0,0,0,0,0,0,0,0,0,0,0,0,0,0,0,0,0,0,0,0,0,0,0,0,0,0,0,0,0,0,0,0,0,0,0,0,0,0,0,0,0,0,0,0,0,0,0],"id":4,"left_children":[1,3,5,7,9,11,13,15,17,-1,19,21,23,25,27,29,31,33,-1,35,37,39,41,43,-1,45,-1,47,49,-1,-1,-1,-1,-1,-1,-1,-1,-1,-1,-1,-1,-1,-1,-1,-1,-1,-1,-1,-1,-1,-1],"loss_changes":[1.1312305E3,5.317688E1,1.901148E2,1.7989868E1,2.8754513E1,2.0707275E1,3.3644447E1,6.838806E0,1.3424965E1,0E0,1.2567994E1,1.9751465E1,1.2618618E1,1.3090797E1,2.1727856E1,2.9315186E0,1.0523064E1,1.1211483E1,0E0,5.55031E0,1.3551031E1,8.67749E0,6.7619905E0,1.4307589E1,0E0,2.9544106E0,0E0,1.1711723E1,2.131551E1,0E0,0E0,0E0,0E0,0E0,0E0,0E0,0E0,0E0,0E0,0E0,0E0,0E0,0E0,0E0,0E0,0E0,0E0,0E0,0E0,0E0,0E0],"parents":[2147483647,0,0,1,1,2,2,3,3,4,4,5,5,6,6,7,7,8,8,10,10,11,11,12,12,13,13,14,14,15,15,16,16,17,17,19,19,20,20,21,21,22,22,23,23,25,25,27,27,28,28],"right_children":[2,4,6,8,10,12,14,16,18,-1,20,22,24,26,28,30,32,34,-1,36,38,40,42,44,-1,46,-1,48,50,-1,-1,-1,-1,-1,-1,-1,-1,-1,-1,-1,-1,-1,-1,-1,-1,-1,-1,-1,-1,-1,-1],"split_conditions":[6.88E-1,4E0,7.733333E0,4.18E-1,3.7333333E0,8.5258705E1,4.6E0,6.6E0,2.86E2,-6.2318657E-2,3.2E-1,9.57925E0,5.25E2,3.2386667E2,1.7E0,7.186889E1,1.01778E2,4.34E-1,-5.0676044E-2,1.98E1,1.8E1,6.2E1,1.14E0,9.27E-1,4.1820373E-2,1.3962E0,-4.506866E-2,6.666667E-2,3E0,5.314176E-3,6.1410196E-2,4.610001E-2,-4.511451E-2,-4.8858408E-2,3.9617214E-2,5.0703138E-2,-6.664695E-3,1.4926816E-2,-5.738289E-2,-6.691789E-2,-3.845964E-2,5.5878934E-2,-3.6492005E-2,3.7055936E-2,-5.330709E-2,5.5943906E-2,-0E0,6.9186324E-3,-6.8341605E-2,-5.8771394E-2,3.0021412E-2],"split_indices":[8,43,36,8,41,49,17,40,42,0,8,26,42,23,30,24,9,8,0,41,4,45,8,8,0,15,0,37,10,0,0,0,0,0,0,0,0,0,0,0,0,0,0,0,0,0,0,0,0,0,0],"split_type":[0,0,0,0,0,0,0,0,0,0,0,0,0,0,0,0,0,0,0,0,0,0,0,0,0,0,0,0,0,0,0,0,0,0,0,0,0,0,0,0,0,0,0,0,0,0,0,0,0,0,0],"sum_hessian":[7.9598285E2,4.0328384E2,3.92699E2,3.4588016E2,5.740369E1,3.2559488E2,6.710413E1,2.7326944E2,7.26107E1,6.569059E0,5.0834633E1,3.075717E2,1.802317E1,2.7763945E1,3.9340187E1,2.1367632E2,5.9593143E1,7.058169E1,2.0290148E0,2.1838701E1,2.899593E1,3.0405588E2,3.5158243E0,1.4516546E1,3.506624E0,2.6165667E1,1.598279E0,1.4964652E1,2.4375534E1,1.8584739E0,2.1181784E2,5.8303223E1,1.2899191E0,1.5138737E0,6.906782E1,1.9110657E1,2.7280443E0,2.5069153E1,3.9267771E0,2.8006238E2,2.399351E1,2.3979232E0,1.1179011E0,2.7688513E0,1.1747695E1,2.4453236E1,1.7124301E0,4.2419333E0,1.0722719E1,4.4628325E0,1.9912703E1],"tree_param":{"num_deleted":"0","num_feature":"55","num_nodes":"51","size_leaf_vector":"1"}},{"base_weights":[-2.922456E-3,1.2334515E0,-1.3447611E0,8.8624716E-1,1.4089078E0,-1.5428727E0,1.2584623E-2,9.6983916E-1,-6.0516274E-1,1.418108E0,4.351228E-3,-2.7320006E-1,-1.5811244E0,5.6007063E-1,-8.526589E-1,1.1599978E0,4.465048E-1,-6.309226E-2,4.381894E-2,2.6809499E-3,1.4260875E0,-5.82879E-2,7.5760984E-1,-1.6066456E0,2.8052464E-1,8.959265E-1,-9.640947E-1,-6.639592E-2,1.5215605E-1,4.8142962E-2,-4.6381906E-2,-5.8066662E-2,2.5373016E-2,5.7509284E-2,2.1152155E-2,5.5252336E-2,-3.787266E-2,3.1259604E-2,-6.483834E-2,-4.2689413E-2,4.860405E-2,4.7862925E-2,-6.168102E-3,2.3721894E-2,-5.7233315E-2,-5.2856702E-2,4.043609E-2],"categories":[],"categories_nodes":[],"categories_segments":[],"categories_sizes":[],"default_left":[0,0,0,0,0,0,0,0,0,0,0,0,0,0,0,0,0,0,0,0,0,0,0,0,0,0,0,0,0,0,0,0,0,0,0,0,0,0,0,0,0,0,0,0,0,0,0],"id":5,"left_children":[1,3,5,7,9,11,13,15,17,19,-1,21,23,25,27,29,31,-1,-1,-1,33,-1,35,37,39,41,43,-1,45,-1,-1,-1,-1,-1,-1,-1,-1,-1,-1,-1,-1,-1,-1,-1,-1,-1,-1],"loss_changes":[1.3183523E3,2.3714478E1,1.02655396E2,1.8290657E1,2.956482E0,1.5538269E1,2.3881727E1,1.27202E1,1.5123789E1,2.6741333E0,0E0,1.4616123E1,1.5911926E1,1.6711313E1,1.621737E1,1.1304459E1,1.4261776E1,0E0,0E0,0E0,1.854065E0,0E0,8.261758E0,1.2236511E1,7.812865E0,8.482044E0,5.307766E0,0E0,1.3384721E1,0E0,0E0,0E0,0E0,0E0,0E0,0E0,0E0,0E0,0E0,0E0,0E0,0E0,0E0,0E0,0E0,0E0,0E0],"parents":[2147483647,0,0,1,1,2,2,3,3,4,4,5,5,6,6,7,7,8,8,9,9,11,11,12,12,13,13,14,14,15,15,16,16,20,20,22,22,23,23,24,24,25,25,26,26,28,28],"right_children":[2,4,6,8,10,12,14,16,18,20,-1,22,24,26,28,30,32,-1,-1,-1,34,-1,36,38,40,42,44,-1,46,-1,-1,-1,-1,-1,-1,-1,-1,-1,-1,-1,-1,-1,-1,-1,-1,-1,-1],"split_conditions":[6E0,1.08E1,8.8E0,5.854E-1,1.2E1,6E0,7.6E0,4E0,1.5E1,7.10796E1,4.351228E-3,1.3125E0,9.57925E0,6.266667E0,3.1746668E-1,6.8453336E-1,8.1279274E1,-6.309226E-2,4.381894E-2,2.6809499E-3,7.9676E0,-5.82879E-2,1.053E0,2.9E-1,1.7E1,3.2233334E2,2E0,-6.639592E-2,2.6587301E-1,4.8142962E-2,-4.6381906E-2,-5.8066662E-2,2.5373016E-2,5.7509284E-2,2.1152155E-2,5.5252336E-2,-3.787266E-2,3.1259604E-2,-6.483834E-2,-4.2689413E-2,4.860405E-2,4.7862925E-2,-6.168102E-3,2.3721894E-2,-5.7233315E-2,-5.2856702E-2,4.043609E-2],"split_indices":[7,36,36,22,11,12,17,43,25,24,0,32,26,35,22,21,24,0,0,0,26,0,8,8,25,23,27,0,46,0,0,0,0,0,0,0,0,0,0,0,0,0,0,0,0,0,0],"split_type":[0,0,0,0,0,0,0,0,0,0,0,0,0,0,0,0,0,0,0,0,0,0,0,0,0,0,0,0,0,0,0,0,0,0,0,0,0,0,0,0,0,0,0,0,0,0,0],"sum_hessian":[7.926535E2,4.1254224E2,3.801113E2,1.407124E2,2.718298E2,3.3164328E2,4.8468025E1,1.3363885E2,7.073555E0,2.6975327E2,2.076553E0,1.0013878E1,3.216294E2,2.9971636E1,1.8496387E1,9.698923E1,3.6649628E1,4.584318E0,2.4892368E0,1.7125645E0,2.6804068E2,4.513267E0,5.500611E0,3.1746796E2,4.161445E0,2.4951313E1,5.0203238E0,9.950233E0,8.546154E0,9.57153E1,1.2739284E0,2.6460826E0,3.4003544E1,2.639021E2,4.138582E0,4.2087536E0,1.2918572E0,1.5304371E0,3.1593753E2,1.6020997E0,2.5593457E0,1.9363432E1,5.5878816E0,1.0459449E0,3.974379E0,2.9053931E0,5.6407604E0],"tree_param":{"num_deleted":"0","num_feature":"55","num_nodes":"47","size_leaf_vector":"1"}},{"base_weights":[-8.907587E-3,1.1659691E0,-1.195571E0,1.2872639E0,3.624059E-1,-1.4719313E0,1.0387076E-1,1.3809977E0,6.7901736E-1,6.0269713E-1,-6.353903E-2,3.724031E-2,-1.4983889E0,8.612062E-1,-3.844863E-1,1.3945442E0,-1.4034018E-1,1.0545597E0,-5.1699944E-2,7.259261E-1,-4.886954E-2,4.7443172E-1,-1.5245463E0,-4.9075407E-1,1.1124423E0,2.2772875E-1,-1.2534608E0,5.619983E-2,-6.574665E-4,-4.5953687E-2,3.6930457E-2,5.1289394E-2,-6.1333333E-3,-5.1258247E-2,4.0019263E-2,-5.3436056E-2,3.397105E-2,-3.7495818E-2,4.8613567E-2,-6.245701E-2,-2.9964069E-2,-5.4861527E-2,4.2853437E-2,-7.829963E-3,5.14352E-2,2.071523E-2,-5.437526E-2,3.660614E-2,-5.776506E-2],"categories":[],"categories_nodes":[],"categories_segments":[],"categories_sizes":[],"default_left":[0,0,0,0,0,0,0,0,0,0,0,0,0,0,0,0,0,0,0,0,0,0,0,0,0,0,0,0,0,0,0,0,0,0,0,0,0,0,0,0,0,0,0,0,0,0,0,0,0],"id":6,"left_children":[1,3,5,7,9,11,13,15,17,19,-1,-1,21,23,25,27,29,31,33,35,-1,37,39,41,43,45,47,-1,-1,-1,-1,-1,-1,-1,-1,-1,-1,-1,-1,-1,-1,-1,-1,-1,-1,-1,-1,-1,-1],"loss_changes":[1.0902776E3,3.766571E1,1.4001935E2,1.8291565E1,2.5718872E1,2.1858765E1,2.5938852E1,6.385559E0,1.3224653E1,1.1625778E1,0E0,0E0,1.7233887E1,9.94277E0,2.306553E1,4.465393E0,4.7736826E0,8.998856E0,2.3347244E1,1.269055E1,0E0,6.2640276E0,7.580139E0,8.293757E0,5.7026176E0,1.2494771E1,8.7510395E0,0E0,0E0,0E0,0E0,0E0,0E0,0E0,0E0,0E0,0E0,0E0,0E0,0E0,0E0,0E0,0E0,0E0,0E0,0E0,0E0,0E0,0E0],"parents":[2147483647,0,0,1,1,2,2,3,3,4,4,5,5,6,6,7,7,8,8,9,9,12,12,13,13,14,14,15,15,16,16,17,17,18,18,19,19,21,21,22,22,23,23,24,24,25,25,26,26],"right_children":[2,4,6,8,10,12,14,16,18,20,-1,-1,22,24,26,28,30,32,34,36,-1,38,40,42,44,46,48,-1,-1,-1,-1,-1,-1,-1,-1,-1,-1,-1,-1,-1,-1,-1,-1,-1,-1,-1,-1,-1,-1],"split_conditions":[5.2E0,4.2E0,7.6E0,1.66E2,1.7255E0,2.9E-1,5.1666665E0,1.14E1,2.6526666E-1,5.576E-1,-6.353903E-2,3.724031E-2,5.5666666E0,-2.2976623E-1,2E0,1.4E1,3.5E1,8.571428E0,2E-1,4.5773333E-1,-4.886954E-2,1.2E1,6.015E0,6.0693336E-1,7E0,1.395E0,3.2333333E-2,5.619983E-2,-6.574665E-4,-4.5953687E-2,3.6930457E-2,5.1289394E-2,-6.1333333E-3,-5.1258247E-2,4.0019263E-2,-5.3436056E-2,3.397105E-2,-3.7495818E-2,4.8613567E-2,-6.245701E-2,-2.9964069E-2,-5.4861527E-2,4.2853437E-2,-7.829963E-3,5.14352E-2,2.071523E-2,-5.437526E-2,3.660614E-2,-5.776506E-2],"split_indices":[12,12,36,42,16,8,17,34,20,20,0,0,40,33,5,11,0,17,44,26,0,25,8,20,4,8,20,0,0,0,0,0,0,0,0,0,0,0,0,0,0,0,0,0,0,0,0,0,0],"split_type":[0,0,0,0,0,0,0,0,0,0,0,0,0,0,0,0,0,0,0,0,0,0,0,0,0,0,0,0,0,0,0,0,0,0,0,0,0,0,0,0,0,0,0,0,0,0,0,0,0],"sum_hessian":[7.800169E2,3.9192142E2,3.8809546E2,3.3988998E2,5.2031456E1,3.199862E2,6.8109245E1,2.93262E2,4.6627983E1,4.698643E1,5.045023E0,3.071342E0,3.1691486E2,2.6482283E1,4.162696E1,2.9082147E2,2.4405088E0,3.0596825E1,1.6031158E1,4.4628952E1,2.3574793E0,3.8726745E0,3.130422E2,3.938249E0,2.2544033E1,2.4786842E1,1.6840118E1,2.887577E2,2.0638037E0,1.2598252E0,1.1806835E0,2.5762169E1,4.834656E0,7.335176E0,8.695983E0,1.9185797E0,4.2710373E1,1.1951334E0,2.6775408E0,2.977396E2,1.5302594E1,2.6372423E0,1.3010066E0,2.5564256E0,1.9987608E1,2.1578596E1,3.2082474E0,1.0114723E0,1.5828645E1],"tree_param":{"num_deleted":"0","num_feature":"55","num_nodes":"49","size_leaf_vector":"1"}},{"base_weights":[-3.1093018E-2,1.1487453E0,-1.2423333E0,1.1806123E0,-5.7229128E-2,-2.6634324E-1,-1.4249568E0,1.339285E0,7.346229E-1,5.152795E-1,-7.0342696E-1,-1.4505538E0,5.6106025E-1,1.382634E0,8.633537E-1,8.522938E-1,-1.0947556E0,8.5069686E-1,-5.4270998E-2,1.8833107E-1,-1.3170512E0,7.980191E-1,-1.4730282E0,5.3460445E-2,-3.8163755E-2,4.586347E-2,5.789393E-2,-4.366628E-2,3.971563E-2,-6.3559352E-3,3.787515E-2,2.390509E-2,-6.2279947E-2,-6.179857E-3,5.3391173E-2,4.395272E-2,-1.823778E-2,-6.519397E-2,8.156677E-3,1.1507798E-2,4.1642647E-2,-2.5137938E-3,-5.987442E-2],"categories":[],"categories_nodes":[],"categories_segments":[],"categories_sizes":[],"default_left":[0,0,0,0,0,0,0,0,0,0,0,0,0,0,0,0,0,0,0,0,0,0,0,0,0,0,0,0,0,0,0,0,0,0,0,0,0,0,0,0,0,0,0],"id":7,"left_children":[1,3,5,7,-1,9,11,13,15,17,19,21,23,25,27,29,31,33,-1,35,37,39,41,-1,-1,-1,-1,-1,-1,-1,-1,-1,-1,-1,-1,-1,-1,-1,-1,-1,-1,-1,-1],"loss_changes":[1.0969572E3,3.362445E1,6.696588E1,2.6029114E1,0E0,2.1228361E1,1.7107666E1,4.4066467E0,2.3149727E1,1.5156605E1,2.2052822E1,1.7163513E1,6.867936E0,2.0054626E0,7.765829E0,9.57254E0,6.21344E0,9.880805E0,0E0,1.0518249E1,1.1738117E1,2.928996E-2,1.0246277E1,0E0,0E0,0E0,0E0,0E0,0E0,0E0,0E0,0E0,0E0,0E0,0E0,0E0,0E0,0E0,0E0,0E0,0E0,0E0,0E0],"parents":[2147483647,0,0,1,1,2,2,3,3,5,5,6,6,7,7,8,8,9,9,10,10,11,11,12,12,13,13,14,14,15,15,16,16,17,17,19,19,20,20,21,21,22,22],"right_children":[2,4,6,8,-1,10,12,14,16,18,20,22,24,26,28,30,32,34,-1,36,38,40,42,-1,-1,-1,-1,-1,-1,-1,-1,-1,-1,-1,-1,-1,-1,-1,-1,-1,-1,-1,-1],"split_conditions":[6E0,1.14E1,7E0,4E0,-5.7229128E-2,5.1666665E0,3.1333334E1,2E0,4.68E-1,2.6415133E1,2E0,5.4194E1,2.6666668E-1,2.0466667E1,1.52E1,8.755714E-1,-9.165909E-1,3E0,-5.4270998E-2,1.3479532E0,1.4322E0,3E0,1.6360205E1,5.3460445E-2,-3.8163755E-2,4.586347E-2,5.789393E-2,-4.366628E-2,3.971563E-2,-6.3559352E-3,3.787515E-2,2.390509E-2,-6.2279947E-2,-6.179857E-3,5.3391173E-2,4.395272E-2,-1.823778E-2,-6.519397E-2,8.156677E-3,1.1507798E-2,4.1642647E-2,-2.5137938E-3,-5.987442E-2],"split_indices":[7,14,35,7,0,17,41,11,22,47,27,9,37,41,41,26,31,18,0,32,13,11,48,0,0,0,0,0,0,0,0,0,0,0,0,0,0,0,0,0,0,0,0],"split_type":[0,0,0,0,0,0,0,0,0,0,0,0,0,0,0,0,0,0,0,0,0,0,0,0,0,0,0,0,0,0,0,0,0,0,0,0,0,0,0,0,0,0,0],"sum_hessian":[7.6559814E2,3.8781067E2,3.7778748E2,3.8365207E2,4.158601E0,6.0021595E1,3.1776587E2,2.8133313E2,1.0231895E2,2.1380266E1,3.864133E1,3.140383E2,3.7275572E0,2.55909E2,2.5424126E1,9.668844E1,5.6305103E0,1.8639593E1,2.7406716E0,1.5967073E1,2.2674257E1,2.7222092E0,3.113161E2,2.5872931E0,1.1402642E0,5.9423275E1,1.9648573E2,1.070374E0,2.435375E1,8.121854E0,8.856658E1,1.0986968E0,4.5318136E0,6.2128778E0,1.2426717E1,6.388534E0,9.578539E0,1.880171E1,3.8725486E0,1.715445E0,1.0067643E0,5.3040166E0,3.060121E2],"tree_param":{"num_deleted":"0","num_feature":"55","num_nodes":"43","size_leaf_vector":"1"}},{"base_weights":[1.4371851E-2,1.1198173E0,-1.1413308E0,1.2123863E0,5.071445E-1,-1.3548664E0,1.6773283E-1,1.2593013E0,5.689417E-1,8.713757E-1,-7.6990604E-1,-7.7625066E-1,-1.4583127E0,-5.845993E-1,5.612192E-1,1.3126895E0,8.6186314E-1,5.7318963E-2,-5.3058047E-2,1.2009674E0,-4.1050696E-1,2.9023933E-1,-6.523861E-2,9.2100763E-1,-9.657615E-1,2.8376762E-2,-1.4734676E0,1.7218708E-1,-1.2180173E0,8.580251E-1,-7.536567E-1,5.3341817E-2,7.0149545E-3,-1.2813802E-2,4.1648615E-2,3.656252E-2,-3.0174067E-2,1.6729806E-2,5.963275E-2,-6.605078E-2,3.5878666E-2,-5.2791476E-2,5.36442E-2,-3.255564E-2,6.0476705E-2,3.9569143E-2,-4.318954E-2,1.1507469E-2,-5.9542082E-2,3.39388E-2,-4.7189195E-2,3.5613563E-2,-6.2822625E-2,4.3988694E-2,-2.3245063E-2,-5.5914573E-2,4.1190684E-2],"categories":[],"categories_nodes":[],"categories_segments":[],"categories_sizes":[],"default_left":[0,0,0,0,0,0,0,0,0,0,0,0,0,0,0,0,0,0,0,0,0,0,0,0,0,0,0,0,0,0,0,0,0,0,0,0,0,0,0,0,0,0,0,0,0,0,0,0,0,0,0,0,0,0,0,0,0],"id":8,"left_children":[1,3,5,7,9,11,13,15,17,19,21,23,25,27,29,31,33,-1,35,37,39,41,-1,43,45,-1,47,49,51,53,55,-1,-1,-1,-1,-1,-1,-1,-1,-1,-1,-1,-1,-1,-1,-1,-1,-1,-1,-1,-1,-1,-1,-1,-1,-1,-1],"loss_changes":[9.8029315E2,2.1457916E1,1.05196014E2,9.360657E0,2.5493248E1,1.7957703E1,1.6142351E1,5.3522644E0,1.3685339E1,1.8331966E1,1.1842665E1,1.7369488E1,1.0071838E1,9.30258E0,1.458094E1,6.168518E0,8.999933E0,0E0,1.1166834E1,6.8436356E0,1.6612226E1,1.245339E1,0E0,7.0450897E0,1.1464855E1,0E0,7.7456665E0,9.514039E0,9.198882E0,1.0999748E1,9.565405E0,0E0,0E0,0E0,0E0,0E0,0E0,0E0,0E0,0E0,0E0,0E0,0E0,0E0,0E0,0E0,0E0,0E0,0E0,0E0,0E0,0E0,0E0,0E0,0E0,0E0,0E0],"parents":[2147483647,0,0,1,1,2,2,3,3,4,4,5,5,6,6,7,7,8,8,9,9,10,10,11,11,12,12,13,13,14,14,15,15,16,16,18,18,19,19,20,20,21,21,23,23,24,24,26,26,27,27,28,28,29,29,30,30],"right_children":[2,4,6,8,10,12,14,16,18,20,22,24,26,28,30,32,34,-1,36,38,40,42,-1,44,46,-1,48,50,52,54,56,-1,-1,-1,-1,-1,-1,-1,-1,-1,-1,-1,-1,-1,-1,-1,-1,-1,-1,-1,-1,-1,-1,-1,-1,-1,-1],"split_conditions":[6E0,4E0,8.8E0,2E0,4.8E0,2.6720959E1,1.02E2,1.41E2,7.873333E-2,1.4725E0,2.586E-1,7.724286E1,2.9E-1,2.076074E1,3.2233334E2,5.7233334E-1,2.4264705E-1,5.7318963E-2,8.933333E0,3.6105698E1,1.01252E2,1.483376E-1,-6.523861E-2,2.6666668E-1,6E0,2.8376762E-2,5.266667E0,1.2504E0,4.5E0,7.233333E0,7.9E0,5.3341817E-2,7.0149545E-3,-1.2813802E-2,4.1648615E-2,3.656252E-2,-3.0174067E-2,1.6729806E-2,5.963275E-2,-6.605078E-2,3.5878666E-2,-5.2791476E-2,5.36442E-2,-3.255564E-2,6.0476705E-2,3.9569143E-2,-4.318954E-2,1.1507469E-2,-5.9542082E-2,3.39388E-2,-4.7189195E-2,3.5613563E-2,-6.2822625E-2,4.3988694E-2,-2.3245063E-2,-5.5914573E-2,4.1190684E-2],"split_indices":[7,43,36,11,12,48,45,42,22,16,20,24,8,47,23,20,46,0,36,48,9,46,0,38,12,0,40,16,12,40,40,0,0,0,0,0,0,0,0,0,0,0,0,0,0,0,0,0,0,0,0,0,0,0,0,0,0],"split_type":[0,0,0,0,0,0,0,0,0,0,0,0,0,0,0,0,0,0,0,0,0,0,0,0,0,0,0,0,0,0,0,0,0,0,0,0,0,0,0,0,0,0,0,0,0,0,0,0,0,0,0,0,0,0,0,0,0],"sum_hessian":[7.653142E2,3.912223E2,3.7409192E2,3.388789E2,5.234338E1,3.2166333E2,5.24286E1,3.1481265E2,2.4066275E1,4.10355E1,1.13078785E1,5.0222115E1,2.7144122E2,1.7750479E1,3.4678123E1,2.7527957E2,3.9533077E1,9.594841E0,1.4471433E1,3.2754856E1,8.280645E0,5.313111E0,5.9947677E0,4.603711E0,4.56184E1,1.5206316E0,2.699206E2,8.34748E0,9.402999E0,2.863734E1,6.040782E0,2.7006668E2,5.212889E0,5.030519E0,3.450256E1,5.8953896E0,8.576044E0,9.605059E0,2.3149796E1,4.1530414E0,4.1276045E0,1.9596603E0,3.3534508E0,1.0307806E0,3.5729306E0,2.0416942E0,4.3576706E1,2.0825162E0,2.6783807E2,5.8616247E0,2.485855E0,1.0879012E0,8.315098E0,2.4780949E1,3.8563914E0,4.6377854E0,1.4029964E0],"tree_param":{"num_deleted":"0","num_feature":"55","num_nodes":"57","size_leaf_vector":"1"}},{"base_weights":[-1.9334707E-2,-1.1643552E0,8.265635E-1,-1.4442934E0,-6.7095655E-1,-8.603958E-1,9.3066394E-1,-4.7398973E-1,-1.5023892E0,4.9500352E-1,-9.313999E-1,-1.4016232E0,9.422724E-1,4.3014047E-1,1.1498879E0,-5.4053873E-2,8.428975E-1,1.3415648E-1,-1.5236855E0,7.4595135E-1,-4.4865146E-2,-1.1049329E0,-3.9482724E-2,2.0179262E-2,-6.149989E-2,5.7478998E-2,-0E0,7.7446043E-1,-2.7192876E-1,-6.9577295E-1,1.1787709E0,5.771633E-2,-3.1347144E-2,-3.2158658E-2,4.4196647E-2,6.1371657E-3,-6.177864E-2,3.723844E-2,-3.9194193E-2,3.459096E-2,-4.7635913E-2,-2.798382E-2,3.377041E-2,-3.342597E-2,3.55069E-2,3.8424898E-2,-0E0,-3.3298302E-2,2.0691397E-2,3.3719674E-2,-5.67105E-2,4.8248734E-2,1.1626724E-3],"categories":[],"categories_nodes":[],"categories_segments":[],"categories_sizes":[],"default_left":[0,0,0,0,0,0,0,0,0,0,0,0,0,0,0,0,0,0,0,0,0,0,0,0,0,0,0,0,0,0,0,0,0,0,0,0,0,0,0,0,0,0,0,0,0,0,0,0,0,0,0,0,0],"id":9,"left_children":[1,3,5,7,9,11,13,15,17,19,21,23,25,27,29,-1,31,33,35,37,-1,39,41,-1,-1,-1,43,45,47,49,51,-1,-1,-1,-1,-1,-1,-1,-1,-1,-1,-1,-1,-1,-1,-1,-1,-1,-1,-1,-1,-1,-1],"loss_changes":[7.230241E2,4.2630585E1,7.619202E1,1.0441956E1,3.5978146E1,2.6161442E1,4.3770172E1,1.6133814E1,6.945923E0,9.688684E0,1.4685829E1,6.0561485E0,2.9237323E0,3.0489397E1,1.5837555E1,0E0,6.8006396E0,3.9166758E0,6.898529E0,7.172435E0,0E0,1.4634544E1,1.0348347E1,0E0,0E0,0E0,3.151859E0,1.2153095E1,1.8950008E1,6.698716E0,8.579346E0,0E0,0E0,0E0,0E0,0E0,0E0,0E0,0E0,0E0,0E0,0E0,0E0,0E0,0E0,0E0,0E0,0E0,0E0,0E0,0E0,0E0,0E0],"parents":[2147483647,0,0,1,1,2,2,3,3,4,4,5,5,6,6,7,7,8,8,9,9,10,10,11,11,12,12,13,13,14,14,16,16,17,17,18,18,19,19,21,21,22,22,26,26,27,27,28,28,29,29,30,30],"right_children":[2,4,6,8,10,12,14,16,18,20,22,24,26,28,30,-1,32,34,36,38,-1,40,42,-1,-1,-1,44,46,48,50,52,-1,-1,-1,-1,-1,-1,-1,-1,-1,-1,-1,-1,-1,-1,-1,-1,-1,-1,-1,-1,-1,-1],"split_conditions":[1.14E1,3E0,3E0,7.724286E1,4E0,3.9E1,2.0933332E1,1.6E1,1.5233333E-1,1.5266666E0,3E-1,7.4666664E-2,7.866667E0,2.6526666E-1,6E0,-5.4053873E-2,-4.1149054E-2,9.5356E1,1.525862E1,1.3333334E-1,-4.4865146E-2,5.6E0,3E0,2.0179262E-2,-6.149989E-2,5.7478998E-2,1.02154E2,1.3645E0,9E0,3.9333334E0,7.1E0,5.771633E-2,-3.1347144E-2,-3.2158658E-2,4.4196647E-2,6.1371657E-3,-6.177864E-2,3.723844E-2,-3.9194193E-2,3.459096E-2,-4.7635913E-2,-2.798382E-2,3.377041E-2,-3.342597E-2,3.55069E-2,3.8424898E-2,-0E0,-3.3298302E-2,2.0691397E-2,3.3719674E-2,-5.67105E-2,4.8248734E-2,1.1626724E-3],"split_indices":[41,10,10,24,43,0,41,45,16,13,44,13,34,20,36,0,31,9,48,37,0,14,28,0,0,0,9,16,1,14,40,0,0,0,0,0,0,0,0,0,0,0,0,0,0,0,0,0,0,0,0,0,0],"split_type":[0,0,0,0,0,0,0,0,0,0,0,0,0,0,0,0,0,0,0,0,0,0,0,0,0,0,0,0,0,0,0,0,0,0,0,0,0,0,0,0,0,0,0,0,0,0,0,0,0,0,0,0,0],"sum_hessian":[7.4445703E2,3.1619394E2,4.282631E2,2.0037679E2,1.1581717E2,2.4413527E1,4.0384958E2,1.1934201E1,1.8844258E2,2.091221E1,9.490496E1,1.898998E1,5.4235463E0,1.2404752E2,2.7980206E2,7.192242E0,4.7419586E0,2.2922938E0,1.8615028E2,1.8621979E1,2.2902331E0,7.915372E1,1.5751242E1,1.0341134E0,1.7955866E1,3.1779583E0,2.245588E0,8.325541E1,4.0792118E1,3.9020817E0,2.7589996E2,3.591517E0,1.1504419E0,1.2007337E0,1.0915601E0,2.1412845E0,1.84009E2,1.728726E1,1.3347183E0,2.8825746E0,7.627114E1,9.200469E0,6.550773E0,1.1583799E0,1.0872082E0,6.6933304E1,1.6322104E1,2.3893782E1,1.6898335E1,1.1484044E0,2.7536774E0,2.693339E2,6.566082E0],"tree_param":{"num_deleted":"0","num_feature":"55","num_nodes":"53","size_leaf_vector":"1"}},{"base_weights":[-2.6559671E-2,1.0134271E0,-1.1115979E0,2.8103077E-1,1.1341518E0,-1.3600291E0,-8.0763526E-2,7.635922E-1,-4.1500983E-1,1.205177E0,5.8443636E-1,6.762335E-1,-1.3860345E0,-6.754173E-1,5.4693806E-1,-4.962528E-1,1.030097E0,1.2781684E-1,-6.707871E-2,1.2636349E0,6.635232E-1,-5.627036E-2,7.304272E-1,4.0713433E-2,5.8713993E-3,-1.4317664E0,-4.2059737E-1,-9.9836653E-1,5.071997E-1,8.169808E-1,-5.1554423E-2,-6.063344E-2,2.6093392E-2,4.6593435E-2,-5.679677E-3,-5.6031335E-2,3.17119E-2,2.2705584E-3,5.0892513E-2,3.3041682E-2,-5.308603E-2,3.4641504E-2,-4.958727E-2,8.657331E-3,-5.8337636E-2,4.916987E-2,-5.5080738E-2,4.3100826E-2,-4.5495786E-2,3.9932035E-2,-4.2070374E-2,4.081135E-2,-2.0168278E-2],"categories":[],"categories_nodes":[],"categories_segments":[],"categories_sizes":[],"default_left":[0,0,0,0,0,0,0,0,0,0,0,0,0,0,0,0,0,0,0,0,0,0,0,0,0,0,0,0,0,0,0,0,0,0,0,0,0,0,0,0,0,0,0,0,0,0,0,0,0,0,0,0,0],"id":10,"left_children":[1,3,5,7,9,11,13,15,17,19,21,23,25,27,29,31,33,35,-1,37,39,-1,41,-1,-1,43,45,47,49,51,-1,-1,-1,-1,-1,-1,-1,-1,-1,-1,-1,-1,-1,-1,-1,-1,-1,-1,-1,-1,-1,-1,-1],"loss_changes":[8.2174677E2,3.2413055E1,9.102319E1,1.8509188E1,1.1561218E1,1.6209473E1,2.6644537E1,1.1430349E1,1.5917027E1,7.8715515E0,1.2172687E1,5.0162137E-1,1.1743713E1,1.4556665E1,1.8207487E1,8.406024E0,4.547844E0,1.8069778E1,0E0,2.4393616E0,1.06421E1,0E0,1.0825878E1,0E0,0E0,1.2331055E1,2.4352932E1,9.658642E0,7.521875E0,8.868153E0,0E0,0E0,0E0,0E0,0E0,0E0,0E0,0E0,0E0,0E0,0E0,0E0,0E0,0E0,0E0,0E0,0E0,0E0,0E0,0E0,0E0,0E0,0E0],"parents":[2147483647,0,0,1,1,2,2,3,3,4,4,5,5,6,6,7,7,8,8,9,9,10,10,11,11,12,12,13,13,14,14,15,15,16,16,17,17,19,19,20,20,22,22,25,25,26,26,27,27,28,28,29,29],"right_children":[2,4,6,8,10,12,14,16,18,20,22,24,26,28,30,32,34,36,-1,38,40,-1,42,-1,-1,44,46,48,50,52,-1,-1,-1,-1,-1,-1,-1,-1,-1,-1,-1,-1,-1,-1,-1,-1,-1,-1,-1,-1,-1,-1,-1],"split_conditions":[5.6E0,6.666667E-2,1.6368286E-1,4E0,4.2E0,2.9E-1,2.16E1,6.3333335E0,4.4E0,1E0,4.375875E-1,2E0,6.015E0,1.9307992E0,1.26E1,8.066667E0,1.794E0,4.134367E-2,-6.707871E-2,4.733333E0,1.893E0,-5.627036E-2,1.7255E0,4.0713433E-2,5.8713993E-3,1.5233333E-1,9.6E-1,6.1E-2,1.7E1,1.571E0,-5.1554423E-2,-6.063344E-2,2.6093392E-2,4.6593435E-2,-5.679677E-3,-5.6031335E-2,3.17119E-2,2.2705584E-3,5.0892513E-2,3.3041682E-2,-5.308603E-2,3.4641504E-2,-4.958727E-2,8.657331E-3,-5.8337636E-2,4.916987E-2,-5.5080738E-2,4.3100826E-2,-4.5495786E-2,3.9932035E-2,-4.2070374E-2,4.081135E-2,-2.0168278E-2],"split_indices":[12,37,46,43,12,8,41,40,36,11,26,1,8,32,12,36,16,46,0,36,15,0,16,0,0,16,16,16,41,16,0,0,0,0,0,0,0,0,0,0,0,0,0,0,0,0,0,0,0,0,0,0,0],"split_type":[0,0,0,0,0,0,0,0,0,0,0,0,0,0,0,0,0,0,0,0,0,0,0,0,0,0,0,0,0,0,0,0,0,0,0,0,0,0,0,0,0,0,0,0,0,0,0,0,0,0,0,0,0],"sum_hessian":[7.262172E2,3.707933E2,3.5542392E2,5.3058903E1,3.177344E2,2.860657E2,6.935824E1,3.136224E1,2.1696663E1,2.8016223E2,3.7572166E1,3.2435176E0,2.8282217E2,3.565948E1,3.3698753E1,5.2598953E0,2.6102345E1,1.5743938E1,5.952725E0,2.5150142E2,2.866082E1,1.929838E0,3.5642326E1,1.2960072E0,1.9475105E0,2.6947095E2,1.3351231E1,2.81992E1,7.460283E0,2.9908686E1,3.790069E0,2.6631677E0,2.5967276E0,2.3493166E1,2.6091785E0,4.3917284E0,1.135221E1,1.9316008E0,2.4956981E2,2.7084887E1,1.5759345E0,3.3918736E1,1.723591E0,4.1186576E0,2.653523E2,4.7564507E0,8.59478E0,1.3011737E0,2.6898026E1,5.995401E0,1.4648818E0,2.6183102E1,3.7255843E0],"tree_param":{"num_deleted":"0","num_feature":"55","num_nodes":"53","size_leaf_vector":"1"}},{"base_weights":[1.29365055E-2,1.0444378E0,-1.1006925E0,1.1944113E0,7.0653445E-1,-1.2971396E0,1.0259228E-2,-4.0660527E-2,1.2121425E0,7.9912484E-1,-1.004127E0,-1.3228226E0,5.0788224E-1,6.5312964E-1,-3.484865E-1,1.2295539E0,2.4493322E-1,1.0870614E0,5.703227E-1,2.2443252E-2,-5.7242166E-2,3.08088E-2,-1.3450998E0,-3.4508377E-2,5.129591E-2,9.006154E-1,-4.8716538E-2,-3.4354594E-2,-5.9903037E-2,-3.9978116E-3,4.9518388E-2,4.2143352E-2,-5.0044496E-2,4.650636E-2,7.237506E-4,2.653053E-2,-3.5451524E-2,-5.2794116E-3,-5.5410583E-2,4.9517095E-2,-1.6463231E-2,-3.7152942E-2,2.2471575E-2],"categories":[],"categories_nodes":[],"categories_segments":[],"categories_sizes":[],"default_left":[0,0,0,0,0,0,0,0,0,0,0,0,0,0,0,0,0,0,0,0,0,0,0,0,0,0,0,0,0,0,0,0,0,0,0,0,0,0,0,0,0,0,0],"id":11,"left_children":[1,3,5,7,9,11,13,-1,15,17,19,21,23,25,27,29,31,33,35,-1,-1,-1,37,-1,-1,39,-1,41,-1,-1,-1,-1,-1,-1,-1,-1,-1,-1,-1,-1,-1,-1,-1],"loss_changes":[8.4702716E2,1.8367249E1,7.75163E1,1.1581726E1,1.9842598E1,1.4723145E1,1.27550535E1,0E0,3.9620667E0,6.775589E0,5.278E0,1.49627075E1,6.3451037E0,1.0259473E1,1.2548721E1,3.1088257E0,8.535024E0,3.862835E0,9.534462E0,0E0,0E0,0E0,1.402594E1,0E0,0E0,8.62936E0,0E0,1.5935842E1,0E0,0E0,0E0,0E0,0E0,0E0,0E0,0E0,0E0,0E0,0E0,0E0,0E0,0E0,0E0],"parents":[2147483647,0,0,1,1,2,2,3,3,4,4,5,5,6,6,8,8,9,9,10,10,11,11,12,12,13,13,14,14,15,15,16,16,17,17,18,18,22,22,25,25,27,27],"right_children":[2,4,6,8,10,12,14,-1,16,18,20,22,24,26,28,30,32,34,36,-1,-1,-1,38,-1,-1,40,-1,42,-1,-1,-1,-1,-1,-1,-1,-1,-1,-1,-1,-1,-1,-1,-1],"split_conditions":[6E0,4E0,8.2E0,2.2666667E0,5.517333E-1,1.77E2,7E0,-4.0660527E-2,1E1,4.9333334E0,-8.5509396E-1,5.4194E1,1.7E1,4.3227585E1,1.3466666E1,6.3464E1,7.4666664E-2,4E0,1.1466666E1,2.2443252E-2,-5.7242166E-2,3.08088E-2,6E0,-3.4508377E-2,5.129591E-2,3.2233334E2,-4.8716538E-2,8E0,-5.9903037E-2,-3.9978116E-3,4.9518388E-2,4.2143352E-2,-5.0044496E-2,4.650636E-2,7.237506E-4,2.653053E-2,-3.5451524E-2,-5.2794116E-3,-5.5410583E-2,4.9517095E-2,-1.6463231E-2,-3.7152942E-2,2.2471575E-2],"split_indices":[7,7,36,36,22,45,7,0,11,34,31,9,25,48,36,9,22,5,36,0,0,0,12,0,0,23,0,1,0,0,0,0,0,0,0,0,0,0,0,0,0,0,0],"split_type":[0,0,0,0,0,0,0,0,0,0,0,0,0,0,0,0,0,0,0,0,0,0,0,0,0,0,0,0,0,0,0,0,0,0,0,0,0,0,0,0,0,0,0],"sum_hessian":[7.353767E2,3.818444E2,3.535323E2,2.625048E2,1.1933961E2,3.003453E2,5.318698E1,1.5954664E0,2.6090933E2,1.137729E2,5.566699E0,2.964498E2,3.8955066E0,1.8855745E1,3.4331238E1,2.5592755E2,4.9817786E0,4.8522053E1,6.5250854E1,1.0754392E0,4.4912596E0,2.7211733E0,2.9372864E2,1.3187854E0,2.5767212E0,1.7158295E1,1.6974514E0,2.7837965E1,6.493271E0,1.4647835E0,2.5446277E2,3.4691904E0,1.5125883E0,4.514798E1,3.3740714E0,6.1913692E1,3.3371623E0,9.630493E0,2.8409814E2,1.3755199E1,3.4030938E0,1.09772E1,1.6860765E1],"tree_param":{"num_deleted":"0","num_feature":"55","num_nodes":"43","size_leaf_vector":"1"}},{"base_weights":[6.8386793E-3,1.034877E0,-1.1389568E0,1.12129E0,4.7940862E-1,-1.3150269E0,-1.0387691E-1,1.2187582E0,8.2128567E-1,-3.2057643E-1,7.5040746E-1,-1.1617723E-1,-1.354347E0,8.314439E-1,-3.412283E-1,1.2394595E0,2.8449386E-1,9.5122176E-1,-4.8501584E-1,-1.3116977E0,8.755271E-1,3.1326082E-1,1.2058342E0,-5.34592E-2,1.1461589E0,3.8301826E-2,-1.3685346E0,1.4038336E0,-2.377658E-1,1.4202747E-1,-1.2969133E0,-0E0,4.9951997E-2,-5.2206572E-2,3.3401445E-2,4.314771E-2,-1.0107147E-2,1.0743411E-2,-6.417875E-2,-6.489125E-2,8.9531215E-3,-3.413388E-4,5.0915267E-2,2.7869314E-2,-3.053953E-2,5.6122415E-2,-8.588445E-3,4.99404E-4,6.6348925E-2,-5.652023E-2,-2.214814E-2,7.716458E-3,6.478616E-2,-4.3961596E-2,3.7921444E-2,-5.6299184E-2,2.02489E-2,3.7373733E-2,-6.189705E-2],"categories":[],"categories_nodes":[],"categories_segments":[],"categories_sizes":[],"default_left":[0,0,0,0,0,0,0,0,0,0,0,0,0,0,0,0,0,0,0,0,0,0,0,0,0,0,0,0,0,0,0,0,0,0,0,0,0,0,0,0,0,0,0,0,0,0,0,0,0,0,0,0,0,0,0,0,0,0,0],"id":12,"left_children":[1,3,5,7,9,11,13,15,17,19,21,23,25,27,29,31,33,35,37,39,41,43,45,-1,47,-1,49,51,53,55,57,-1,-1,-1,-1,-1,-1,-1,-1,-1,-1,-1,-1,-1,-1,-1,-1,-1,-1,-1,-1,-1,-1,-1,-1,-1,-1,-1,-1],"loss_changes":[8.581074E2,1.7735474E1,6.25011E1,8.486206E0,1.1904167E1,1.3565308E1,1.1611357E1,4.2881775E0,1.4865829E1,1.799103E1,7.5197525E0,1.775364E1,1.06901245E1,6.924221E0,1.9543755E1,2.8649292E0,6.9721975E0,1.2224548E1,7.520568E0,4.411378E0,2.5876045E0,9.647409E0,5.838167E0,0E0,3.1058369E0,0E0,9.291443E0,1.3606396E0,5.6350994E0,1.6709026E1,9.42318E0,0E0,0E0,0E0,0E0,0E0,0E0,0E0,0E0,0E0,0E0,0E0,0E0,0E0,0E0,0E0,0E0,0E0,0E0,0E0,0E0,0E0,0E0,0E0,0E0,0E0,0E0,0E0,0E0],"parents":[2147483647,0,0,1,1,2,2,3,3,4,4,5,5,6,6,7,7,8,8,9,9,10,10,11,11,12,12,13,13,14,14,15,15,16,16,17,17,18,18,19,19,20,20,21,21,22,22,24,24,26,26,27,27,28,28,29,29,30,30],"right_children":[2,4,6,8,10,12,14,16,18,20,22,24,26,28,30,32,34,36,38,40,42,44,46,-1,48,-1,50,52,54,56,58,-1,-1,-1,-1,-1,-1,-1,-1,-1,-1,-1,-1,-1,-1,-1,-1,-1,-1,-1,-1,-1,-1,-1,-1,-1,-1,-1,-1],"split_conditions":[6E0,5E0,8.2E0,6.8333335E0,7.4E0,6E0,1.3E0,8.6E0,1E0,3.2466666E2,1.5409356E0,1.3125E0,2.9E-1,2E0,3.1753333E2,7.186889E1,2E0,1.653E0,7.133333E0,5.94915E0,2.6401922E1,3.188E2,6E-1,-5.34592E-2,8E0,3.8301826E-2,6.015E0,4.2946666E-1,1.45E2,-2.3898754E-1,6.4072E1,-0E0,4.9951997E-2,-5.2206572E-2,3.3401445E-2,4.314771E-2,-1.0107147E-2,1.0743411E-2,-6.417875E-2,-6.489125E-2,8.9531215E-3,-3.413388E-4,5.0915267E-2,2.7869314E-2,-3.053953E-2,5.6122415E-2,-8.588445E-3,4.99404E-4,6.6348925E-2,-5.652023E-2,-2.214814E-2,7.716458E-3,6.478616E-2,-4.3961596E-2,3.7921444E-2,-5.6299184E-2,2.02489E-2,3.7373733E-2,-6.189705E-2],"split_indices":[7,7,36,40,36,12,30,34,11,23,32,32,8,27,23,24,5,16,36,26,47,23,37,0,7,0,8,13,6,31,9,0,0,0,0,0,0,0,0,0,0,0,0,0,0,0,0,0,0,0,0,0,0,0,0,0,0,0,0],"split_type":[0,0,0,0,0,0,0,0,0,0,0,0,0,0,0,0,0,0,0,0,0,0,0,0,0,0,0,0,0,0,0,0,0,0,0,0,0,0,0,0,0,0,0,0,0,0,0,0,0,0,0,0,0,0,0,0,0,0,0],"sum_hessian":[7.26501E2,3.8302493E2,3.4347607E2,3.3042303E2,5.2601894E1,2.9322977E2,5.024631E1,2.468336E2,8.358942E1,1.3170575E1,3.943132E1,9.518338E0,2.8371143E2,9.578073E0,4.066824E1,2.4105855E2,5.775054E0,7.6343956E1,7.2454596E0,7.1953177E0,5.975258E0,2.109268E1,1.8338638E1,4.850161E0,4.668177E0,1.2819058E0,2.8242953E2,6.0954843E0,3.482588E0,2.7506124E1,1.3162115E1,1.7703019E0,2.3928825E2,1.0862482E0,4.688806E0,6.920362E1,7.1403346E0,4.7312136E0,2.514246E0,5.991975E0,1.2033427E0,2.078263E0,3.8969948E0,1.5882212E1,5.2104692E0,1.6175554E1,2.1630838E0,1.8331428E0,2.8350344E0,2.6700052E2,1.5429007E1,1.2786199E0,4.8168645E0,2.108579E0,1.3740091E0,4.637247E0,2.2868877E1,1.0127661E0,1.2149349E1],"tree_param":{"num_deleted":"0","num_feature":"55","num_nodes":"59","size_leaf_vector":"1"}},{"base_weights":[6.5436265E-3,9.861546E-1,-1.0427214E0,1.2075146E0,7.6486146E-1,-1.2632512E0,1.8828194E-1,1.2276893E0,-2.6484844E-1,8.33401E-1,-4.6456018E-1,-6.828677E-1,-1.3665013E0,3.9589864E-1,-9.6842605E-1,1.2517015E0,1.9659923E-1,2.9126741E-2,-4.3264132E-2,3.1563526E-1,9.8064244E-1,8.8810605E-1,-1.3251263E0,5.984279E-1,-9.7747964E-1,-1.3820149E0,1.4282403E-2,6.6108096E-1,-6.278642E-1,3.438917E-2,-5.6064762E-2,5.100935E-2,2.1206344E-2,3.7854236E-2,-4.989538E-2,-4.2508435E-2,2.1311266E-2,2.4672195E-2,4.6876606E-2,5.153291E-3,4.3119606E-2,2.018767E-2,-7.034553E-2,4.2101625E-2,-3.5748124E-2,2.096172E-2,-4.7789197E-2,-1.1218316E-2,-5.6435164E-2,4.722929E-2,2.2239238E-3,-5.443441E-2,2.2191588E-2],"categories":[],"categories_nodes":[],"categories_segments":[],"categories_sizes":[],"default_left":[0,0,0,0,0,0,0,0,0,0,0,0,0,0,0,0,0,0,0,0,0,0,0,0,0,0,0,0,0,0,0,0,0,0,0,0,0,0,0,0,0,0,0,0,0,0,0,0,0,0,0,0,0],"id":13,"left_children":[1,3,5,7,9,11,13,15,17,19,21,23,25,27,29,31,33,-1,-1,35,37,39,41,43,45,47,-1,49,51,-1,-1,-1,-1,-1,-1,-1,-1,-1,-1,-1,-1,-1,-1,-1,-1,-1,-1,-1,-1,-1,-1,-1,-1],"loss_changes":[7.408046E2,1.7139862E1,9.480252E1,5.89917E0,1.6381248E1,1.6556427E1,1.3213669E1,4.11911E0,3.4573808E0,1.3268677E1,1.3518721E1,1.8267101E1,7.268219E0,1.2982882E1,7.898254E0,2.1611938E0,7.025534E0,0E0,0E0,1.291528E1,8.797348E0,4.1250134E-1,6.4890957E0,7.254817E0,1.3234673E1,7.3069763E0,0E0,1.1554304E1,9.467066E0,0E0,0E0,0E0,0E0,0E0,0E0,0E0,0E0,0E0,0E0,0E0,0E0,0E0,0E0,0E0,0E0,0E0,0E0,0E0,0E0,0E0,0E0,0E0,0E0],"parents":[2147483647,0,0,1,1,2,2,3,3,4,4,5,5,6,6,7,7,8,8,9,9,10,10,11,11,12,12,13,13,14,14,15,15,16,16,19,19,20,20,21,21,22,22,23,23,24,24,25,25,27,27,28,28],"right_children":[2,4,6,8,10,12,14,16,18,20,22,24,26,28,30,32,34,-1,-1,36,38,40,42,44,46,48,-1,50,52,-1,-1,-1,-1,-1,-1,-1,-1,-1,-1,-1,-1,-1,-1,-1,-1,-1,-1,-1,-1,-1,-1,-1,-1],"split_conditions":[6E0,3E0,8.2E0,1E1,3E0,2.6720959E1,4E0,4.394E-1,7.9659E1,1.5671932E0,1.2346666E-1,7.2E0,1.0651334E1,3.2233334E2,1.3095683E1,6.224E0,1.4333333E0,2.9126741E-2,-4.3264132E-2,3.0986667E2,1.9466667E1,6E0,8E0,3.1753333E2,2.5526667E-1,6.8E0,1.4282403E-2,6.1666665E0,7.9E0,3.438917E-2,-5.6064762E-2,5.100935E-2,2.1206344E-2,3.7854236E-2,-4.989538E-2,-4.2508435E-2,2.1311266E-2,2.4672195E-2,4.6876606E-2,5.153291E-3,4.3119606E-2,2.018767E-2,-7.034553E-2,4.2101625E-2,-3.5748124E-2,2.096172E-2,-4.7789197E-2,-1.1218316E-2,-5.6435164E-2,4.722929E-2,2.2239238E-3,-5.443441E-2,2.2191588E-2],"split_indices":[7,7,36,11,11,48,43,20,9,26,21,12,26,23,47,26,30,0,0,23,41,1,6,23,22,34,0,17,40,0,0,0,0,0,0,0,0,0,0,0,0,0,0,0,0,0,0,0,0,0,0,0,0],"split_type":[0,0,0,0,0,0,0,0,0,0,0,0,0,0,0,0,0,0,0,0,0,0,0,0,0,0,0,0,0,0,0,0,0,0,0,0,0,0,0,0,0,0,0,0,0,0,0,0,0,0,0,0,0],"sum_hessian":[7.187222E2,3.7177884E2,3.4694336E2,1.8340746E2,1.883714E2,2.9427933E2,5.2664043E1,1.8115926E2,2.2481883E0,1.788065E2,9.564901E0,4.5741592E1,2.4853773E2,4.528081E1,7.3832326E0,1.7673254E2,4.4267216E0,1.0083067E0,1.2398815E0,4.043655E1,1.3836995E2,3.661473E0,5.9034286E0,8.295032E0,3.744656E1,2.4657454E2,1.9632003E0,3.6323883E1,8.956927E0,1.1815201E0,6.2017126E0,1.7027332E2,6.4592323E0,3.186221E0,1.2405006E0,4.910764E0,3.5525787E1,4.9313583E1,8.9056366E1,1.1736428E0,2.4878304E0,1.0550945E0,4.8483343E0,6.636817E0,1.6582146E0,4.496513E0,3.2950047E1,6.6581607E0,2.3991637E2,1.8947287E1,1.7376596E1,5.488862E0,3.4680653E0],"tree_param":{"num_deleted":"0","num_feature":"55","num_nodes":"53","size_leaf_vector":"1"}},{"base_weights":[1.2683297E-2,9.536207E-1,-1.0292637E0,9.920942E-1,-7.8646433E-1,-1.2362214E0,-1.27028E-1,1.0856936E0,4.8349875E-1,3.8957924E-2,-6.0161203E-2,-1.2772166E0,-1.623615E-1,2.4606845E-1,-1.0077853E0,9.3270886E-1,1.2661805E0,6.095694E-1,-5.631348E-2,4.477641E-1,-1.305566E0,9.166949E-1,-4.8213746E-2,-8.940571E-1,4.9783546E-1,-5.9906524E-2,4.42517E-1,3.8840856E-2,-2.9062591E-2,2.344966E-2,5.1940396E-2,-1.8675743E-2,3.0630736E-2,-3.746236E-2,6.30519E-2,1.3032857E-2,-5.3228643E-2,-0E0,5.7402033E-2,-5.394538E-2,4.441907E-2,4.6941724E-2,9.7253016E-4,4.073618E-2,-3.2911554E-2],"categories":[],"categories_nodes":[],"categories_segments":[],"categories_sizes":[],"default_left":[0,0,0,0,0,0,0,0,0,0,0,0,0,0,0,0,0,0,0,0,0,0,0,0,0,0,0,0,0,0,0,0,0,0,0,0,0,0,0,0,0,0,0,0,0],"id":14,"left_children":[1,3,5,7,9,11,13,15,17,-1,-1,19,21,23,25,27,29,31,-1,33,35,37,-1,39,41,-1,43,-1,-1,-1,-1,-1,-1,-1,-1,-1,-1,-1,-1,-1,-1,-1,-1,-1,-1],"loss_changes":[6.966279E2,2.5800232E1,6.2658234E1,1.6733765E1,1.23554E1,1.1712128E1,2.1390799E1,7.1037903E0,1.4806294E1,0E0,0E0,1.356665E1,1.3864468E1,1.3539729E1,1.4517445E1,1.1588074E1,2.0883484E0,9.787039E0,0E0,9.27589E0,1.1192139E1,3.007514E0,0E0,9.323574E0,1.2072428E1,0E0,4.9429026E0,0E0,0E0,0E0,0E0,0E0,0E0,0E0,0E0,0E0,0E0,0E0,0E0,0E0,0E0,0E0,0E0,0E0,0E0],"parents":[2147483647,0,0,1,1,2,2,3,3,4,4,5,5,6,6,7,7,8,8,11,11,12,12,13,13,14,14,15,15,16,16,17,17,19,19,20,20,21,21,23,23,24,24,26,26],"right_children":[2,4,6,8,10,12,14,16,18,-1,-1,20,22,24,26,28,30,32,-1,34,36,38,-1,40,42,-1,44,-1,-1,-1,-1,-1,-1,-1,-1,-1,-1,-1,-1,-1,-1,-1,-1,-1,-1],"split_conditions":[6E0,6E0,1.6368286E-1,4.2E0,5.8166665E-1,1.1736229E2,1.0097129E-2,1.4533334E1,1.7255E0,3.8957924E-2,-6.0161203E-2,1.6360205E1,1.053E0,-2.2976623E-1,4.398977E-1,9E0,6.8239E1,1.3E0,-5.631348E-2,3.3E1,6.4072E1,9.8E-1,-4.8213746E-2,2.6689E0,9.725E-1,-5.9906524E-2,8.1587E1,3.8840856E-2,-2.9062591E-2,2.344966E-2,5.1940396E-2,-1.8675743E-2,3.0630736E-2,-3.746236E-2,6.30519E-2,1.3032857E-2,-5.3228643E-2,-0E0,5.7402033E-2,-5.394538E-2,4.441907E-2,4.6941724E-2,9.7253016E-4,4.073618E-2,-3.2911554E-2],"split_indices":[7,43,46,12,13,24,33,36,16,0,0,48,8,33,46,11,9,30,0,0,9,8,0,15,16,0,9,0,0,0,0,0,0,0,0,0,0,0,0,0,0,0,0,0,0],"split_type":[0,0,0,0,0,0,0,0,0,0,0,0,0,0,0,0,0,0,0,0,0,0,0,0,0,0,0,0,0,0,0,0,0,0,0,0,0,0,0,0,0,0,0,0,0],"sum_hessian":[7.0855634E2,3.7242035E2,3.36136E2,3.64841E2,7.5793567E0,2.7302716E2,6.3108845E1,3.0700925E2,5.783175E1,2.0509884E0,5.528368E0,2.627154E2,1.0311761E1,4.4756626E1,1.8352217E1,1.6980264E2,1.372066E2,5.4902683E1,2.9290657E0,3.9515738E0,2.5876382E2,5.0806193E0,5.2311416E0,7.5623307E0,3.7194298E1,1.3745581E1,4.606637E0,1.6643472E2,3.3679175E0,7.2365746E0,1.2997003E2,6.6239195E0,4.8278763E1,1.8112683E0,2.1403055E0,3.686776E0,2.5507704E2,2.1390095E0,2.94161E0,6.471788E0,1.0905427E0,1.4629191E1,2.2565105E1,3.3541865E0,1.2524502E0],"tree_param":{"num_deleted":"0","num_feature":"55","num_nodes":"45","size_leaf_vector":"1"}},{"base_weights":[-1.6356361E-4,9.292935E-1,-9.577157E-1,-4.7572155E-2,9.4746417E-1,-1.1375144E0,3.6222093E-2,1.0662221E0,6.512239E-1,-6.05E-1,-1.2394655E0,2.5143322E-1,-5.379303E-2,1.1033746E0,2.8869063E-1,7.494011E-1,-4.012992E-1,8.1892174E-1,-7.845682E-1,3.773434E-2,-1.2553914E0,4.7937787E-1,-6.229897E-1,4.637944E-2,2.3475617E-2,3.1247072E-2,-6.232379E-2,3.149507E-2,-4.1170876E-2,1.9607255E-2,-5.6739587E-2,-3.4706045E-2,6.0814448E-2,-1.5018013E-2,-5.371367E-2,-5.1497016E-2,-8.9276405E-3,4.2579114E-2,3.5075792E-3,-5.379262E-2,2.5179602E-2],"categories":[],"categories_nodes":[],"categories_segments":[],"categories_sizes":[],"default_left":[0,0,0,0,0,0,0,0,0,0,0,0,0,0,0,0,0,0,0,0,0,0,0,0,0,0,0,0,0,0,0,0,0,0,0,0,0,0,0,0,0],"id":15,"left_children":[1,3,5,-1,7,9,11,13,15,17,19,21,-1,23,25,27,29,31,33,-1,35,37,39,-1,-1,-1,-1,-1,-1,-1,-1,-1,-1,-1,-1,-1,-1,-1,-1,-1,-1],"loss_changes":[6.173062E2,1.464978E1,6.1213898E1,0E0,1.1430298E1,1.4780731E1,1.6048265E1,6.697296E0,1.0961399E1,1.3071886E1,9.622589E0,9.64326E0,0E0,5.981903E0,1.2756354E1,7.1688614E0,9.2557125E0,8.331359E0,9.316998E0,0E0,7.51593E0,8.477527E0,1.0006969E1,0E0,0E0,0E0,0E0,0E0,0E0,0E0,0E0,0E0,0E0,0E0,0E0,0E0,0E0,0E0,0E0,0E0,0E0],"parents":[2147483647,0,0,1,1,2,2,4,4,5,5,6,6,7,7,8,8,9,9,10,10,11,11,13,13,14,14,15,15,16,16,17,17,18,18,20,20,21,21,22,22],"right_children":[2,4,6,-1,8,10,12,14,16,18,20,22,-1,24,26,28,30,32,34,-1,36,38,40,-1,-1,-1,-1,-1,-1,-1,-1,-1,-1,-1,-1,-1,-1,-1,-1,-1,-1],"split_conditions":[6E0,1.2E0,8.2E0,-4.7572155E-2,4.11E-1,2.6720959E1,4E0,5E0,9.6E0,7.724286E1,2.9E-1,3.2233334E2,-5.379303E-2,3.3333334E-1,3.1E1,1.11E1,2.8E0,2.6666668E-1,1.26E1,3.773434E-2,4E0,7E0,8.3E0,4.637944E-2,2.3475617E-2,3.1247072E-2,-6.232379E-2,3.149507E-2,-4.1170876E-2,1.9607255E-2,-5.6739587E-2,-3.4706045E-2,6.0814448E-2,-1.5018013E-2,-5.371367E-2,-5.1497016E-2,-8.9276405E-3,4.2579114E-2,3.5075792E-3,-5.379262E-2,2.5179602E-2],"split_indices":[7,36,36,0,8,48,43,7,14,24,8,23,0,38,0,40,36,38,34,0,27,7,40,0,0,0,0,0,0,0,0,0,0,0,0,0,0,0,0,0,0],"split_type":[0,0,0,0,0,0,0,0,0,0,0,0,0,0,0,0,0,0,0,0,0,0,0,0,0,0,0,0,0,0,0,0,0,0,0,0,0,0,0,0,0],"sum_hessian":[6.9159644E2,3.5090866E2,3.4068777E2,2.3891675E0,3.485195E2,2.8846243E2,5.2225334E1,2.4668912E2,1.0183039E2,4.7624397E1,2.4083804E2,4.595451E1,6.270823E0,2.349165E2,1.1772613E1,9.349259E1,8.337795E0,4.872168E0,4.2752228E1,1.2771473E0,2.395609E2,3.6901234E1,9.053277E0,2.1059825E2,2.431825E1,9.792406E0,1.9802064E0,9.213892E1,1.3536724E0,4.6671925E0,3.670603E0,1.3196411E0,3.5525272E0,2.5740526E1,1.7011703E1,2.3201619E2,7.5447035E0,1.40061E1,2.2895134E1,5.747191E0,3.3060865E0],"tree_param":{"num_deleted":"0","num_feature":"55","num_nodes":"41","size_leaf_vector":"1"}},{"base_weights":[1.7835293E-2,9.3501043E-1,-1.0457368E0,1.0623438E0,6.1844647E-1,-1.2290158E0,-1.8830964E-1,1.1383418E0,6.845601E-1,1.2827897E0,4.5016465E-1,2.3164457E-2,-1.2734406E0,2.6643085E-1,-6.8404186E-1,-9.142003E-3,1.1518246E0,1.7724736E-1,1.1060783E0,1.37630785E-2,1.3324728E0,5.1911324E-1,-5.2676972E-2,-4.7236092E-2,9.7758603E-1,-1.3326931E0,-4.375847E-1,-1.8774271E-1,9.4628346E-1,2.0830928E-1,-5.705039E-2,4.7718566E-2,2.4410537E-2,1.9689923E-2,-6.3411586E-2,5.5543426E-2,-0E0,1.5627954E-2,5.562714E-2,-1.7042434E-3,2.9461622E-2,5.9596784E-2,-2.8688176E-2,2.8906336E-2,-5.3860158E-2,3.8512237E-2,-4.108509E-2,1.8694572E-2,-5.386807E-2,-3.5148457E-2,4.9344845E-2,-1.1546626E-2,5.493493E-2],"categories":[],"categories_nodes":[],"categories_segments":[],"categories_sizes":[],"default_left":[0,0,0,0,0,0,0,0,0,0,0,0,0,0,0,0,0,0,0,0,0,0,0,0,0,0,0,0,0,0,0,0,0,0,0,0,0,0,0,0,0,0,0,0,0,0,0,0,0,0,0,0,0],"id":16,"left_children":[1,3,5,7,9,11,13,15,17,19,21,23,25,27,29,-1,31,33,35,-1,37,39,-1,-1,41,43,45,47,49,51,-1,-1,-1,-1,-1,-1,-1,-1,-1,-1,-1,-1,-1,-1,-1,-1,-1,-1,-1,-1,-1,-1,-1],"loss_changes":[6.641939E2,1.39140625E1,4.9167023E1,6.4787292E0,1.1268196E1,1.4587097E1,1.3027242E1,4.299774E0,9.540091E0,3.564186E-1,1.1257341E1,1.2389658E1,1.16539E1,9.5897E0,1.867123E1,0E0,3.818573E0,1.3014787E1,7.6981277E0,0E0,3.5069275E-1,1.0473261E1,0E0,0E0,6.4051313E0,7.6625366E0,1.6015266E1,1.5046673E1,7.602722E0,8.220133E0,0E0,0E0,0E0,0E0,0E0,0E0,0E0,0E0,0E0,0E0,0E0,0E0,0E0,0E0,0E0,0E0,0E0,0E0,0E0,0E0,0E0,0E0,0E0],"parents":[2147483647,0,0,1,1,2,2,3,3,4,4,5,5,6,6,7,7,8,8,9,9,10,10,11,11,12,12,13,13,14,14,16,16,17,17,18,18,20,20,21,21,24,24,25,25,26,26,27,27,28,28,29,29],"right_children":[2,4,6,8,10,12,14,16,18,20,22,24,26,28,30,-1,32,34,36,-1,38,40,-1,-1,42,44,46,48,50,52,-1,-1,-1,-1,-1,-1,-1,-1,-1,-1,-1,-1,-1,-1,-1,-1,-1,-1,-1,-1,-1,-1,-1],"split_conditions":[6E0,4.11E-1,1.775457E-1,1.34E2,3.3225E-1,6E0,1.12E2,7.186889E1,3.2193332E2,1.5866667E1,8.494667E-1,1.3125E0,7.7192535E1,9.167331E-2,2E0,-9.142003E-3,2E0,4E0,3.286E2,1.37630785E-2,9.483665E-1,1.5333333E0,-5.2676972E-2,-4.7236092E-2,1.053E0,3.2333333E-2,9.6E-1,5.0666666E0,3.6666667E0,2.8E-1,-5.705039E-2,4.7718566E-2,2.4410537E-2,1.9689923E-2,-6.3411586E-2,5.5543426E-2,-0E0,1.5627954E-2,5.562714E-2,-1.7042434E-3,2.9461622E-2,5.9596784E-2,-2.8688176E-2,2.8906336E-2,-5.3860158E-2,3.8512237E-2,-4.108509E-2,1.8694572E-2,-5.386807E-2,-3.5148457E-2,4.9344845E-2,-1.1546626E-2,5.493493E-2],"split_indices":[7,8,46,42,16,12,42,24,23,41,21,32,49,31,27,0,11,7,23,0,26,30,0,0,8,20,16,14,40,44,0,0,0,0,0,0,0,0,0,0,0,0,0,0,0,0,0,0,0,0,0,0,0],"split_type":[0,0,0,0,0,0,0,0,0,0,0,0,0,0,0,0,0,0,0,0,0,0,0,0,0,0,0,0,0,0,0,0,0,0,0,0,0,0,0,0,0,0,0,0,0,0,0,0,0,0,0,0,0],"sum_hessian":[6.788969E2,3.6465247E2,3.1424445E2,2.5814542E2,1.06507065E2,2.5844962E2,5.5794823E1,2.1301558E2,4.512983E1,2.0067486E1,8.643958E1,8.794362E0,2.4965527E2,2.9236603E1,2.655822E1,1.8523735E0,2.1116321E2,2.1232935E1,2.3896893E1,1.5082769E0,1.855921E1,8.39277E1,2.5118833E0,3.73736E0,5.057002E0,2.3246233E2,1.7192944E1,1.7873213E1,1.1363391E1,1.2324897E1,1.4233324E1,1.949652E2,1.6198004E1,1.8673126E1,2.55981E0,1.878934E1,5.1075525E0,1.6291882E0,1.6930021E1,2.3516748E1,6.041095E1,4.0212646E0,1.0357376E0,1.1606848E0,2.3130164E2,4.8557954E0,1.2337148E1,1.174484E1,6.1283727E0,1.2184426E0,1.0144949E1,9.106701E0,3.218196E0],"tree_param":{"num_deleted":"0","num_feature":"55","num_nodes":"53","size_leaf_vector":"1"}},{"base_weights":[5.747447E-4,8.875533E-1,-9.9930906E-1,1.0428247E0,6.210877E-1,2.8000337E-1,-1.1278802E0,1.0975184E0,4.4599986E-1,7.561612E-1,3.8976185E-2,6.0311484E-1,-5.0738804E-2,-6.163124E-1,-1.2323852E0,8.0782026E-2,1.1235839E0,7.0733756E-1,-5.3592447E-2,-1.380511E-1,8.5925055E-1,6.587317E-1,-6.820808E-1,8.270142E-1,-4.3572348E-2,-2.4281731E-1,-5.2910775E-2,-1.2456585E0,3.281009E-2,-6.532718E-2,3.5270914E-2,4.6582554E-2,2.5361717E-2,5.7397026E-4,4.2699754E-2,2.3463933E-2,-7.187225E-2,3.7687805E-2,-8.839844E-3,4.162227E-2,-5.6076836E-2,1.0758099E-2,-6.474074E-2,-1.4036645E-2,3.94185E-2,-3.8524594E-2,1.7795738E-2,-5.215152E-2,-2.6043443E-2],"categories":[],"categories_nodes":[],"categories_segments":[],"categories_sizes":[],"default_left":[0,0,0,0,0,0,0,0,0,0,0,0,0,0,0,0,0,0,0,0,0,0,0,0,0,0,0,0,0,0,0,0,0,0,0,0,0,0,0,0,0,0,0,0,0,0,0,0,0],"id":17,"left_children":[1,3,5,7,9,11,13,15,17,19,21,23,-1,25,27,29,31,33,-1,35,37,39,41,43,-1,45,-1,47,-1,-1,-1,-1,-1,-1,-1,-1,-1,-1,-1,-1,-1,-1,-1,-1,-1,-1,-1,-1,-1],"loss_changes":[5.8953503E2,1.3762726E1,5.179016E1,6.56662E0,1.0303032E1,1.5339171E1,1.424765E1,5.129196E0,1.0396495E1,1.0080929E1,1.2125643E1,1.0325758E1,0E0,1.2811892E1,7.4616394E0,9.890807E0,3.0198212E0,4.489547E0,0E0,1.5420654E1,8.921089E0,1.2939518E1,1.1699348E1,4.636305E0,0E0,1.7453709E1,0E0,7.0341797E0,0E0,0E0,0E0,0E0,0E0,0E0,0E0,0E0,0E0,0E0,0E0,0E0,0E0,0E0,0E0,0E0,0E0,0E0,0E0,0E0,0E0],"parents":[2147483647,0,0,1,1,2,2,3,3,4,4,5,5,6,6,7,7,8,8,9,9,10,10,11,11,13,13,14,14,15,15,16,16,17,17,19,19,20,20,21,21,22,22,23,23,25,25,27,27],"right_children":[2,4,6,8,10,12,14,16,18,20,22,24,-1,26,28,30,32,34,-1,36,38,40,42,44,-1,46,-1,48,-1,-1,-1,-1,-1,-1,-1,-1,-1,-1,-1,-1,-1,-1,-1,-1,-1,-1,-1,-1,-1],"split_conditions":[6E0,6.2E0,5.6E0,5E0,1.562E0,2.024E3,8E0,7.724286E1,1.34E2,4E0,6.4E0,1.36E1,-5.0738804E-2,1.053E0,2.21E2,1.3333334E-1,1.0166667E1,2E0,-5.3592447E-2,6.1666665E0,2E0,4E0,3.2E0,9.8628205E-1,-4.3572348E-2,8.3E-1,-5.2910775E-2,4E0,3.281009E-2,-6.532718E-2,3.5270914E-2,4.6582554E-2,2.5361717E-2,5.7397026E-4,4.2699754E-2,2.3463933E-2,-7.187225E-2,3.7687805E-2,-8.839844E-3,4.162227E-2,-5.6076836E-2,1.0758099E-2,-6.474074E-2,-1.4036645E-2,3.94185E-2,-3.8524594E-2,1.7795738E-2,-5.215152E-2,-2.6043443E-2],"split_indices":[7,40,40,7,16,3,12,24,42,2,35,12,0,8,45,38,17,18,0,17,11,5,12,26,0,8,0,27,0,0,0,0,0,0,0,0,0,0,0,0,0,0,0,0,0,0,0,0,0],"split_type":[0,0,0,0,0,0,0,0,0,0,0,0,0,0,0,0,0,0,0,0,0,0,0,0,0,0,0,0,0,0,0,0,0,0,0,0,0,0,0,0,0,0,0,0,0,0,0,0,0],"sum_hessian":[6.627452E2,3.5131366E2,3.1143152E2,2.1989212E2,1.3142152E2,2.8262056E1,2.8316946E2,2.0051062E2,1.9381504E1,1.06287674E2,2.5133852E1,2.394142E1,4.3206353E0,4.9366585E1,2.3380289E2,5.2102523E0,1.9530037E2,1.7482939E1,1.8985646E0,1.0851447E1,9.5436226E1,1.363745E1,1.1496401E1,2.1647936E1,2.2934854E0,3.3265034E1,1.610155E1,2.3273973E2,1.0631512E0,1.2887623E0,3.9214902E0,1.7875357E2,1.65468E1,6.4294095E0,1.105353E1,7.960063E0,2.891384E0,8.883553E1,6.6006923E0,1.196414E1,1.6733112E0,6.00441E0,5.491991E0,2.3478453E0,1.9300089E1,1.6123E1,1.7142035E1,2.1077217E2,2.1967558E1],"tree_param":{"num_deleted":"0","num_feature":"55","num_nodes":"49","size_leaf_vector":"1"}},{"base_weights":[-9.129197E-4,8.470343E-1,-9.46538E-1,1.0031879E0,5.0138444E-1,-1.1282175E0,6.460532E-2,-4.3413114E-2,1.0240033E0,2.4844486E-1,9.9520487E-1,-6.15394E-1,-1.2642976E0,2.7409786E-1,-5.0677683E-2,-1.8885575E-2,1.0373695E0,3.9539215E-1,-9.7676176E-1,5.143993E-1,1.232365E0,9.60944E-1,-7.713362E-1,-1.3190932E0,-3.8610634E-1,5.472447E-1,-6.317733E-1,4.8401523E-2,3.6147766E-2,2.5550868E-2,-1.1357508E-2,-6.627322E-2,1.5345311E-2,-5.3017676E-2,3.2656413E-2,5.3700645E-2,6.224192E-3,6.7433417E-3,5.9207786E-2,-3.7741736E-2,1.6510664E-2,2.607609E-2,-5.3461723E-2,7.129329E-2,-3.7300397E-2,-3.0573167E-2,2.9047778E-2,-5.1702037E-2,1.7961843E-2],"categories":[],"categories_nodes":[],"categories_segments":[],"categories_sizes":[],"default_left":[0,0,0,0,0,0,0,0,0,0,0,0,0,0,0,0,0,0,0,0,0,0,0,0,0,0,0,0,0,0,0,0,0,0,0,0,0,0,0,0,0,0,0,0,0,0,0,0,0],"id":18,"left_children":[1,3,5,7,9,11,13,-1,15,17,19,21,23,25,-1,-1,27,29,31,33,35,37,39,41,43,45,47,-1,-1,-1,-1,-1,-1,-1,-1,-1,-1,-1,-1,-1,-1,-1,-1,-1,-1,-1,-1,-1,-1],"loss_changes":[5.324742E2,1.8240509E1,5.7862213E1,1.1535522E1,1.3509233E1,1.7618622E1,1.3829309E1,0E0,5.308136E0,1.3823013E1,3.4303627E0,1.4967424E1,9.394928E0,1.09660845E1,0E0,0E0,4.1513367E0,1.14121065E1,8.3884735E0,8.885581E0,2.4925156E0,1.8913832E0,1.1320362E1,7.699646E0,1.7948227E1,8.443164E0,8.043002E0,0E0,0E0,0E0,0E0,0E0,0E0,0E0,0E0,0E0,0E0,0E0,0E0,0E0,0E0,0E0,0E0,0E0,0E0,0E0,0E0,0E0,0E0],"parents":[2147483647,0,0,1,1,2,2,3,3,4,4,5,5,6,6,8,8,9,9,10,10,11,11,12,12,13,13,16,16,17,17,18,18,19,19,20,20,21,21,22,22,23,23,24,24,25,25,26,26],"right_children":[2,4,6,8,10,12,14,-1,16,18,20,22,24,26,-1,-1,28,30,32,34,36,38,40,42,44,46,48,-1,-1,-1,-1,-1,-1,-1,-1,-1,-1,-1,-1,-1,-1,-1,-1,-1,-1,-1,-1,-1,-1],"split_conditions":[6E0,4E0,8.2E0,2.2666667E0,1.0236301E-1,8.4E0,4E0,-4.3413114E-2,6.3464E1,1.7255E0,7.722E-1,3.125E0,7.086E0,3.2233334E2,-5.0677683E-2,-1.8885575E-2,3.1E-2,2.9446667E-1,1.38E1,-1.8134034E-1,4.0306666E-1,3E0,1.6333334E1,5.4194E1,7.724286E1,1.20466664E-1,3.3046667E2,4.8401523E-2,3.6147766E-2,2.5550868E-2,-1.1357508E-2,-6.627322E-2,1.5345311E-2,-5.3017676E-2,3.2656413E-2,5.3700645E-2,6.224192E-3,6.7433417E-3,5.9207786E-2,-3.7741736E-2,1.6510664E-2,2.607609E-2,-5.3461723E-2,7.129329E-2,-3.7300397E-2,-3.0573167E-2,2.9047778E-2,-5.1702037E-2,1.7961843E-2],"split_indices":[7,7,36,36,33,12,43,0,9,16,13,17,8,23,0,0,8,20,36,31,20,5,17,9,24,20,23,0,0,0,0,0,0,0,0,0,0,0,0,0,0,0,0,0,0,0,0,0,0],"split_type":[0,0,0,0,0,0,0,0,0,0,0,0,0,0,0,0,0,0,0,0,0,0,0,0,0,0,0,0,0,0,0,0,0,0,0,0,0,0,0,0,0,0,0,0,0,0,0,0,0],"sum_hessian":[6.6205304E2,3.4905344E2,3.129996E2,2.3892369E2,1.1012974E2,2.6531216E2,4.768745E1,1.8056778E0,2.3711801E2,7.3954926E1,3.6174812E1,5.6950188E1,2.0836197E2,4.195579E1,5.731659E0,1.7294396E0,2.3538857E2,6.671255E1,7.242382E0,1.3135422E1,2.303939E1,4.6042986E0,5.234589E1,1.955448E2,1.2817167E1,3.2624752E1,9.331041E0,9.8873436E1,1.3651514E2,4.9268364E1,1.7444181E1,4.7322884E0,2.5100937E0,1.3276411E0,1.180778E1,2.0593063E1,2.4463274E0,2.4234464E0,2.1808522E0,4.5950756E1,6.3951335E0,1.3466656E0,1.9419814E2,2.0875678E0,1.07296E1,3.4570472E0,2.9167704E1,5.7266054E0,3.6044362E0],"tree_param":{"num_deleted":"0","num_feature":"55","num_nodes":"49","size_leaf_vector":"1"}},{"base_weights":[-4.960575E-3,7.9231167E-1,-8.7943816E-1,9.0729845E-1,5.4832038E-2,-1.1179065E0,-1.0822722E-2,9.907762E-1,3.3989802E-1,-9.507777E-1,5.3568107E-1,4.5552248E-1,-1.1470249E0,8.819542E-1,-3.8657665E-1,1.010438E0,-2.4314119E-1,7.280228E-2,1.0631651E0,5.039042E-1,-1.6673114E0,7.3291725E-1,-4.9599316E-2,-3.4247573E-2,5.6802176E-2,6.660146E-1,-1.1724797E0,-3.6930185E-2,1.0348226E0,-9.259599E-1,1.963426E-1,4.4145703E-2,3.247477E-2,2.3461359E-2,-5.241951E-2,1.6090615E-2,-2.422896E-2,5.3471513E-2,2.7850578E-3,4.1107107E-2,-1.2295022E-2,-7.640502E-2,4.343679E-3,-5.024524E-2,3.423753E-2,3.3795442E-2,8.83276E-3,2.0955872E-2,-4.789213E-2,4.7825914E-2,-0E0,-7.4302587E-3,-5.495849E-2,3.310796E-2,-2.1540381E-2],"categories":[],"categories_nodes":[],"categories_segments":[],"categories_sizes":[],"default_left":[0,0,0,0,0,0,0,0,0,0,0,0,0,0,0,0,0,0,0,0,0,0,0,0,0,0,0,0,0,0,0,0,0,0,0,0,0,0,0,0,0,0,0,0,0,0,0,0,0,0,0,0,0,0,0],"id":19,"left_children":[1,3,5,7,9,11,13,15,17,19,21,23,25,27,29,31,33,35,37,39,41,43,-1,-1,-1,45,47,-1,49,51,53,-1,-1,-1,-1,-1,-1,-1,-1,-1,-1,-1,-1,-1,-1,-1,-1,-1,-1,-1,-1,-1,-1,-1,-1],"loss_changes":[4.4620157E2,2.8237762E1,6.3107788E1,1.3236832E1,2.2870514E1,1.1560608E1,2.2719185E1,6.426285E0,7.302563E0,1.6883518E1,1.208274E1,7.602618E0,1.1695862E1,6.4938717E0,1.5292218E1,3.5008087E0,4.978665E0,6.8187394E0,2.5628662E0,2.83743E0,4.922083E0,8.25973E0,0E0,0E0,0E0,1.2869358E-2,1.0488068E1,0E0,3.0951939E0,7.9139214E0,1.1480344E1,0E0,0E0,0E0,0E0,0E0,0E0,0E0,0E0,0E0,0E0,0E0,0E0,0E0,0E0,0E0,0E0,0E0,0E0,0E0,0E0,0E0,0E0,0E0,0E0],"parents":[2147483647,0,0,1,1,2,2,3,3,4,4,5,5,6,6,7,7,8,8,9,9,10,10,11,11,12,12,13,13,14,14,15,15,16,16,17,17,18,18,19,19,20,20,21,21,25,25,26,26,28,28,29,29,30,30],"right_children":[2,4,6,8,10,12,14,16,18,20,22,24,26,28,30,32,34,36,38,40,42,44,-1,-1,-1,46,48,-1,50,52,54,-1,-1,-1,-1,-1,-1,-1,-1,-1,-1,-1,-1,-1,-1,-1,-1,-1,-1,-1,-1,-1,-1,-1,-1],"split_conditions":[5.6E0,4.2E0,1.6368286E-1,1.75E2,2E0,1.6360205E1,3.75E0,5.7233334E-1,4.04E2,6E0,1.075E1,3.4E1,2.9E-1,2.4666667E0,1.9E0,6.1666665E0,3.0266666E2,3.2E0,9.933333E0,1.805E1,3E-1,1.3266666E-1,-4.9599316E-2,-3.4247573E-2,5.6802176E-2,2E0,2.7773333E-1,-3.6930185E-2,2.8E1,1.3666667E0,3.1286667E2,4.4145703E-2,3.247477E-2,2.3461359E-2,-5.241951E-2,1.6090615E-2,-2.422896E-2,5.3471513E-2,2.7850578E-3,4.1107107E-2,-1.2295022E-2,-7.640502E-2,4.343679E-3,-5.024524E-2,3.423753E-2,3.3795442E-2,8.83276E-3,2.0955872E-2,-4.789213E-2,4.7825914E-2,-0E0,-7.4302587E-3,-5.495849E-2,3.310796E-2,-2.1540381E-2],"split_indices":[12,12,46,42,18,48,17,20,42,2,17,0,8,34,30,17,23,12,35,47,44,20,0,0,0,1,13,0,2,30,23,0,0,0,0,0,0,0,0,0,0,0,0,0,0,0,0,0,0,0,0,0,0,0,0],"split_type":[0,0,0,0,0,0,0,0,0,0,0,0,0,0,0,0,0,0,0,0,0,0,0,0,0,0,0,0,0,0,0,0,0,0,0,0,0,0,0,0,0,0,0,0,0,0,0,0,0,0,0,0,0,0,0],"sum_hessian":[6.3798193E2,3.3371204E2,3.0426987E2,2.8838205E2,4.5330006E1,2.3841397E2,6.58559E1,2.505918E2,3.779025E1,1.4280221E1,3.1049784E1,4.003523E0,2.3441045E2,1.9029427E1,4.6826477E1,2.4691942E2,3.6723728E0,2.8503202E1,9.287047E0,4.7645607E0,9.51566E0,2.8524874E1,2.5249093E0,1.7001115E0,2.3034112E0,2.8427243E0,2.3156772E2,1.0411301E0,1.7988297E1,2.4104923E1,2.2721554E1,1.6459833E2,8.232109E1,2.2669783E0,1.4053946E0,1.956016E1,8.943044E0,6.9318643E0,2.3551831E0,2.808123E0,1.9564377E0,8.354151E0,1.1615093E0,1.0776391E0,2.7447235E1,1.2272365E0,1.6154879E0,2.9916654E0,2.2857605E2,1.5388776E1,2.5995214E0,9.706081E0,1.4398843E1,1.2226638E1,1.0494916E1],"tree_param":{"num_deleted":"0","num_feature":"55","num_nodes":"55","size_leaf_vector":"1"}},{"base_weights":[-3.8588277E-4,7.3163545E-1,-1.0004383E0,8.9796525E-1,1.1734612E-1,-1.1481199E0,-2.5668406E-1,9.765932E-1,4.972358E-1,4.4575763E-1,-1.1401731E0,-1.213286E0,-2.543227E-1,1.3795055E-1,-1.1094873E0,1.0594128E0,7.82619E-1,-5.964467E-2,6.0676336E-1,6.645902E-1,-3.191975E-1,2.7682828E-2,-1.3237997E0,7.659737E-2,-1.2434897E0,9.295517E-1,-9.002743E-1,-2.802978E-1,1.4985304E0,-5.5362284E-2,3.562526E-2,4.3656148E-2,2.0161962E-2,3.29793E-2,-2.6839942E-2,2.9568417E-2,-2.8806888E-2,-2.0081275E-3,3.3941858E-2,1.4835364E-2,-5.6529384E-2,-6.115565E-2,2.8666578E-2,5.0760575E-2,-4.131856E-2,-5.0483912E-2,1.253107E-2,8.06053E-2,-3.673636E-2,-4.8596654E-2,3.5622742E-2,4.3922205E-2,-2.6864836E-2,1.029884E-2,7.046311E-2],"categories":[],"categories_nodes":[],"categories_segments":[],"categories_sizes":[],"default_left":[0,0,0,0,0,0,0,0,0,0,0,0,0,0,0,0,0,0,0,0,0,0,0,0,0,0,0,0,0,0,0,0,0,0,0,0,0,0,0,0,0,0,0,0,0,0,0,0,0,0,0,0,0,0,0],"id":20,"left_children":[1,3,5,7,9,11,13,15,17,19,21,23,25,27,29,31,33,-1,35,37,39,-1,41,43,45,47,49,51,53,-1,-1,-1,-1,-1,-1,-1,-1,-1,-1,-1,-1,-1,-1,-1,-1,-1,-1,-1,-1,-1,-1,-1,-1,-1,-1],"loss_changes":[4.6545508E2,3.729361E1,2.9084564E1,8.458588E0,3.326349E1,1.2581787E1,1.5705723E1,2.8417358E0,1.1612708E1,1.0927421E1,6.5902805E0,8.325226E0,1.3512976E1,1.8868383E1,9.365343E0,2.2214203E0,5.1928062E0,0E0,8.9254E0,6.7020035E0,1.177677E1,0E0,7.684639E0,8.784626E0,6.3888245E0,1.4579332E1,7.475814E0,1.44053135E1,1.8863335E0,0E0,0E0,0E0,0E0,0E0,0E0,0E0,0E0,0E0,0E0,0E0,0E0,0E0,0E0,0E0,0E0,0E0,0E0,0E0,0E0,0E0,0E0,0E0,0E0,0E0,0E0],"parents":[2147483647,0,0,1,1,2,2,3,3,4,4,5,5,6,6,7,7,8,8,9,9,10,10,11,11,12,12,13,13,14,14,15,15,16,16,18,18,19,19,20,20,22,22,23,23,24,24,25,25,26,26,27,27,28,28],"right_children":[2,4,6,8,10,12,14,16,18,20,22,24,26,28,30,32,34,-1,36,38,40,-1,42,44,46,48,50,52,54,-1,-1,-1,-1,-1,-1,-1,-1,-1,-1,-1,-1,-1,-1,-1,-1,-1,-1,-1,-1,-1,-1,-1,-1,-1,-1],"split_conditions":[7E0,5E0,1.6368286E-1,1.341E0,1.546E0,8.016115E1,1.0097129E-2,6.2E0,1.407E0,4E0,-9.017209E-1,5.6E0,4.472E-1,-2.8653594E-3,2.74E2,2.0233917E0,1.1140618E2,-5.964467E-2,5E0,3.4E1,2.022E3,2.7682828E-2,2.3333333E0,8.865933E1,1.2177675E2,1.4666667E0,6.7334133E-1,3.4E0,7.902667E-1,-5.5362284E-2,3.562526E-2,4.3656148E-2,2.0161962E-2,3.29793E-2,-2.6839942E-2,2.9568417E-2,-2.8806888E-2,-2.0081275E-3,3.3941858E-2,1.4835364E-2,-5.6529384E-2,-6.115565E-2,2.8666578E-2,5.0760575E-2,-4.131856E-2,-5.0483912E-2,1.253107E-2,8.06053E-2,-3.673636E-2,-4.8596654E-2,3.5622742E-2,4.3922205E-2,-2.6864836E-2,1.029884E-2,7.046311E-2],"split_indices":[7,7,46,16,16,49,33,40,16,43,31,12,22,33,45,32,24,0,43,6,3,0,30,24,24,36,31,17,13,0,0,0,0,0,0,0,0,0,0,0,0,0,0,0,0,0,0,0,0,0,0,0,0,0,0],"split_type":[0,0,0,0,0,0,0,0,0,0,0,0,0,0,0,0,0,0,0,0,0,0,0,0,0,0,0,0,0,0,0,0,0,0,0,0,0,0,0,0,0,0,0,0,0,0,0,0,0,0,0,0,0,0,0],"sum_hessian":[6.337791E2,3.660241E2,2.67755E2,2.8754233E2,7.8481804E1,2.2283102E2,4.4923977E1,2.3896744E2,4.8574883E1,6.2804848E1,1.5676956E1,2.0725114E2,1.5579871E1,3.1204895E1,1.3719084E1,1.6397792E2,7.498951E1,1.8297993E0,4.6745083E1,4.903828E1,1.3766568E1,1.1261957E0,1.455076E1,4.6310186E0,2.0262013E2,5.290253E0,1.02896185E1,2.4418903E1,6.7859917E0,1.2377895E1,1.3411881E0,1.5396382E2,1.0014102E1,7.337786E1,1.6116477E0,4.2973953E1,3.7711313E0,1.0074722E1,3.896356E1,8.791057E0,4.9755116E0,1.3494156E1,1.0566047E0,2.2063396E0,2.424679E0,2.0047734E2,2.1427927E0,3.3096542E0,1.9805987E0,9.072977E0,1.2166415E0,4.9438143E0,1.9475088E1,1.5993254E0,5.1866665E0],"tree_param":{"num_deleted":"0","num_feature":"55","num_nodes":"55","size_leaf_vector":"1"}},{"base_weights":[3.4834106E-2,8.1084347E-1,-8.7998533E-1,9.4901246E-1,5.372023E-1,-1.036458E0,1.9349253E-1,6.8136654E-3,9.73629E-1,6.234933E-1,-2.7515548E-1,-4.876856E-1,-1.1728743E0,9.4999593E-1,-2.2086716E-1,4.0862802E-2,-1.2273037E0,3.3158386E-1,1.0013828E0,7.641128E-2,7.5420916E-1,3.7706576E-2,-7.879996E-1,1.9393991E-1,-9.1796565E-1,-1.204779E0,-1.7284232E-1,-3.3825365E-1,1.2557569E0,4.4456404E-1,-7.971842E-1,-0E0,-7.281928E-2,2.869237E-2,-6.260041E-2,1.5322713E-2,4.09018E-2,2.9214138E-2,-3.363635E-2,-0E0,3.2221414E-2,6.061691E-3,-5.8198728E-2,-5.0544534E-2,2.7195381E-2,3.5824597E-2,-4.8542026E-2,-5.003598E-2,-1.4856598E-2,-4.2125013E-2,3.460828E-2,-3.5062775E-2,1.6286923E-2,1.2757575E-2,5.9810266E-2,4.589984E-2,-4.660386E-2,-5.3673133E-2,1.8045144E-2],"categories":[],"categories_nodes":[],"categories_segments":[],"categories_sizes":[],"default_left":[0,0,0,0,0,0,0,0,0,0,0,0,0,0,0,0,0,0,0,0,0,0,0,0,0,0,0,0,0,0,0,0,0,0,0,0,0,0,0,0,0,0,0,0,0,0,0,0,0,0,0,0,0,0,0,0,0,0,0],"id":21,"left_children":[1,3,5,7,9,11,13,15,17,19,21,23,25,27,29,-1,31,33,35,37,39,-1,41,43,45,47,49,51,53,55,57,-1,-1,-1,-1,-1,-1,-1,-1,-1,-1,-1,-1,-1,-1,-1,-1,-1,-1,-1,-1,-1,-1,-1,-1,-1,-1,-1,-1],"loss_changes":[4.4843558E2,1.2264984E1,4.8975082E1,5.12735E0,8.424137E0,1.8219574E1,1.2081182E1,9.816772E0,3.4500122E0,7.4675713E0,8.121638E0,1.5582227E1,6.0976562E0,5.8712034E0,9.994289E0,0E0,2.6411624E0,8.901379E0,2.2152557E0,1.3667266E1,3.2996826E0,0E0,5.948954E0,1.5649948E1,1.84392E1,6.885437E0,7.7910347E0,1.7411737E0,1.8683949E0,1.5122447E1,1.0117336E1,0E0,0E0,0E0,0E0,0E0,0E0,0E0,0E0,0E0,0E0,0E0,0E0,0E0,0E0,0E0,0E0,0E0,0E0,0E0,0E0,0E0,0E0,0E0,0E0,0E0,0E0,0E0,0E0],"parents":[2147483647,0,0,1,1,2,2,3,3,4,4,5,5,6,6,7,7,8,8,9,9,10,10,11,11,12,12,13,13,14,14,16,16,17,17,18,18,19,19,20,20,22,22,23,23,24,24,25,25,26,26,27,27,28,28,29,29,30,30],"right_children":[2,4,6,8,10,12,14,16,18,20,22,24,26,28,30,-1,32,34,36,38,40,-1,42,44,46,48,50,52,54,56,58,-1,-1,-1,-1,-1,-1,-1,-1,-1,-1,-1,-1,-1,-1,-1,-1,-1,-1,-1,-1,-1,-1,-1,-1,-1,-1,-1,-1],"split_conditions":[6E0,4E0,1.2E2,1.4329231E-1,9.6E0,3.2073334E-1,7.6E1,-3.7937143E-1,1.7327358E1,9E0,-1.012979E0,-1.6222472E-1,5E0,2.9E1,5.1666665E0,4.0862802E-2,-5.0625217E-1,1.0166667E1,3.034E2,7.3333335E0,6.645E-1,3.7706576E-2,9.2286095E1,5.8E0,2.5E0,1.775457E-1,1.3266666E1,9.1E0,1.1666666E0,5.5333333E0,8.733334E0,-0E0,-7.281928E-2,2.869237E-2,-6.260041E-2,1.5322713E-2,4.09018E-2,2.9214138E-2,-3.363635E-2,-0E0,3.2221414E-2,6.061691E-3,-5.8198728E-2,-5.0544534E-2,2.7195381E-2,3.5824597E-2,-4.8542026E-2,-5.003598E-2,-1.4856598E-2,-4.2125013E-2,3.460828E-2,-3.5062775E-2,1.6286923E-2,1.2757575E-2,5.9810266E-2,4.589984E-2,-4.660386E-2,-5.3673133E-2,1.8045144E-2],"split_indices":[7,7,45,26,14,20,6,33,47,2,31,31,27,0,17,0,31,17,23,17,26,0,24,35,17,46,35,12,30,35,35,0,0,0,0,0,0,0,0,0,0,0,0,0,0,0,0,0,0,0,0,0,0,0,0,0,0,0,0],"split_type":[0,0,0,0,0,0,0,0,0,0,0,0,0,0,0,0,0,0,0,0,0,0,0,0,0,0,0,0,0,0,0,0,0,0,0,0,0,0,0,0,0,0,0,0,0,0,0,0,0,0,0,0,0,0,0,0,0,0,0],"sum_hessian":[6.296854E2,3.4081064E2,2.888748E2,2.2458032E2,1.16230316E2,2.5223593E2,3.663886E1,5.8540864E0,2.1872624E2,1.0539096E2,1.083935E1,5.127523E1,2.0096071E2,1.2594154E1,2.4044704E1,3.3515341E0,2.5025523E0,9.748952E0,2.089773E2,2.0778166E1,8.46128E1,2.905865E0,7.9334846E0,1.996487E1,3.1310362E1,1.9445224E2,6.5084734E0,2.3326745E0,1.0261479E1,1.1185139E1,1.2859566E1,1.1137171E0,1.3888353E0,8.661841E0,1.0871105E0,7.7041745E0,2.0127312E2,1.2313154E1,8.465012E0,5.477241E0,7.913556E1,3.5523028E0,4.3811817E0,4.5403457E0,1.5424523E1,4.056032E0,2.725433E1,1.8366663E2,1.0785607E1,3.5661395E0,2.942334E0,1.3302476E0,1.002427E0,2.648997E0,7.6124825E0,8.02841E0,3.1567283E0,8.956849E0,3.9027166E0],"tree_param":{"num_deleted":"0","num_feature":"55","num_nodes":"59","size_leaf_vector":"1"}},{"base_weights":[4.29682E-2,7.9081076E-1,-8.618703E-1,8.4257334E-1,-0E0,-9.809757E-1,6.867209E-1,8.8673764E-1,-8.3666025E-3,-8.16048E-1,1.0252302E0,-4.179166E-1,-1.0887771E0,9.318905E-1,-4.088056E-2,9.506377E-1,4.90788E-1,-4.6659955E-1,4.3964237E-2,-1.3877211E0,5.568786E-1,-2.4937436E-3,4.880139E-2,1.1088715E0,-6.1813104E-1,-3.0791813E-1,-1.196656E0,1.1138293E0,-3.1241555E-2,3.8866375E-2,1.3111839E-2,2.625832E-2,-5.14461E-2,-3.9809763E-2,3.5811752E-2,-7.6984234E-2,3.808226E-2,3.7088484E-2,-9.4621786E-4,8.928291E-3,6.2172122E-2,3.0395852E-2,-3.3128735E-2,6.190113E-3,-5.491584E-2,1.2269209E-2,-4.9120083E-2,5.210344E-3,4.8782475E-2],"categories":[],"categories_nodes":[],"categories_segments":[],"categories_sizes":[],"default_left":[0,0,0,0,0,0,0,0,0,0,0,0,0,0,0,0,0,0,0,0,0,0,0,0,0,0,0,0,0,0,0,0,0,0,0,0,0,0,0,0,0,0,0,0,0,0,0,0,0],"id":22,"left_children":[1,3,5,7,9,11,13,15,17,19,21,23,25,27,-1,29,31,33,-1,35,37,-1,-1,39,41,43,45,47,-1,-1,-1,-1,-1,-1,-1,-1,-1,-1,-1,-1,-1,-1,-1,-1,-1,-1,-1,-1,-1],"loss_changes":[4.1976984E2,1.3858887E1,5.2471893E1,1.2073853E1,1.9196318E1,1.524263E1,9.562306E0,7.05896E0,8.876561E0,1.0854225E1,2.3511992E0,1.40034485E1,1.787622E1,6.6893997E0,0E0,2.9522247E0,1.385437E1,9.908746E0,0E0,1.3652039E1,1.0597973E0,0E0,0E0,1.5936079E0,1.20308075E1,1.4113974E1,9.4888E0,1.4999447E0,0E0,0E0,0E0,0E0,0E0,0E0,0E0,0E0,0E0,0E0,0E0,0E0,0E0,0E0,0E0,0E0,0E0,0E0,0E0,0E0,0E0],"parents":[2147483647,0,0,1,1,2,2,3,3,4,4,5,5,6,6,7,7,8,8,9,9,10,10,11,11,12,12,13,13,15,15,16,16,17,17,19,19,20,20,23,23,24,24,25,25,26,26,27,27],"right_children":[2,4,6,8,10,12,14,16,18,20,22,24,26,28,-1,30,32,34,-1,36,38,-1,-1,40,42,44,46,48,-1,-1,-1,-1,-1,-1,-1,-1,-1,-1,-1,-1,-1,-1,-1,-1,-1,-1,-1,-1,-1],"split_conditions":[5.2E0,3E0,4.1468254E-1,4.7246668E-1,1.6E1,2.6720959E1,1.592E0,4.2E0,1.0933333E1,2.7982525E1,3.1E1,7.724286E1,7.0333333E0,6.0666666E0,-4.088056E-2,4.2E1,1.7255E0,3.2493332E2,4.3964237E-2,1.41E2,3.6949055E1,-2.4937436E-3,4.880139E-2,3.3333334E-1,6.5E0,8.7241E1,1.2566666E-1,1.3157895E0,-3.1241555E-2,3.8866375E-2,1.3111839E-2,2.625832E-2,-5.14461E-2,-3.9809763E-2,3.5811752E-2,-7.6984234E-2,3.808226E-2,3.7088484E-2,-9.4621786E-4,8.928291E-3,6.2172122E-2,3.0395852E-2,-3.3128735E-2,6.190113E-3,-5.491584E-2,1.2269209E-2,-4.9120083E-2,5.210344E-3,4.8782475E-2],"split_indices":[12,11,46,20,36,48,16,12,36,47,0,24,40,14,0,0,16,23,0,6,48,0,0,38,12,9,21,32,0,0,0,0,0,0,0,0,0,0,0,0,0,0,0,0,0,0,0,0,0],"split_type":[0,0,0,0,0,0,0,0,0,0,0,0,0,0,0,0,0,0,0,0,0,0,0,0,0,0,0,0,0,0,0,0,0,0,0,0,0,0,0,0,0,0,0,0,0,0,0,0,0],"sum_hessian":[6.183435E2,3.3867093E2,2.7967258E2,3.1773978E2,2.0931166E1,2.6009894E2,1.9573645E1,3.0213428E2,1.5605508E1,1.1738936E1,9.192229E0,4.272833E1,2.173706E2,1.7566372E1,2.0072718E0,2.5872644E2,4.3407837E1,1.1511453E1,4.094055E0,8.331742E0,3.4071941E0,1.4216936E0,7.770536E0,4.369519E0,3.8358807E1,2.6965776E1,1.9040483E2,1.6248653E1,1.3177187E0,2.495821E2,9.144316E0,4.0334194E1,3.0736454E0,8.539379E0,2.9720733E0,6.9558377E0,1.375905E0,1.8207732E0,1.5864209E0,2.0396433E0,2.329876E0,4.6652117E0,3.3693596E1,1.9329168E1,7.6366086E0,3.644318E0,1.8676051E2,1.8856137E0,1.436304E1],"tree_param":{"num_deleted":"0","num_feature":"55","num_nodes":"49","size_leaf_vector":"1"}},{"base_weights":[5.7752132E-2,8.2840145E-1,-8.378071E-1,9.827881E-1,5.599881E-1,-1.030775E0,1.5147564E-1,6.7658566E-2,1.0147071E0,6.050335E-1,-5.6735676E-2,3.4887977E-2,-1.0560244E0,6.455873E-1,-2.7532762E-1,3.9946765E-2,-7.151052E-2,1.0419518E0,2.651718E-1,6.687029E-1,-4.350951E-1,-1.1760043E0,-6.499856E-1,-4.2088628E-2,8.8368076E-1,4.0867728E-1,-9.922858E-1,-1.2117119E-2,4.2192735E-2,-4.5404404E-2,3.6606852E-2,2.8122785E-2,-2.61734E-2,-5.2831586E-2,2.500027E-2,-4.8698448E-2,-8.197745E-3,2.5916178E-2,-3.7365623E-2,4.222872E-2,-3.607643E-2,3.8465798E-2,-4.4429116E-2,-4.9305413E-2,3.184815E-2],"categories":[],"categories_nodes":[],"categories_segments":[],"categories_sizes":[],"default_left":[0,0,0,0,0,0,0,0,0,0,0,0,0,0,0,0,0,0,0,0,0,0,0,0,0,0,0,0,0,0,0,0,0,0,0,0,0,0,0,0,0,0,0,0,0],"id":23,"left_children":[1,3,5,7,9,11,13,15,17,19,-1,-1,21,23,25,-1,-1,27,29,31,33,35,37,-1,39,41,43,-1,-1,-1,-1,-1,-1,-1,-1,-1,-1,-1,-1,-1,-1,-1,-1,-1,-1],"loss_changes":[4.302863E2,1.3182602E1,5.528656E1,5.9919434E0,1.1910343E1,1.2542511E1,1.0305583E1,1.6035208E1,3.7566986E0,8.45332E0,0E0,0E0,1.0687744E1,1.0042014E1,1.3344596E1,0E0,0E0,3.7910461E0,8.863934E0,5.7527275E0,8.035036E0,6.972275E0,2.161848E1,0E0,7.234536E0,1.2881804E1,6.69366E0,0E0,0E0,0E0,0E0,0E0,0E0,0E0,0E0,0E0,0E0,0E0,0E0,0E0,0E0,0E0,0E0,0E0,0E0],"parents":[2147483647,0,0,1,1,2,2,3,3,4,4,5,5,6,6,7,7,8,8,9,9,12,12,13,13,14,14,17,17,18,18,19,19,20,20,21,21,22,22,24,24,25,25,26,26],"right_children":[2,4,6,8,10,12,14,16,18,20,-1,-1,22,24,26,-1,-1,28,30,32,34,36,38,-1,40,42,44,-1,-1,-1,-1,-1,-1,-1,-1,-1,-1,-1,-1,-1,-1,-1,-1,-1,-1],"split_conditions":[6E0,3.48E-1,8.8E0,1.4329231E-1,2.658E0,5.4194E1,5.1666665E0,3.4666667E0,8.016115E1,6E0,-5.6735676E-2,3.4887977E-2,1.3E1,-2.2976623E-1,1.04E1,3.9946765E-2,-7.151052E-2,6.3464E1,1.5333333E0,2.2E1,8.1E1,8.858E0,2.8253335E-1,-4.2088628E-2,1E0,1.3E1,9.906667E-1,-1.2117119E-2,4.2192735E-2,-4.5404404E-2,3.6606852E-2,2.8122785E-2,-2.61734E-2,-5.2831586E-2,2.500027E-2,-4.8698448E-2,-8.197745E-3,2.5916178E-2,-3.7365623E-2,4.222872E-2,-3.607643E-2,3.8465798E-2,-4.4429116E-2,-4.9305413E-2,3.184815E-2],"split_indices":[7,8,36,26,16,9,17,35,49,43,0,0,25,33,36,0,0,9,30,4,6,8,20,0,51,4,22,0,0,0,0,0,0,0,0,0,0,0,0,0,0,0,0,0,0],"split_type":[0,0,0,0,0,0,0,0,0,0,0,0,0,0,0,0,0,0,0,0,0,0,0,0,0,0,0,0,0,0,0,0,0,0,0,0,0,0,0,0,0,0,0,0,0],"sum_hessian":[6.2145264E2,3.3412073E2,2.873319E2,2.101894E2,1.2393131E2,2.4048286E2,4.6849033E1,7.294888E0,2.0289452E2,1.21900505E2,2.030811E0,2.6579583E0,2.378249E2,2.1583466E1,2.5265568E1,5.200861E0,2.0940273E0,1.9527306E2,7.6214657E0,1.1529612E2,6.604381E0,1.8192546E2,5.589944E1,2.182327E0,1.9401138E1,1.30786E1,1.2186967E1,1.5632151E0,1.9370984E2,2.1308482E0,5.4906178E0,1.12907455E2,2.388666E0,3.5155933E0,3.0887878E0,1.7413452E2,7.7909446E0,9.747103E0,4.615234E1,1.8120075E1,1.2810631E0,9.906255E0,3.1723454E0,1.1066484E1,1.1204824E0],"tree_param":{"num_deleted":"0","num_feature":"55","num_nodes":"45","size_leaf_vector":"1"}},{"base_weights":[1.892313E-2,6.88779E-1,-9.148227E-1,8.219327E-1,2.4444222E-1,6.1063282E-2,-1.0091861E0,8.65641E-1,-1.2769853E-1,5.2351034E-1,-7.602547E-1,9.69272E-1,-5.866909E-1,-1.0708234E0,-4.2327385E-2,9.182213E-1,2.9356396E-1,4.2644656E-1,-6.195516E-2,-5.482294E-2,6.363181E-1,6.584076E-1,-1.23503E0,-3.0081486E-2,1.2812551E0,-4.9597677E-2,3.681531E-2,-1.4415818E-1,-1.1455307E0,-8.953877E-1,1.2142737E0,-3.7321657E-2,3.7245203E-2,-6.734989E-2,2.1164982E-2,-2.0254415E-2,4.604199E-2,3.3678617E-2,-1.1877615E-2,-0E0,4.1070204E-2,2.2055184E-2,-5.7919484E-2,6.4773284E-2,-1.2226803E-3,-2.8971106E-2,6.3973665E-2,-4.819448E-2,-5.8574597E-3,-5.246515E-2,3.7480883E-2,5.913364E-2,1.1279145E-2],"categories":[],"categories_nodes":[],"categories_segments":[],"categories_sizes":[],"default_left":[0,0,0,0,0,0,0,0,0,0,0,0,0,0,0,0,0,0,0,0,0,0,0,0,0,0,0,0,0,0,0,0,0,0,0,0,0,0,0,0,0,0,0,0,0,0,0,0,0,0,0,0,0],"id":24,"left_children":[1,3,5,7,9,11,13,15,17,19,21,23,25,27,29,31,33,35,-1,-1,37,39,41,-1,43,-1,-1,45,47,49,51,-1,-1,-1,-1,-1,-1,-1,-1,-1,-1,-1,-1,-1,-1,-1,-1,-1,-1,-1,-1,-1,-1],"loss_changes":[3.7139328E2,2.0152481E1,2.2993744E1,1.1203598E1,2.317795E1,1.3970101E1,1.3328369E1,7.250473E0,1.0579457E1,1.4542105E1,1.300133E1,6.3317347E0,1.4776327E1,1.4422516E1,1.6812235E1,6.4131775E0,1.1494285E1,7.198629E0,0E0,0E0,1.2095972E1,1.2987642E0,6.1739254E0,0E0,4.1102934E0,0E0,0E0,1.8369816E1,1.13350525E1,8.419628E0,9.632082E-1,0E0,0E0,0E0,0E0,0E0,0E0,0E0,0E0,0E0,0E0,0E0,0E0,0E0,0E0,0E0,0E0,0E0,0E0,0E0,0E0,0E0,0E0],"parents":[2147483647,0,0,1,1,2,2,3,3,4,4,5,5,6,6,7,7,8,8,9,9,10,10,11,11,12,12,13,13,14,14,15,15,16,16,17,17,20,20,21,21,22,22,24,24,27,27,28,28,29,29,30,30],"right_children":[2,4,6,8,10,12,14,16,18,20,22,24,26,28,30,32,34,36,-1,-1,38,40,42,-1,44,-1,-1,46,48,50,52,-1,-1,-1,-1,-1,-1,-1,-1,-1,-1,-1,-1,-1,-1,-1,-1,-1,-1,-1,-1,-1,-1],"split_conditions":[7E0,5E0,4.2E0,4.6246666E-1,1.562E0,7E0,2.2933332E1,2E0,1.7E0,4.9875E-1,3.9E0,1.3E1,2.13E2,7.724286E1,4.4166666E-1,1.2E0,1.2333333E0,2E-1,-6.195516E-2,-5.482294E-2,4E0,1.0163E2,-1.012979E0,-3.0081486E-2,3.1593332E2,-4.9597677E-2,3.681531E-2,7.659425E1,8.5258705E1,2E1,5.2286667E1,-3.7321657E-2,3.7245203E-2,-6.734989E-2,2.1164982E-2,-2.0254415E-2,4.604199E-2,3.3678617E-2,-1.1877615E-2,-0E0,4.1070204E-2,2.2055184E-2,-5.7919484E-2,6.4773284E-2,-1.2226803E-3,-2.8971106E-2,6.3973665E-2,-4.819448E-2,-5.8574597E-3,-5.246515E-2,3.7480883E-2,5.913364E-2,1.1279145E-2],"split_indices":[7,7,17,20,16,2,41,11,30,26,12,0,45,24,22,36,30,44,0,0,43,9,31,0,23,0,0,24,49,25,49,0,0,0,0,0,0,0,0,0,0,0,0,0,0,0,0,0,0,0,0,0,0],"split_type":[0,0,0,0,0,0,0,0,0,0,0,0,0,0,0,0,0,0,0,0,0,0,0,0,0,0,0,0,0,0,0,0,0,0,0,0,0,0,0,0,0,0,0,0,0,0,0,0,0,0,0,0,0],"sum_hessian":[5.9180664E2,3.4481253E2,2.4699413E2,2.6448108E2,8.033145E1,2.1715061E1,2.2527907E2,2.5302876E2,1.1452316E1,6.3321518E1,1.7009935E1,8.897709E0,1.2817353E1,2.1157988E2,1.3699177E1,2.3101593E2,2.2012825E1,8.6925125E0,2.7598038E0,2.8827634E0,6.0438755E1,4.1154065E0,1.2894529E1,1.0996356E0,7.798073E0,9.111513E0,3.70584E0,1.6103325E1,1.9547656E2,8.378412E0,5.320764E0,1.0524728E0,2.2996346E2,1.6436414E0,2.0369184E1,3.871622E0,4.8208904E0,4.969355E1,1.0745204E1,1.779978E0,2.3354282E0,1.1541442E0,1.1740385E1,6.074416E0,1.723657E0,1.2564609E1,3.5387168E0,1.8423001E2,1.1246557E1,7.1035776E0,1.2748346E0,3.6063285E0,1.7144358E0],"tree_param":{"num_deleted":"0","num_feature":"55","num_nodes":"53","size_leaf_vector":"1"}},{"base_weights":[-8.044886E-3,6.4557207E-1,-9.656588E-1,7.9612947E-1,1.3509199E-1,-1.0979786E0,-1.7780544E-2,8.116172E-1,-4.401093E-2,-6.050129E-1,4.8665276E-1,3.4003366E-2,-1.1283197E0,2.638277E-1,-4.6637252E-2,8.750054E-1,4.172054E-1,-1.0966238E0,3.6605024E-1,5.693663E-1,-6.969067E-1,1.2415783E-2,-1.1604263E0,7.4204946E-1,-5.9797096E-1,3.6928877E-2,1.0454231E-2,-2.1252703E-2,2.4645243E-2,-5.000326E-2,2.3364214E-2,-2.2988686E-2,3.7259843E-2,1.2345277E-2,4.0975012E-2,1.2451533E-2,-4.688657E-2,-3.9139602E-2,4.048666E-2,-4.7121648E-2,6.872913E-3,-3.4558486E-2,3.9483156E-2,-4.9845636E-2,3.7694532E-2],"categories":[],"categories_nodes":[],"categories_segments":[],"categories_sizes":[],"default_left":[0,0,0,0,0,0,0,0,0,0,0,0,0,0,0,0,0,0,0,0,0,0,0,0,0,0,0,0,0,0,0,0,0,0,0,0,0,0,0,0,0,0,0,0,0],"id":25,"left_children":[1,3,5,7,9,11,13,15,-1,17,19,-1,21,23,-1,25,27,29,31,33,35,37,39,41,43,-1,-1,-1,-1,-1,-1,-1,-1,-1,-1,-1,-1,-1,-1,-1,-1,-1,-1,-1,-1],"loss_changes":[3.6744974E2,2.6609024E1,2.9743134E1,8.7655945E0,2.1307238E1,1.3334381E1,1.0190161E1,6.19281E0,0E0,1.3066225E1,5.810233E0,0E0,7.680481E0,1.0788753E1,0E0,6.425003E0,7.7256446E0,5.3954716E0,5.6493783E0,5.771446E0,2.3633823E0,7.480869E0,5.0112915E0,7.413931E0,1.0614331E1,0E0,0E0,0E0,0E0,0E0,0E0,0E0,0E0,0E0,0E0,0E0,0E0,0E0,0E0,0E0,0E0,0E0,0E0,0E0,0E0],"parents":[2147483647,0,0,1,1,2,2,3,3,4,4,5,5,6,6,7,7,9,9,10,10,12,12,13,13,15,15,16,16,17,17,18,18,19,19,20,20,21,21,22,22,23,23,24,24],"right_children":[2,4,6,8,10,12,14,16,-1,18,20,-1,22,24,-1,26,28,30,32,34,36,38,40,42,44,-1,-1,-1,-1,-1,-1,-1,-1,-1,-1,-1,-1,-1,-1,-1,-1,-1,-1,-1,-1],"split_conditions":[7E0,4.5E0,1.8333334E1,1.2594666E0,7.4666667E0,6.030043E1,1.36E1,1.81E2,-4.401093E-2,1.4E1,9.066667E0,3.4003366E-2,1.6360205E1,2E0,-4.6637252E-2,2E0,1.9329922E1,2.2E1,3.6422157E1,1.9E0,4.8303333E-1,3.4E1,1.2177675E2,8E0,3.9E1,3.6928877E-2,1.0454231E-2,-2.1252703E-2,2.4645243E-2,-5.000326E-2,2.3364214E-2,-2.2988686E-2,3.7259843E-2,1.2345277E-2,4.0975012E-2,1.2451533E-2,-4.688657E-2,-3.9139602E-2,4.048666E-2,-4.7121648E-2,6.872913E-3,-3.4558486E-2,3.9483156E-2,-4.9845636E-2,3.7694532E-2],"split_indices":[7,12,41,21,36,24,12,42,0,25,35,0,48,5,0,11,47,4,48,30,15,0,24,1,0,0,0,0,0,0,0,0,0,0,0,0,0,0,0,0,0,0,0,0,0],"split_type":[0,0,0,0,0,0,0,0,0,0,0,0,0,0,0,0,0,0,0,0,0,0,0,0,0,0,0,0,0,0,0,0,0,0,0,0,0,0,0,0,0,0,0,0,0],"sum_hessian":[5.850152E2,3.478277E2,2.371875E2,2.6802332E2,7.980439E1,2.0790146E2,2.9286032E1,2.6647183E2,1.5514926E0,2.5376488E1,5.4427902E1,2.723517E0,2.0517795E2,2.4066364E1,5.2196665E0,2.2830719E2,3.8164635E1,1.6829866E1,8.546619E0,5.1436657E1,2.9912438E0,5.548274E0,1.9962967E2,1.5641635E1,8.424729E0,2.1105635E2,1.7250835E1,6.2395244E0,3.1925112E1,1.5711102E1,1.1187655E0,3.13593E0,5.41069E0,3.390571E1,1.753095E1,1.0014344E0,1.9898093E0,2.7469084E0,2.8013656E0,1.9721295E2,2.4167242E0,1.6821504E0,1.3959485E1,6.1096945E0,2.3150349E0],"tree_param":{"num_deleted":"0","num_feature":"55","num_nodes":"45","size_leaf_vector":"1"}},{"base_weights":[3.6799237E-2,6.782773E-1,-9.4802666E-1,8.9608985E-1,3.4782898E-1,-1.12109E-1,-1.022946E0,-4.413345E-2,9.203931E-1,5.212071E-1,-2.0551488E-1,5.063602E-1,-4.6655707E-2,-7.1284336E-1,-1.1989571E0,9.476432E-1,4.785859E-2,5.6154823E-1,-3.8603943E-2,2.7411515E-1,-1.0214858E0,-3.4313142E-2,9.119322E-1,-9.36056E-1,1.06890805E-1,-4.9409483E-2,-3.5832547E-2,2.884567E-2,4.2992327E-2,-4.1923255E-2,2.8390614E-2,3.934167E-3,2.6948383E-2,-4.6369273E-2,2.1073751E-2,-5.5490468E-2,4.207399E-3,4.633481E-3,5.604923E-2,-4.11271E-2,2.15253E-2,3.7094068E-2,-4.2745274E-2,5.869754E-2,-3.5983264E-2],"categories":[],"categories_nodes":[],"categories_segments":[],"categories_sizes":[],"default_left":[0,0,0,0,0,0,0,0,0,0,0,0,0,0,0,0,0,0,0,0,0,0,0,0,0,0,0,0,0,0,0,0,0,0,0,0,0,0,0,0,0,0,0,0,0],"id":26,"left_children":[1,3,5,7,9,11,13,-1,15,17,19,21,-1,23,25,27,29,31,-1,33,35,-1,37,39,41,-1,43,-1,-1,-1,-1,-1,-1,-1,-1,-1,-1,-1,-1,-1,-1,-1,-1,-1,-1],"loss_changes":[3.6589432E2,2.4811844E1,1.4077103E1,1.1231171E1,1.36827545E1,1.371141E1,1.0383575E1,0E0,4.816635E0,6.972088E0,1.3763135E1,8.122131E0,0E0,1.4544987E1,5.394989E0,4.868988E0,6.139036E0,5.351078E0,0E0,8.621508E0,5.6200094E0,0E0,3.8771677E0,9.007404E0,1.7952044E1,0E0,7.889673E0,0E0,0E0,0E0,0E0,0E0,0E0,0E0,0E0,0E0,0E0,0E0,0E0,0E0,0E0,0E0,0E0,0E0,0E0],"parents":[2147483647,0,0,1,1,2,2,3,3,4,4,5,5,6,6,8,8,9,9,10,10,11,11,13,13,14,14,15,15,16,16,17,17,19,19,20,20,22,22,23,23,24,24,26,26],"right_children":[2,4,6,8,10,12,14,-1,16,18,20,22,-1,24,26,28,30,32,-1,34,36,-1,38,40,42,-1,44,-1,-1,-1,-1,-1,-1,-1,-1,-1,-1,-1,-1,-1,-1,-1,-1,-1,-1],"split_conditions":[7E0,4E0,4.2E0,2.2666667E0,1.562E0,3.1613333E2,1.373E0,-4.413345E-2,8.317088E1,1.2133333E1,1.47E2,5.266667E0,-4.6655707E-2,1.5E1,3.4E1,2.4266666E1,4.8320413E-1,3.116E2,-3.8603943E-2,4.134367E-2,1.8490477E0,-3.4313142E-2,2.5E1,3.3933334E1,2.023E3,-4.9409483E-2,8.94E-1,2.884567E-2,4.2992327E-2,-4.1923255E-2,2.8390614E-2,3.934167E-3,2.6948383E-2,-4.6369273E-2,2.1073751E-2,-5.5490468E-2,4.207399E-3,4.633481E-3,5.604923E-2,-4.11271E-2,2.15253E-2,3.7094068E-2,-4.2745274E-2,5.869754E-2,-3.5983264E-2],"split_indices":[7,7,17,36,16,23,8,0,49,35,42,41,0,17,2,41,46,23,0,46,32,0,0,41,3,0,16,0,0,0,0,0,0,0,0,0,0,0,0,0,0,0,0,0,0],"split_type":[0,0,0,0,0,0,0,0,0,0,0,0,0,0,0,0,0,0,0,0,0,0,0,0,0,0,0,0,0,0,0,0,0,0,0,0,0,0,0,0,0,0,0,0,0],"sum_hessian":[5.7720593E2,3.4978326E2,2.2742268E2,2.0960762E2,1.4017563E2,1.9021399E1,2.0840128E2,1.9346075E0,2.0767302E2,1.0691497E2,3.3260654E1,1.2256367E1,6.7650313E0,7.749171E1,1.3090958E2,2.0118901E2,6.484009E0,1.0476103E2,2.1539433E0,2.1288641E1,1.1972013E1,2.4967117E0,9.759655E0,6.0891197E1,1.6600512E1,1.2680627E2,4.103303E0,7.50213E1,1.261677E2,2.164941E0,4.3190675E0,2.0962095E1,8.3798935E1,2.5940387E0,1.8694603E1,8.930254E0,3.0417597E0,4.263691E0,5.4959645E0,5.765852E1,3.2326796E0,9.951208E0,6.6493025E0,1.2000465E0,2.9032564E0],"tree_param":{"num_deleted":"0","num_feature":"55","num_nodes":"45","size_leaf_vector":"1"}},{"base_weights":[1.2208237E-2,6.583372E-1,-7.803711E-1,7.6287234E-1,7.961775E-2,-1.0432869E0,1.1822488E-1,8.57783E-1,3.70676E-1,4.7615385E-1,-4.5101205E-1,3.8206E-1,-1.07608E0,8.5489404E-1,-2.4333282E-1,1.0708978E0,7.1490234E-1,6.0381395E-1,-4.4056636E-1,6.463451E-1,-4.3528743E-2,-1.114367E0,2.70105E-1,-3.2163583E-2,5.080605E-2,4.0271303E-1,-1.1012207E0,1.0390217E0,-3.8516802E-1,1.1218731E0,-4.7247958E-1,-1.3123441E-2,4.392238E-2,3.0910436E-2,5.286679E-3,-9.477467E-3,3.8629897E-2,-4.792503E-2,2.0765731E-2,4.2256176E-2,3.8600294E-3,-6.451277E-2,3.526052E-2,3.1820312E-2,-4.421138E-2,3.0536985E-2,-0E0,-2.6450055E-3,-4.5573764E-2,-6.1739148E-3,4.860173E-2,-3.6079448E-2,1.308678E-2,-0E0,7.338332E-2,3.3680394E-3,-4.9466915E-2],"categories":[],"categories_nodes":[],"categories_segments":[],"categories_sizes":[],"default_left":[0,0,0,0,0,0,0,0,0,0,0,0,0,0,0,0,0,0,0,0,0,0,0,0,0,0,0,0,0,0,0,0,0,0,0,0,0,0,0,0,0,0,0,0,0,0,0,0,0,0,0,0,0,0,0,0,0],"id":27,"left_children":[1,3,5,7,9,11,13,15,17,19,21,23,25,27,29,31,33,35,37,39,-1,41,43,-1,-1,45,47,49,51,53,55,-1,-1,-1,-1,-1,-1,-1,-1,-1,-1,-1,-1,-1,-1,-1,-1,-1,-1,-1,-1,-1,-1,-1,-1,-1,-1],"loss_changes":[2.9326144E2,1.8944443E1,6.0964035E1,9.498138E0,1.06412E1,9.787384E0,1.5987755E1,5.572571E0,1.0493774E1,8.366046E0,1.0714739E1,6.4902387E0,7.761841E0,4.9731665E0,1.3063999E1,3.6142273E0,4.2379456E0,1.3220971E1,9.803237E0,5.8234444E0,0E0,1.295001E1,8.854266E0,0E0,0E0,6.2336105E-1,7.3823395E0,3.9759216E0,1.5349466E0,4.760987E0,1.5215837E1,0E0,0E0,0E0,0E0,0E0,0E0,0E0,0E0,0E0,0E0,0E0,0E0,0E0,0E0,0E0,0E0,0E0,0E0,0E0,0E0,0E0,0E0,0E0,0E0,0E0,0E0],"parents":[2147483647,0,0,1,1,2,2,3,3,4,4,5,5,6,6,7,7,8,8,9,9,10,10,11,11,12,12,13,13,14,14,15,15,16,16,17,17,18,18,19,19,21,21,22,22,25,25,26,26,27,27,28,28,29,29,30,30],"right_children":[2,4,6,8,10,12,14,16,18,20,22,24,26,28,30,32,34,36,38,40,-1,42,44,-1,-1,46,48,50,52,54,56,-1,-1,-1,-1,-1,-1,-1,-1,-1,-1,-1,-1,-1,-1,-1,-1,-1,-1,-1,-1,-1,-1,-1,-1,-1,-1],"split_conditions":[6E0,4.2E0,1.6368286E-1,1.331E0,1.1E1,1.6360205E1,3.6E0,4.7E-2,1.57E2,1.794E0,7.98E-1,3.4E1,2.9E-1,9.615493E1,7.782555E1,6.3464E1,1E0,1.872E0,1.0333333E1,2E0,-4.3528743E-2,2.84E2,1.09E0,-3.2163583E-2,5.080605E-2,2E0,5.9E0,7.2692E1,9E0,9.533334E0,7.233333E0,-1.3123441E-2,4.392238E-2,3.0910436E-2,5.286679E-3,-9.477467E-3,3.8629897E-2,-4.792503E-2,2.0765731E-2,4.2256176E-2,3.8600294E-3,-6.451277E-2,3.526052E-2,3.1820312E-2,-4.421138E-2,3.0536985E-2,-0E0,-2.6450055E-3,-4.5573764E-2,-6.1739148E-3,4.860173E-2,-3.6079448E-2,1.308678E-2,-0E0,7.338332E-2,3.3680394E-3,-4.9466915E-2],"split_indices":[12,12,46,16,4,48,17,8,42,16,8,0,8,24,24,9,11,16,34,27,0,45,8,0,0,1,40,9,1,40,40,0,0,0,0,0,0,0,0,0,0,0,0,0,0,0,0,0,0,0,0,0,0,0,0,0,0],"split_type":[0,0,0,0,0,0,0,0,0,0,0,0,0,0,0,0,0,0,0,0,0,0,0,0,0,0,0,0,0,0,0,0,0,0,0,0,0,0,0,0,0,0,0,0,0,0,0,0,0,0,0,0,0,0,0,0,0],"sum_hessian":[5.706756E2,3.14546E2,2.5612958E2,2.6600586E2,4.8540146E1,1.9811449E2,5.8015095E1,2.1301466E2,5.2991188E1,2.7946804E1,2.0593342E1,4.1474E0,1.9396709E2,1.8741545E1,3.927355E1,8.260686E1,1.304078E2,4.145628E1,1.1534906E1,2.5791637E1,2.1551666E0,1.0514449E1,1.0078894E1,1.7680063E0,2.3793933E0,2.9249482E0,1.9104214E2,1.6529903E1,2.2116413E0,5.0219007E0,3.4251648E1,1.2921711E0,8.131468E1,1.181766E2,1.2231209E1,1.2496559E1,2.8959723E1,6.365773E0,5.1691327E0,1.4141862E1,1.16497755E1,8.606969E0,1.9074804E0,7.6506443E0,2.4282491E0,1.1617421E0,1.763206E0,6.976587E0,1.8406555E2,2.0675564E0,1.4462346E1,1.208786E0,1.0028552E0,2.355452E0,2.6664486E0,2.0255434E1,1.3996215E1],"tree_param":{"num_deleted":"0","num_feature":"55","num_nodes":"57","size_leaf_vector":"1"}},{"base_weights":[3.8684797E-2,6.8151164E-1,-7.975936E-1,7.421675E-1,-0E0,-9.2461306E-1,1.0360009E-2,8.9591795E-1,5.1546293E-1,3.5797045E-1,-6.645296E-2,-1.0022914E0,2.3405409E-1,-6.702634E-1,6.0662216E-1,1.0847571E0,7.353314E-1,-8.518583E-2,5.5987567E-1,6.360007E-1,-7.128127E-1,4.3267328E-1,-1.0451415E0,1.5131738E0,-7.1980643E-1,2.9391292E-1,-1.1731192E0,-4.0668793E-2,8.5054487E-1,-0E0,4.3945372E-2,3.2398935E-2,-4.7606337E-4,2.483023E-2,-3.436257E-2,-8.932454E-3,3.5990585E-2,2.4010092E-2,-6.5907545E-2,-3.6774013E-2,4.3350562E-2,-3.21587E-2,-4.8226465E-2,7.9113446E-2,6.5545123E-3,-4.3193463E-2,3.5884865E-2,3.876182E-2,-3.4566727E-2,-5.4574378E-2,-0E0,4.8356805E-2,-1.219309E-2],"categories":[],"categories_nodes":[],"categories_segments":[],"categories_sizes":[],"default_left":[0,0,0,0,0,0,0,0,0,0,0,0,0,0,0,0,0,0,0,0,0,0,0,0,0,0,0,0,0,0,0,0,0,0,0,0,0,0,0,0,0,0,0,0,0,0,0,0,0,0,0,0,0],"id":28,"left_children":[1,3,5,7,9,11,13,15,17,19,-1,21,23,25,27,29,31,-1,33,35,37,39,41,43,45,47,49,-1,51,-1,-1,-1,-1,-1,-1,-1,-1,-1,-1,-1,-1,-1,-1,-1,-1,-1,-1,-1,-1,-1,-1,-1,-1],"loss_changes":[3.03746E2,1.3244919E1,2.5298218E1,9.625977E0,1.6743942E1,1.9417984E1,1.4294797E1,4.2741547E0,1.5275005E1,7.3074856E0,0E0,1.2763138E1,1.8332449E1,8.376588E0,8.313345E0,1.1174545E0,5.500717E0,0E0,1.087912E1,4.5524206E0,7.4137E0,6.6607738E0,6.3325043E0,3.4595642E0,6.0465527E0,5.810836E0,2.604433E0,0E0,7.493005E0,0E0,0E0,0E0,0E0,0E0,0E0,0E0,0E0,0E0,0E0,0E0,0E0,0E0,0E0,0E0,0E0,0E0,0E0,0E0,0E0,0E0,0E0,0E0,0E0],"parents":[2147483647,0,0,1,1,2,2,3,3,4,4,5,5,6,6,7,7,8,8,9,9,11,11,12,12,13,13,14,14,15,15,16,16,18,18,19,19,20,20,21,21,22,22,23,23,24,24,25,25,26,26,28,28],"right_children":[2,4,6,8,10,12,14,16,18,20,-1,22,24,26,28,30,32,-1,34,36,38,40,42,44,46,48,50,-1,52,-1,-1,-1,-1,-1,-1,-1,-1,-1,-1,-1,-1,-1,-1,-1,-1,-1,-1,-1,-1,-1,-1,-1,-1],"split_conditions":[6E0,2E0,1.9133333E1,6.1666665E0,5.04E-1,6.015E0,7.253E-1,1.23E-1,1.7333333E0,2.6666668E-1,-6.645296E-2,1.2566666E-1,9.725E-1,1.5E-1,1.8906666E-1,6.3464E1,3.3333334E-1,-8.518583E-2,6.6E-1,4E0,2.697E-1,8.3E0,1.373E0,4E-1,5.25E2,6.1666665E0,6.081546E-1,-4.0668793E-2,2E0,-0E0,4.3945372E-2,3.2398935E-2,-4.7606337E-4,2.483023E-2,-3.436257E-2,-8.932454E-3,3.5990585E-2,2.4010092E-2,-6.5907545E-2,-3.6774013E-2,4.3350562E-2,-3.21587E-2,-4.8226465E-2,7.9113446E-2,6.5545123E-3,-4.3193463E-2,3.5884865E-2,3.876182E-2,-3.4566727E-2,-5.4574378E-2,-0E0,4.8356805E-2,-1.219309E-2],"split_indices":[7,11,41,17,8,8,15,8,35,38,0,21,16,44,20,9,38,0,22,11,15,40,8,36,42,17,31,0,5,0,0,0,0,0,0,0,0,0,0,0,0,0,0,0,0,0,0,0,0,0,0,0,0],"split_type":[0,0,0,0,0,0,0,0,0,0,0,0,0,0,0,0,0,0,0,0,0,0,0,0,0,0,0,0,0,0,0,0,0,0,0,0,0,0,0,0,0,0,0,0,0,0,0,0,0,0,0,0,0],"sum_hessian":[5.630329E2,3.1850812E2,2.4452481E2,2.9246292E2,2.6045189E1,2.112874E2,3.3237404E1,1.722502E2,1.2021272E2,2.2048653E1,3.9965353E0,1.9821979E2,1.3067613E1,1.5384467E1,1.7852936E1,7.623049E1,9.6019714E1,1.1726035E0,1.1904012E2,1.7900259E1,4.1483946E0,5.416037E0,1.9280376E2,5.376387E0,7.691226E0,5.347607E0,1.003686E1,1.8647273E0,1.5988208E1,1.0129113E0,7.521758E1,8.734462E1,8.675092E0,1.1474975E2,4.290375E0,4.1510053E0,1.3749253E1,1.8296113E0,2.3187833E0,1.5765811E0,3.8394558E0,7.969591E1,1.1310785E2,3.5975688E0,1.7788186E0,6.6128106E0,1.0784152E0,3.535866E0,1.811741E0,8.558784E0,1.4780772E0,1.2233733E1,3.7544749E0],"tree_param":{"num_deleted":"0","num_feature":"55","num_nodes":"53","size_leaf_vector":"1"}},{"base_weights":[-7.969326E-3,5.7897186E-1,-8.771002E-1,6.223804E-1,-6.205561E-1,8.658461E-2,-9.837089E-1,7.8865963E-1,3.7474915E-1,-1.1312752E0,7.259837E-1,6.4485383E-1,-4.2183265E-2,-5.010915E-1,-1.0885273E0,9.002176E-1,4.297576E-1,4.4129172E-1,-6.0503805E-1,5.966174E-3,-5.3186145E-2,3.6616977E-2,8.110005E-3,9.6741974E-1,-3.8500477E-2,8.133157E-1,-7.754594E-1,-1.164987E0,-1.3104896E-1,3.671528E-2,-1.7580552E-2,7.6087425E-3,4.394978E-2,2.254192E-2,-5.5367954E-4,-5.946684E-2,1.5980154E-2,-3.1727247E-2,4.7006827E-2,-2.8630354E-2,5.1831268E-2,-4.0203556E-2,3.581873E-2,2.0741483E-2,-4.742572E-2,4.9861386E-2,-4.356724E-2],"categories":[],"categories_nodes":[],"categories_segments":[],"categories_sizes":[],"default_left":[0,0,0,0,0,0,0,0,0,0,0,0,0,0,0,0,0,0,0,0,0,0,0,0,0,0,0,0,0,0,0,0,0,0,0,0,0,0,0,0,0,0,0,0,0,0,0],"id":29,"left_children":[1,3,5,7,9,11,13,15,17,19,21,23,-1,25,27,29,31,33,35,-1,-1,-1,-1,37,-1,39,41,43,45,-1,-1,-1,-1,-1,-1,-1,-1,-1,-1,-1,-1,-1,-1,-1,-1,-1,-1],"loss_changes":[2.7753018E2,1.7290451E1,2.270958E1,1.2512581E1,8.947931E0,1.508405E1,9.2951355E0,6.952942E0,8.61175E0,2.5947256E0,7.811129E-2,9.177975E0,0E0,1.4076345E1,1.1531769E1,3.7942123E0,7.0949707E0,6.7822723E0,8.214569E0,0E0,0E0,0E0,0E0,6.0168123E0,0E0,6.050353E0,1.296998E1,5.8705444E0,1.8708197E1,0E0,0E0,0E0,0E0,0E0,0E0,0E0,0E0,0E0,0E0,0E0,0E0,0E0,0E0,0E0,0E0,0E0,0E0],"parents":[2147483647,0,0,1,1,2,2,3,3,4,4,5,5,6,6,7,7,8,8,9,9,10,10,11,11,13,13,14,14,15,15,16,16,17,17,18,18,23,23,25,25,26,26,27,27,28,28],"right_children":[2,4,6,8,10,12,14,16,18,20,22,24,-1,26,28,30,32,34,36,-1,-1,-1,-1,38,-1,40,42,44,46,-1,-1,-1,-1,-1,-1,-1,-1,-1,-1,-1,-1,-1,-1,-1,-1,-1,-1],"split_conditions":[7E0,6E0,4.2E0,4E0,3E-1,1.05E1,9E0,6.8333335E0,3E0,2.38E-1,2E0,2.4312727E1,-4.2183265E-2,6.8803E1,6.015E0,2.3E1,3.7941904E0,1.562E0,6.666667E-1,5.966174E-3,-5.3186145E-2,3.6616977E-2,8.110005E-3,1.20466664E-1,-3.8500477E-2,2E-1,3.6225E0,4.39E-1,8.9472E1,3.671528E-2,-1.7580552E-2,7.6087425E-3,4.394978E-2,2.254192E-2,-5.5367954E-4,-5.946684E-2,1.5980154E-2,-3.1727247E-2,4.7006827E-2,-2.8630354E-2,5.1831268E-2,-4.0203556E-2,3.581873E-2,2.0741483E-2,-4.742572E-2,4.9861386E-2,-4.356724E-2],"split_indices":[7,43,17,7,44,40,7,40,11,8,1,47,0,9,8,4,26,16,19,0,